tree
version=v4
num_class=1
num_tree_per_iteration=1
label_index=0
max_feature_idx=30
objective=binary sigmoid:1
feature_names=feat_pct_chg_1 feat_pct_chg_3 feat_pct_chg_5 feat_pct_chg_10 feat_pct_chg_20 feat_price_pctl_20 feat_body_ratio feat_lower_shadow_ratio feat_upper_shadow_ratio feat_atr_ratio feat_atr_mom_5 feat_rsi_val feat_rsi_diff feat_bias_s feat_bias_l feat_macd_norm feat_macd_diff feat_bb_pos feat_bb_width feat_vol_pct_chg_1 feat_vol_pct_chg_5 feat_vol_ratio_5 feat_vol_slope feat_turnover feat_market_pct_1 feat_market_pct_5 feat_market_pct_10 feat_market_pct_20 feat_market_bias_20 feat_rsi_rank_252 feat_mom_rank_252
feature_infos=[-0.20045300113250286:0.2005044136191676] [-0.27153110047846885:0.72779369627507173] [-0.35080645161290325:1.1437037037037037] [-0.39068752273554019:2.1221052631578945] [-0.69694311652997676:2.501770956316411] [0:0.9999999999739202] [-0.3486176668914362:0.20493583415597239] [0:0.19120533961523364] [0:0.15873567210837097] [0.0056828116803636719:0.2072398190045249] [-0.79596348999376387:3.450000000000002] [0.097448487158722938:0.97451780369682051] [-0.29401606873120834:0.34520955533104125] [-0.210628898080922:0.39308751304636685] [-0.33461042234706695:1.3390583945411096] [-0.08505545883617166:0.078740974251266707] [-0.025057448533488527:0.020485740659023095] [-0.16775208371197139:1.0593516344650367] [0.013686225777317821:2.4469961564815019] [-0.95727608554042776:82.011469352302441] [-0.98977546419906703:97.270341640062895] [0.011209448900586911:4.7530249907275453] [-0.11787660559324799:0.1863179640867863] [0:0.599804] [-0.073438340671686753:0.080636921063662381] [-0.082665269747612014:0.21886906459391997] [-0.079723030344439061:0.29055453635855866] [-0.084638456428626774:0.22783676895288196] [-0.079207691826033988:0.2204289478145085] [0.003968253968253968:1] [0.003968253968253968:1]
tree_sizes=3432 3473 3486 3497 3486 3511 3515 3523 3481 3520 3518 3512 3515 3519 3511 3519 3514 3528 3510 3532 3540 3525 3524 3534 3525 3532 3530 3545 3533 3531 3534 3523 3545 3548 3523 3532 3536 3535 3559 3559 3557 3549 3580 3523 3533 3539 3584 3536 3556 3572 3555 3573 3544 3544 3525 3548 3548 3534 3557 3561 3545 3555 3585 3558 3564 3553 3508 3542 3570 3552 3542 3536 3541 3568 3562 3546 3529 3578 3524 3569 3528 3512 3540 3520 3536 3557 3564 3553 3539 3549 3545 3566 3557 3523 3522 3529 3521 3516 3536 3543 3532 3551 3530 3520 3537 3495 3514 3530 3497 3527 3523 3546 3512 3521 3525 3508 3510 3525 3525 3510 3536 3516 3533 3566 3573 3532 3537 3542 3529 3558 3507 3537 3485 3537 3528 3549 3510 3516 3483 3461 3562 3570 3543 3558 3495 3531 3520 3535 3515 3492 3515 3502 3471 3547 3511 3542 3555 3502 3533 3522 3547 3551 3557 3565 3530 3542 3490 3474 3505 3492 3535 3547 3465 3514 3559 3518 3543 3480 3524 3533 3543 3497 3514 3467 3462 3484 3581 3473 3463 3581 3541 3497 3541 3490 3555 3519 3522 3522 3464 3511 3485 3562 3544 3529 3516 3547 3470 3513 3490 3504 3463 3533 3523 3504 3499 3461 3493 3489 3493 3480 3515 3513 3505 3500 3497 3476 3492 3449 3542 3464 3551 3472 3498 3506 3487 3507 3501 3496 3505 3542 3479 3473 3494 3472 3528 3462 3553 3471 3579 3565 3519 3501 3503 3530 3474 3485 3466 3492 3489 3514 3481 3519 3521 3479 3496 3452 3473 3513 3447 3469 3485 3517 3511 3493 3531 3477 3513 3556 3479 3504 3476 3480 3489 3486 3490 3526 3494 3506 3486 3515 3496 3492 3562 3444 3508 3473 3483 3495 3503 3484 3491 3495 3502 3547 3471 3501 3475 3456 3495 3443 3497 3498 3504 3479 3491 3440 3487 3487 3479 3505 3469 3457 3473 3475 3494 3483 3555 3515 3504 3557 3504 3469 3476 3477 3460 3539 3481 3538 3462 3517 3467 3468 3521 3522 3465 3486 3474 3466 3500 3492 3475 3529 3546 3494 3496 3488 3489 3459 3464 3539 3476 3454 3517 3461 3487 3491 3513 3506 3456 3472 3546 3468 3492 3490 3486 3489 3490 3489 3503 3511 3485 3525 3478 3488 3466 3457 3502 3468 3497 3468 3493 3499 3451 3483 3485 3478 3491 3492 3488 3484 3492 3458 3485 3470 3488 3498 3509 3499 3461 3459 3484 3460 3472 3450 3534 3466 3458 3490 3526 3459 3509 3522 3524 3513 3521 3483 3478 3521 3484 3475 3542 3505 3519 3541 3488 3512 3497 3471 3515 3503 3471 3486 3531 3473 3473 3518 3476 3500 3514 3495 3489 3474 3456 3454 3506 3489 3486 3488 3494 3485 3490 3472 3497 3510 3524 3441 3449 3536 3458 3514 3500 3507 3495 3514 3502 3480 3479 3481 3485 3473 3481 3496 3510 3480 3540 3496 3488 3461 3459 3491 3472 3496 3511 3546

Tree=0
num_leaves=31
num_cat=0
split_feature=11 28 24 25 25 14 11 10 24 28 24 21 23 15 26 26 26 25 17 24 28 24 23 26 24 24 15 25 25 11
split_gain=3439.81 1841.84 1192.83 1051.46 677.21 633.039 610.28 446.764 398.293 335.591 513.205 334.438 309.564 267.292 257.744 319.242 232.173 277.709 231.123 231.032 428.206 463.586 279.698 232.747 225.093 225.476 219.446 208.553 173.316 177.242
threshold=0.56075495962704613 -0.035674239547378063 0.027258629236108892 0.055584429680974774 0.21630926703347111 -0.030663092147953614 0.69852109288145348 0.28920714627314287 0.014279679938823399 0.014491116670558668 0.0016254042897436707 1.1091517116677754 0.017435500000000003 0.0072791091770212325 -0.019871692919369851 -0.036719698951487127 -0.053619824809255805 -0.047424757660765253 0.086956669253878668 0.0039684449910379902 -0.010156761063604807 0.0071368922154068102 0.0076965000000000011 -0.0055102127303708883 0.0043673820333290933 0.0040590582308173149 -0.0086784616979341915 0.058035023757398337 0.098561543978735525 0.61322046059541868
decision_type=2 2 2 2 2 2 2 2 2 2 2 2 2 2 2 2 2 2 2 2 2 2 2 2 2 2 2 2 2 2
left_child=1 14 6 5 27 7 12 26 -9 19 -11 -5 13 -2 15 16 -1 -18 -14 22 21 24 -7 -22 25 -21 -3 -4 29 -20
right_child=2 3 4 11 -6 9 -8 8 -10 10 -12 -13 18 -15 -16 -17 17 -19 28 20 23 -23 -24 -25 -26 -27 -28 -29 -30 -31
leaf_value=-1.2129459247586232 -1.2270138315762558 -1.283363635386592 -1.2098760019763535 -1.2054583521782904 -1.3561182450424532 -1.2765412741644435 -1.1822981145643032 -1.2567853002343476 -1.1254270548404706 -1.2032307215961533 -1.2498112115513769 -1.0931696165397817 -1.1895530809540569 -1.2787346281093923 -1.0925430001314234 -1.2747458090105659 -1.2522997492137546 -1.1431150602545874 -1.227088003062824 -1.1400631143334388 -1.3065314560425547 -1.2594181552586563 -1.2496308631816908 -1.242048470221111 -1.1363385351279462 -1.3445049427657261 -1.2616758841952165 -1.0831553839346386 -1.3120134203346534 -1.2063763504008
leaf_weight=295.84023758769035 1453.479157269001 1936.6208783984184 36.594612345099449 140.64383916556835 27.441354542970657 1251.7217288911343 1471.0021304637194 132.77603271603584 102.06729497015476 1066.660200342536 1326.9215281605721 125.46441712975502 966.32192601263523 301.64371463656425 77.042495682835579 94.561938241124153 66.964958265423775 446.88053293526173 1859.2335214465857 25.325299188494682 158.0076562911272 173.26308596134186 4223.944399997592 1223.6220095604658 245.65471042692661 28.850178435444832 2932.6133629828691 287.95934799313545 47.119329214096069 2324.2219406962395
leaf_count=1040 5409 8805 127 479 154 5566 4511 552 228 3598 5381 221 3066 1351 135 418 274 1114 6921 62 772 727 17118 4823 588 157 12402 465 234 7947
internal_value=-1.23297 -1.24671 -1.20779 -1.25103 -1.11761 -1.25279 -1.21156 -1.26705 -1.19969 -1.24531 -1.22905 -1.15252 -1.21775 -1.2359 -1.18033 -1.18781 -1.17766 -1.15734 -1.21162 -1.25062 -1.23536 -1.19431 -1.25578 -1.24942 -1.15668 -1.24893 -1.2703 -1.09744 -1.21666 -1.21558
internal_weight=24850.5 16075.4 8775.02 15094.2 351.995 14828 8423.02 5104.08 234.843 9723.97 2393.58 266.108 6952.02 1755.12 981.29 904.248 809.686 513.845 5196.9 7330.39 1854.72 473.093 5475.67 1381.63 299.83 54.1755 4869.23 324.554 4230.57 4183.46
internal_count=94645 64460 30185 61479 746 60779 29439 21987 780 38792 8979 700 24928 6760 2981 2846 2428 1388 18168 29813 7129 1534 22684 5595 807 219 21207 592 15102 14868
is_linear=0
shrinkage=1


Tree=1
num_leaves=31
num_cat=0
split_feature=5 27 24 23 27 25 25 28 25 28 27 27 24 27 25 18 24 24 28 27 29 24 15 5 18 25 29 25 25 2
split_gain=2219.93 1474.57 1111.87 899.817 687 560.432 514.701 430.834 353.381 403.035 349.511 645.304 803.394 334.099 319.391 299.583 288.442 376.494 280.019 253.761 245.83 238.018 226.586 221.738 188.886 181.846 175.259 169.097 312.957 161.468
threshold=0.66878980626710172 -0.044851221129482081 0.027258629236108892 0.016500500000000005 0.03166967086169948 0.055584429680974774 0.21630926703347111 -0.018937259126097197 -0.0070247786545327697 -0.039347159972033093 -0.034418233448341932 -0.035870888863862631 0.0043673820333290933 -0.016694726402313283 -0.027270273662916008 0.18625980685666238 -0.0015410033863246795 0.0017485527385212587 1.0000000180025095e-35 -0.015898708978308192 0.9127250452753809 -0.0076460806635494363 0.0039402095053564833 0.21288095557842068 0.11428963133541604 -0.011592245227132923 0.4495373907138614 0.011739950775770726 0.0054879688746634079 -0.019464006522341867
decision_type=2 2 2 2 2 2 2 2 2 2 2 2 2 2 2 2 2 2 2 2 2 2 2 2 2 2 2 2 2 2
left_child=1 7 3 22 5 10 -4 8 9 -1 11 16 -13 14 -12 21 -3 27 -6 29 -5 -11 -2 -21 -20 -23 -26 28 -18 -15
right_child=2 4 6 20 18 -7 -8 -9 -10 15 13 12 -14 19 -16 -17 17 -19 24 23 -22 25 -24 -25 26 -27 -28 -29 -30 -31
leaf_value=0.13375514201925506 0.083130792681328947 0.029080774966409446 0.19126201193165462 0.095348448529820995 0.16526751346552054 0.14562623040599423 -0.035088823653757012 0.047467170789227839 0.1822302573211832 0.019096727288183558 0.096618863135123134 0.049694191777330941 0.19531935174461101 0.19558369511291052 0.029752392684292098 0.023976745370853175 0.10055916551972721 0.038435411626637044 0.098434412933924936 0.044178870287863922 0.11445670303777374 0.10309883081565524 0.054893291327812323 0.063112167889159812 0.046384024753642381 0.20143161002317478 0.081987208138775428 0.052551981430846488 0.22260539689231812 0.032037484579783462
leaf_weight=761.92998550832272 1394.2511787861586 528.67073825001717 384.92604419589043 5031.8708289563656 101.64887322485447 168.65885055065155 26.867877751588821 245.76375392079353 191.93553192913532 71.765741139650345 192.82467350363731 168.90975148975849 215.59942905604839 52.229839906096458 2418.3495228439569 175.6041302382946 312.23858387768269 379.62879824638367 925.43162532150745 2743.28865224123 2529.2295839190483 286.53123515844345 1448.4938223063946 3544.4882130473852 524.51231889426708 56.24520543217659 1013.6514205485582 118.37020590901375 63.149495303630829 21.225026592612267
leaf_count=2009 4969 2354 594 16738 246 404 154 1025 396 330 670 701 381 92 10717 791 1042 1622 3090 11644 7532 912 5799 13845 2183 109 3617 486 102 91
internal_value=0.0785791 0.0663115 0.0959134 0.092724 0.060655 0.0551886 0.176494 0.108955 0.118743 0.10973 0.0537709 0.0739667 0.131348 0.0497496 0.0346902 0.0787118 0.05823 0.0758743 0.0839409 0.0559312 0.10174 0.101898 0.0687426 0.0548518 0.0805854 0.119234 0.0698466 0.104659 0.12109 0.148326
internal_weight=26098.3 15282.7 10815.6 10403.8 13492.9 10927.6 411.794 1789.78 1544.01 1352.08 10759 1786.57 384.509 8972.41 2611.17 590.146 1402.06 873.387 2565.24 6361.23 7561.1 414.542 2842.75 6287.78 2463.6 342.776 1538.16 493.758 375.388 73.4549
internal_count=94645 58859 35786 35038 53287 44151 748 5572 4547 4151 43747 6688 1082 37059 11387 2142 5606 3252 9136 25672 24270 1351 10768 25489 8890 1021 5800 1630 1144 183
is_linear=0
shrinkage=0.05


Tree=2
num_leaves=31
num_cat=0
split_feature=30 28 24 23 15 30 28 27 27 24 15 27 27 24 24 28 25 28 5 18 25 25 5 27 24 18 27 27 9 25
split_gain=1855.56 1204.15 891.923 522.092 476.672 442.716 429.116 399.386 331.538 271.438 355.454 287.2 276.55 357.574 391.181 297.322 383.708 284.617 256.357 251.045 232.178 184.572 181.242 193.807 175.548 170.537 166.603 165.228 164.65 221.646
threshold=0.5009920634920636 -0.035674239547378063 0.027258629236108892 0.016057500000000002 -0.0081593333873540824 0.49604736907886521 0.014491116670558668 0.19008332945995535 -0.057173274273899226 0.013661487171627741 -0.0096478954933190541 -0.014841038229164936 -0.033849186989631679 0.0039684449910379902 0.0069077459119546445 -0.0046851022091999274 -0.027270273662916008 -0.0032476996130394388 0.74999998660714295 0.1171260113536698 -0.027270273662916008 0.055584429680974774 0.48148147869351704 -0.037875602977012361 -0.010539763371399223 0.063529692302655635 -0.031099373207814914 -0.0156772553057507 0.035269996298952895 -0.062354304627685701
decision_type=2 2 2 2 2 2 2 2 2 2 2 2 2 2 2 2 2 2 2 2 2 2 2 2 2 2 2 2 2 2
left_child=1 26 3 20 -5 6 9 -4 -7 10 27 -11 13 24 -15 16 -14 -17 -6 -8 -2 -21 23 -10 -12 -19 28 -3 -1 -30
right_child=2 5 7 4 18 8 19 -9 22 11 12 -13 15 14 -16 17 -18 25 -20 21 -22 -23 -24 -25 -26 -27 -28 -29 29 -31
leaf_value=0.13461515491761974 0.12418185360399109 0.0075456161877042842 0.16754990324576702 0.040757872373845705 0.078814310768431609 0.13807832482089474 0.1005180454910734 0.039691078786348206 0.068693809762868638 0.12547753974399284 -0.0021088956529614054 0.017675982386199964 0.11614184468802774 0.13625778176644851 0.0078105869985949502 0.12756213161150007 0.027166465240220081 0.092963580333227422 0.096026864592542727 0.049853923373394365 0.063623403121747982 0.10567433530125002 0.042987651598529249 0.0040166128977030969 0.065448830998645013 0.051337800033381731 0.029113892554181904 0.042810890813543098 0.14913284160362125 0.073149182917998504
leaf_weight=489.25298289954662 165.07073667645454 590.31785646080971 428.66948606073856 518.08043998479843 3326.6715524196625 71.038320094347 805.85553207993507 71.224097222089767 134.14748392999172 238.34989580512047 104.60853041708469 83.403004914522171 130.56687062978745 336.63313384354115 71.94218185544014 146.37027694284916 1683.941395714879 276.04185490310192 6185.0957408696413 688.44422559440136 3844.4276062995195 188.6723146289587 1013.6917707324028 848.08558167517185 1190.3697783499956 2265.0821409374475 61.259147390723228 759.45723088085651 131.25989957153797 357.03232270479202
leaf_count=1093 447 2759 599 2099 11204 163 2419 295 496 590 503 367 377 769 331 411 7313 900 18332 2666 14040 507 3972 3944 4393 8848 256 3146 249 1157
internal_value=0.0715156 0.057525 0.0837035 0.0813667 0.087463 0.0529168 0.0574535 0.149333 0.0319341 0.052557 0.0506416 0.0975338 0.0556996 0.0728586 0.113641 0.0492067 0.0335689 0.0597648 0.0900069 0.0803712 0.0661166 0.0618612 0.0281563 0.0128498 0.0599915 0.0558596 0.109102 0.0273878 0.114115 0.0935747
internal_weight=27205.1 12665.8 14539.2 14039.3 10029.8 11627 9560.06 499.894 2066.96 7877.08 7555.33 321.753 6205.56 1703.55 408.575 4502 1814.51 2687.49 9511.77 1682.97 4009.5 877.117 1995.92 982.233 1294.98 2541.12 1038.8 1349.78 977.545 488.292
internal_count=94645 47629 47016 46122 31635 44874 36299 894 8575 30707 29750 957 23845 5996 1100 17849 7690 10159 29536 5592 14487 3173 8412 4440 4896 9748 2755 5905 2499 1406
is_linear=0
shrinkage=0.05


Tree=3
num_leaves=31
num_cat=0
split_feature=11 27 26 24 24 11 26 4 26 26 27 26 30 9 26 24 26 14 26 26 27 24 15 8 27 15 23 30 20 24
split_gain=1819.42 980.944 809.852 519.032 448.951 346.892 342.694 382.711 331.365 317.866 288.039 273.565 231.176 223.072 271.138 210.779 300.428 189.922 187.881 257.596 187.325 185.805 173.496 164.019 161.099 160.649 213.041 155.989 150.45 149.872
threshold=0.56075495962704613 -0.044851221129482081 -0.018786232013090483 0.027258629236108892 0.02966859673947109 0.69852109288145348 -0.016650131229186623 -0.024231880479443243 0.25925338873119702 -0.017055801504244569 -0.019936894171279525 -0.019599526954981624 0.49604736907886521 0.035269996298952895 -0.019871692919369851 -0.0053311103127417483 -0.023687665495777274 -0.13782923932296262 0.15504804594258995 0.025026730875194695 -0.034418233448341932 0.0012371816802710935 -0.0096478954933190541 0.010106848548658329 -0.010844743957454437 0.0042591146157477692 0.020992500000000001 0.38147309457124129 0.059190463958179847 -0.0047711388610306984
decision_type=2 2 2 2 2 2 2 2 2 2 2 2 2 2 2 2 2 2 2 2 2 2 2 2 2 2 2 2 2 2
left_child=1 11 10 5 6 18 9 12 -5 20 15 13 17 -1 27 -3 22 -8 19 25 -4 -11 -17 24 -9 -2 -27 -15 -6 -24
right_child=3 2 4 8 28 -7 7 23 -10 21 -12 -13 -14 14 -16 16 -18 -19 -20 -21 -22 -23 29 -25 -26 26 -28 -29 -30 -31
leaf_value=0.11248207901623808 0.078461918177539447 0.011443651648148411 0.11786609225725451 0.14562411894474392 0.020247685489643421 0.10005634476303354 0.12065716350270483 0.03530712238064198 -0.035224145906617009 0.17394454496581901 0.0025348206633249749 0.046038751838596459 0.018362719240843123 0.049650108990647202 0.15475940867606727 0.022728537931119661 0.016130874219447651 0.046960473358959004 0.011828132962869466 0.090308054856576239 0.039050747937520315 0.030913518168090411 0.15614710551278016 0.073766079401886994 0.060790194656366286 0.036838867427173974 0.069813946220945111 0.10112588084093582 0.14596286926854823 0.0702128355279968
leaf_weight=951.51853877305984 2991.9132458269596 544.30358076095581 117.77685509622097 423.26784016191959 27.383835390210152 1752.0666488260031 89.055984824895859 732.37845113873482 26.941187143325806 144.47107256948948 838.41695126891136 322.30516557395458 742.93249316513538 477.7666862308979 97.053111150860786 186.6163152307272 472.84477517008781 4763.6015403866768 114.19803680479527 2349.8054513633251 209.47971697151661 26.939813300967216 55.108203113079071 2059.0089825987816 4048.9750123620033 656.33957341313362 1930.5282065868378 212.69170996546745 181.79207421839237 639.71986350417137
leaf_count=2241 9174 2417 270 592 106 4511 219 2891 154 239 3832 1212 3199 1677 133 804 2048 18173 479 6738 852 108 107 6765 14142 2508 6029 562 285 2178
internal_value=0.065498 0.0558989 0.0516868 0.0823089 0.0568393 0.0798961 0.0556642 0.0540344 0.134802 0.0963067 0.0269435 0.088349 0.0443364 0.0961907 0.0765064 0.0377223 0.048284 0.048313 0.0755043 0.0764215 0.0674157 0.151465 0.0655323 0.0619676 0.0568869 0.0705724 0.0614475 0.0655069 0.129505 0.0770285
internal_weight=28187.2 17942.1 15880.8 10245.1 13143.8 9794.85 12934.6 12436 450.209 498.667 2737.01 2061.34 5595.59 1739.03 787.512 1898.59 1354.29 4852.66 8042.78 7928.59 327.257 171.411 881.444 6840.36 4781.35 5578.78 2586.87 690.458 209.176 694.828
internal_count=94645 64460 58635 30185 47249 29439 46858 45389 746 1469 11386 5825 21591 4613 2372 7554 5137 18392 24928 24449 1122 347 3089 23798 17033 17711 8537 2239 391 2285
is_linear=0
shrinkage=0.05


Tree=4
num_leaves=31
num_cat=0
split_feature=11 27 26 25 0 27 4 26 25 26 26 26 25 30 27 27 27 25 26 25 10 23 25 10 18 25 21 14 25 26
split_gain=1506.84 817.261 683.221 465.88 370.457 355.222 393.545 327.086 369.97 291.77 276.337 277.896 398.955 264.484 264.027 250.891 239.951 230.184 216.23 311.131 198.485 194.598 181.263 171.309 186.384 168.977 165.879 165.597 169.735 158.567
threshold=0.56075495962704613 -0.044851221129482081 -0.018786232013090483 0.055584429680974774 0.076595744680851077 -0.034418233448341932 -0.030155949362878794 -0.013572062005978767 0.0040164147300384432 -0.00832380944098071 0.025415420955378302 0.15504804594258995 0.062348374607007935 0.47629266298794198 -0.010844743957454437 -0.019936894171279525 -0.035870888863862631 0.022528487041897364 -0.019599526954981624 -0.011592245227132923 0.16142409851037634 0.017435500000000003 -0.022256056550877198 -0.12790697674418564 0.087325105631772301 -0.0074890780838440798 1.1668637361787368 -0.13782923932296262 0.0071529160089561792 -0.02835916629735968
decision_type=2 2 2 2 2 2 2 2 2 2 2 2 2 2 2 2 2 2 2 2 2 2 2 2 2 2 2 2 2 2
left_child=1 17 15 5 10 7 13 8 -4 -9 21 12 -12 27 25 22 -11 18 19 20 -1 -2 29 -16 -25 -8 -5 -7 -29 -3
right_child=4 2 3 26 -6 6 14 9 -10 16 11 -13 -14 -15 23 -17 -18 -19 -20 -21 -22 -23 -24 24 -26 -27 -28 28 -30 -31
leaf_value=0.06733786862694574 0.051908961279262256 0.04237873588841453 0.053796020935303918 0.078138632649310993 0.10953928953488173 0.10846775293535621 0.058905161629202278 -0.0060682895877215851 0.1422480984031983 0.050617536826979642 0.082727957161553248 0.021262153578870117 0.14777073547762457 0.0062393432359632295 0.044918196399424098 0.0024047658181598998 0.12735257020726309 0.0037601470434061529 0.044407400496219357 0.13477501034551873 0.10666353873565321 0.071793502809551574 0.025713056239109175 0.076838530353084702 0.056471217429299697 0.01737746848257073 0.14857438415597402 0.047984085520036454 0.026640068629947368 0.1023125336976297
leaf_weight=941.75889530777931 1624.7608594894409 375.50404673814774 192.79907716810703 181.53916524350643 734.89587080478668 90.87082651257515 386.4412337988615 153.46214254200459 305.617266908288 351.83494195342064 2779.4547554701567 163.16346535086632 257.6081794500351 602.09111735224724 1505.8051442205906 839.54244528710842 143.39899295568466 93.022316470742226 292.89830753207207 327.416398614645 486.67036727070808 5069.2808616310358 1402.9660988301039 1820.3079660236835 2933.3758583813906 669.06649947166443 154.91930072009563 2558.2754602581263 1464.7592226266861 156.29402337968349
leaf_count=2733 5522 1399 673 499 1577 212 1351 677 504 1275 7518 644 309 2682 5367 3832 272 404 1068 569 1051 14615 5749 5568 9881 2757 201 9533 5797 406
internal_value=0.0602961 0.0516496 0.0478318 0.0524714 0.0752887 0.050988 0.0484532 0.0775733 0.108033 0.0541702 0.0727447 0.0848299 0.088245 0.0371907 0.0557142 0.0252307 0.0728368 0.0806858 0.0841786 0.090813 0.0807362 0.0669672 0.0351354 0.059615 0.0642704 0.0325815 0.11057 0.0417205 0.0402129 0.0599931
internal_weight=29059.8 18430.6 16288.9 13514.6 10629.2 13178.1 12031 1147.11 498.416 648.696 9894.27 3200.23 3037.06 4716 7315 2774.31 495.234 2141.77 2048.74 1755.85 1428.43 6694.04 1934.76 6259.49 4753.68 1055.51 336.458 4113.91 4023.03 531.798
internal_count=94645 64460 58635 47249 30185 46549 43148 3401 1177 2224 28608 8471 7827 18224 24924 11386 1547 5825 5421 4353 3784 20137 7554 20816 15449 4108 700 15542 15330 1805
is_linear=0
shrinkage=0.05


Tree=5
num_leaves=31
num_cat=0
split_feature=11 27 26 24 25 25 25 27 11 27 27 24 27 25 10 25 27 26 27 26 18 26 27 26 25 26 24 23 9 5
split_gain=1393.56 808.354 691.107 419.836 383.664 354.853 342.404 311.296 277.247 263.02 307.615 243.013 225.169 226.174 224.149 204.924 192.163 190.932 225.977 266.273 182.986 174.117 261.833 173.213 286.361 171.477 171.231 169.83 164.906 146.545
threshold=0.54460943211195834 -0.034773997354806511 -0.012826249689331324 0.027258629236108892 -0.028004080529536787 0.055584429680974774 0.021428560539527689 0.19008332945995535 0.69852109288145348 -0.035870888863862631 -0.044851221129482081 0.0043673820333290933 -0.016694726402313283 -0.00055850587266414997 -0.074527068052980858 0.0017454925009759983 -0.042610368229631039 0.15504804594258995 0.03166967086169948 0.057205319727601463 0.072657301683443629 0.0031913019722723539 0.0060571254959536089 -0.019599526954981624 -0.011592245227132923 -0.019871692919369851 0.0016254042897436707 0.015339500000000001 0.037581160770007914 0.091463414076442276
decision_type=2 2 2 2 2 2 2 2 2 2 2 2 2 2 2 2 2 2 2 2 2 2 2 2 2 2 2 2 2 2
left_child=1 6 4 8 -3 12 9 -5 17 10 23 -11 13 -4 -14 16 -12 18 19 -2 27 -22 -23 24 25 28 -20 -16 -1 -6
right_child=3 2 5 7 29 -7 -8 -9 -10 11 15 -13 14 -15 20 -17 -18 -19 26 -21 21 22 -24 -25 -26 -27 -28 -29 -30 -31
leaf_value=0.081867085759916469 0.055728205221083987 0.066254004589940657 0.051052891492114262 0.12721982573151042 -0.0065590527142418108 0.099298688887040687 0.0063671989903687585 0.013932720228977381 0.083831182260659123 0.025073164934179621 -0.0037383414499726889 0.1294556449015106 0.038201336092608743 0.011520372986480655 0.056870895879174169 0.0813842800448763 0.047510555446860163 0.0019393251077089346 0.082451969470201628 0.15237626056269854 0.060653852448650361 0.00044476993430013663 0.047520595498414364 0.040421188770796534 0.1244630667570172 0.13182957825046271 0.062774669268951519 0.097101653335208982 0.045788917741216476 0.019634318020576674
leaf_weight=843.07241697609425 5483.1585489064455 342.71523784101009 584.27404701709747 451.86865058541298 873.0548033118248 301.14654405415058 232.16933144629002 70.037955954670906 1881.5186995863914 68.915351063013077 227.78086498379707 292.0761135071516 3778.7597571760416 950.20817421376705 686.01242850720882 343.7814749032259 928.56496535241604 126.71600164473057 2105.8204258829355 72.204270392656326 1764.628325894475 359.1315780878067 1663.6838939338923 277.45315551757812 336.40608496963978 115.33694365620613 2327.617494776845 424.73983173072338 507.31916657090187 1374.9246646016836
leaf_count=2026 16900 1067 2066 528 4036 617 988 281 4498 271 1002 417 13715 3984 2219 968 3300 536 5470 100 5782 1508 5631 994 542 143 6733 1072 1610 5666
internal_value=0.0554141 0.0462091 0.0401057 0.0681169 0.0169744 0.0458061 0.0653746 0.112017 0.0662071 0.068851 0.064749 0.109528 0.0442285 0.0265729 0.0473509 0.0474917 0.0374154 0.062929 0.0637027 0.0569844 0.0544093 0.0491758 0.0391627 0.0771977 0.0828598 0.0733112 0.0721211 0.0722547 0.0683131 0.00946152
internal_weight=29795.1 17276.2 13103.3 12518.9 2590.69 10512.6 4172.88 521.907 11997 3940.71 3579.72 360.991 10211.4 1534.48 8676.96 1500.13 1156.35 10115.5 9988.8 5555.36 4898.2 3787.44 2022.82 2079.59 1802.13 1465.73 4433.44 1110.75 1350.39 2247.98
internal_count=94670 59624 47363 35046 10769 36594 12261 809 34237 11273 10585 688 35977 6050 29927 5270 4302 29739 29203 17000 16212 12921 7139 5315 4321 3779 12203 3291 3636 9702
is_linear=0
shrinkage=0.05


Tree=6
num_leaves=31
num_cat=0
split_feature=29 27 26 27 12 26 27 28 26 26 24 27 24 26 24 24 26 10 9 28 24 27 24 15 24 9 26 26 18 26
split_gain=1050.43 639.901 590.7 433.341 355.105 262.756 235.362 238.753 317.761 236.233 221.443 213.553 241.094 228.956 207.15 284.732 228.598 200.53 192.101 208.888 188.901 182.169 170.478 150.864 148.37 131.158 126.321 120.042 119.042 118.275
threshold=0.64300533491404877 -0.044851221129482081 -0.018786232013090483 0.00084724177299944092 0.059565131363927749 0.15504804594258995 -0.034773997354806511 0.013114387067531966 0.011437266183744745 -0.013572062005978767 0.02966859673947109 -0.019936894171279525 -0.0053311103127417483 -0.023687665495777274 -0.010145409384697599 -0.0079033709189709738 -0.012826249689331324 -0.025477707006369584 0.035269996298952895 -0.040859961251453893 0.0016254042897436707 -0.042610368229631039 0.027258629236108892 -0.0096478954933190541 0.03421936190537523 0.034033131048056449 -0.019871692919369851 0.012197376327822364 0.094072540736371793 -0.01462730459809408
decision_type=2 2 2 2 2 2 2 2 2 2 2 2 2 2 2 2 2 2 2 2 2 2 2 2 2 2 2 2 2 2
left_child=1 18 11 25 5 17 9 8 14 21 -11 12 -3 23 -8 -16 -17 -5 -1 26 -9 -4 -6 -14 -22 -2 -20 -10 -18 -23
right_child=3 2 6 4 22 -7 7 20 27 10 -12 -13 13 -15 15 16 28 -19 19 -21 24 29 -24 -25 -26 -27 -28 -29 -30 -31
leaf_value=0.082195942194544708 0.035437127952711672 -0.0013546126155256646 -0.039181107217718655 0.053100037631714586 0.079994942970525854 0.0017155704011573528 0.073260890907127924 0.067899365790577773 -0.044407689624417643 0.029904710448010258 0.11251899984588157 -0.0034542749643952844 0.014645779941996862 0.0090823452663551813 -0.0040299021013539479 0.012910949849157983 0.055652507560419257 0.070103901584391004 0.061054944409305673 0.029422348737828719 0.041163850197649426 0.080358996273021774 0.11854029340866595 0.064449700284944927 0.13062665865884612 0.055586222017136006 0.12106163841215541 0.01854296709155313 0.040220416552556523 0.13302412158559748
leaf_weight=1205.8411087989807 1476.1613202095032 515.54860754311085 24.776682615280151 2538.8190864622593 1135.0137425810099 169.01243425905704 490.40503689646721 1376.6943378150463 81.07710400223732 449.19940194487572 98.987658008933067 790.58273933827877 194.88055425882339 431.0462961345911 354.24388606846333 610.05304388701916 1826.0273873209953 5468.9406553655863 347.5487799346447 490.57002495229244 1808.5718989819288 285.36434514820576 383.8743409216404 691.91904138028622 47.563706636428833 1783.4087513685226 117.30525593459606 1148.4261388927698 3959.1324675232172 170.185292750597
leaf_count=2735 4959 2277 113 7489 2717 715 1443 3919 397 1656 136 3625 810 1825 1479 2492 5850 14174 940 1711 5970 672 445 2111 54 5236 141 4396 13909 274
internal_value=0.0514382 0.0434543 0.0398689 0.0622327 0.0675349 0.0634108 0.0443212 0.0423057 0.0378933 0.0672531 0.0448226 0.0182676 0.0276344 0.038975 0.0418844 0.0396046 0.0420216 0.0647129 0.0689271 0.0521805 0.0538654 0.0928526 0.0897367 0.0535049 0.0434563 0.0464613 0.0761975 0.0143918 0.0450914 0.100034
internal_weight=30471.2 17516 15354.7 12955.2 9695.66 8176.77 12730.7 11702.2 8469.37 1028.51 548.187 2623.98 1833.39 1317.85 7239.86 6749.46 6395.21 8007.76 2161.27 955.424 3232.83 480.326 1518.89 886.8 1856.14 3259.57 464.854 1229.5 5785.16 455.55
internal_count=94670 58935 53408 35735 25540 22378 42760 39909 29966 2851 1792 10648 7023 4746 25173 23730 22251 21663 5527 2792 9943 1059 3162 2921 6024 10195 1081 4793 19759 946
is_linear=0
shrinkage=0.05


Tree=7
num_leaves=31
num_cat=0
split_feature=11 20 25 15 27 27 24 25 27 11 27 26 25 24 0 15 23 25 27 24 27 27 26 26 26 25 24 18 26 27
split_gain=1060.17 528.012 372.632 340.793 322.825 305.137 245.093 226.033 225.389 214.962 183.552 258.116 340.359 161.684 161.441 147.101 147.604 146.124 158.687 141.444 147.224 129.568 209.3 118.998 131.922 108.817 118.449 106.795 103.386 198.844
threshold=0.59153214350678807 0.30543047800501549 0.055584429680974774 -0.011355357804413777 -0.057173274273899226 -0.034418233448341932 0.027258629236108892 0.21630926703347111 0.016399916737980805 0.49811514862202066 -0.033849186989631679 -0.018786232013090483 -0.030269897119490404 -0.00063841905803335697 0.099690862526995785 0.0040996509654624902 0.016193500000000003 0.073845667319205846 0.007657582713924139 -0.010145409384697599 -0.013938828950914415 -0.042610368229631039 -0.0089734226042940662 0.0082978821112823526 -0.012826249689331324 -0.0057717718992192904 0.0030257114912433107 0.22781928318765768 0.00017893296474369438 0.0018422740003212203
decision_type=2 2 2 2 2 2 2 2 2 2 2 2 2 2 2 2 2 2 2 2 2 2 2 2 2 2 2 2 2 2
left_child=1 3 5 -1 -5 -3 14 -8 23 10 13 12 -12 -6 17 27 -17 18 -2 -13 -21 -15 25 24 -7 26 -23 -11 -22 -30
right_child=6 2 -4 4 9 8 7 -9 -10 15 11 19 -14 21 -16 16 -18 -19 -20 20 28 22 -24 -25 -26 -27 -28 -29 29 -31
leaf_value=0.016244163892355803 0.047887170396447201 0.071708140700190631 0.11528513244360672 0.083239244899578554 0.032838318007643565 0.024453377076999943 0.10797231117401469 -0.042611059282823889 0.059214282069286098 0.053964268870675097 0.081918490293779248 0.063872197170125405 -0.0078007324162834863 0.042246895116088361 0.091183842673821208 0.016608143566963284 0.045767667965822663 -0.015828505676254833 0.064256730437497619 0.015845837189811085 0.045448252671347861 0.089935772025587793 0.011650035954987755 0.014429963601943659 0.051928676965448943 0.11281160782596192 -0.0050483343185242684 0.030449355420246727 -0.0013362224380362819 0.036044373911936524
leaf_weight=1667.8197355866432 2016.1880582123995 1509.6235529780388 246.71646453440189 420.87097197771072 996.72604322433472 708.5343222618103 419.07192984223366 26.496221199631691 1715.1393102705479 3774.7098504155874 122.63330066204071 360.6660293340683 765.89031153917313 463.68667650222778 417.96362911164761 729.71383765339851 1070.8829913288355 64.22698999941349 5572.1429846286774 1168.0814536809921 1690.186881557107 103.77558334171772 95.104108646512032 525.48412862420082 1139.539345279336 269.8972547352314 48.005765706300735 553.66139110922813 433.78422202169895 1977.9448996037245
leaf_count=6435 5810 3667 330 870 3413 2716 503 149 4868 11247 291 1039 3519 1456 827 2656 3216 283 14062 4652 5619 246 370 1978 3571 426 209 1823 1780 6639
internal_value=0.0478864 0.0422122 0.0551475 0.0376886 0.0400656 0.0524973 0.0629175 0.0990177 0.0454043 0.0388232 0.0336748 0.0296275 0.00458224 0.0470193 0.0609245 0.0459603 0.0339504 0.0592718 0.0599074 0.0335797 0.0315065 0.0614355 0.0786526 0.0354251 0.0413949 0.0937641 0.059894 0.0509564 0.0359662 0.0293209
internal_weight=31075.2 22559.1 5845.04 16714 15046.2 5598.32 8516.09 445.568 4088.7 14625.4 8496.38 6519.19 888.524 1977.2 8070.52 6128.97 1800.6 7652.56 7588.33 5630.66 5270 980.469 516.783 2373.56 1848.07 421.679 151.781 4328.37 4101.92 2411.73
internal_count=94670 73036 17130 55906 49471 16800 21634 652 13133 48601 29659 23539 3810 6120 20982 18942 5872 20155 19872 19729 18690 2707 1251 8265 6287 881 455 13070 14038 8419
is_linear=0
shrinkage=0.05


Tree=8
num_leaves=31
num_cat=0
split_feature=11 28 24 20 23 14 25 24 11 9 25 11 18 25 18 28 29 29 25 28 25 25 29 0 14 9 28 18 23 30
split_gain=926.212 565.095 347.42 276.968 244.76 218.671 193.217 182.479 179.034 163.368 109.862 109.492 109.918 105.689 103.6 102.709 101.163 132.463 97.5327 82.2495 86.8504 82.1592 79.9175 73.3885 86.8653 68.8407 67.806 83.1287 64.2627 63.6087
threshold=0.52748341896769013 -0.035674239547378063 0.027258629236108892 0.30543047800501549 0.016057500000000002 -0.048013656177212392 0.21630926703347111 0.02966859673947109 0.65961446134627333 0.02627015987390088 -0.028004080529536787 0.28833920887663572 0.16431412142384685 0.058035023757398337 0.28512265295958983 0.032916006645387096 0.49604736907886521 0.50100401606425715 0.047187016026907343 0.0022315535657416361 -0.0217393977527881 -0.027270273662916008 0.83368794326241147 0.085992292494336833 0.029848033711300275 0.051713154995311296 0.013344427105191183 0.11569546719082029 0.024881500000000004 0.5059173669467788
decision_type=2 2 2 2 2 2 2 2 2 2 2 2 2 2 2 2 2 2 2 2 2 2 2 2 2 2 2 2 2 2
left_child=1 11 4 5 23 -3 13 15 9 -6 -11 -1 -13 -4 -12 -5 21 19 28 20 -18 -7 -19 24 -2 -17 -23 -28 -10 -16
right_child=2 3 6 7 8 16 -8 -9 18 10 14 12 -14 -15 29 25 17 22 -20 -21 -22 26 -24 -25 -26 -27 27 -29 -30 -31
leaf_value=0.087397921821705249 0.046574797593852794 0.017839922923545564 0.038389152819844258 0.042071806244010496 0.068044461875095483 0.065909958235626565 -0.041513235024007132 0.099516551128918274 0.045449300763654769 0.082736556563731356 0.050221953178942264 0.072656577798933308 0.036043679852486459 0.10652734540443434 -0.023646936326870566 0.1064967589750032 -0.023987687164342384 0.033354620506203053 0.010052186148293524 -0.019104774356945402 0.03408623342359296 0.033934904746284487 -0.011810258235657151 0.12987476104465509 0.030091779085793281 0.016567625704206151 0.061224277169406018 0.033052471457006065 0.069631017158746034 0.035818557759426974
leaf_weight=468.59487122297287 1869.9835401922464 2748.1338490843773 64.618137180805206 3085.1290972977877 1291.6408327370882 247.50445096194744 25.853564038872719 154.55863228440285 305.25733272731304 228.48814587295055 5526.5957043617964 486.75148193538189 354.13915400207043 477.0726677775383 47.048553109169006 101.68989141285419 85.191393882036209 2393.9590082168579 76.494216606020927 220.70459243655205 263.53554885089397 4722.2945283353329 102.12268547713757 22.633645102381706 1396.0211504399776 26.912643849849701 556.84025283157825 494.3021532446146 2748.3483036011457 1018.1137910932302
leaf_count=862 5559 10462 177 9923 3117 643 149 205 811 519 15219 1053 1020 515 193 181 420 7941 253 951 926 16193 414 32 4507 90 1514 1623 6133 3065
internal_value=0.0446975 0.0365135 0.0536481 0.0337989 0.0521492 0.0301985 0.0920257 0.046449 0.055659 0.0517394 0.0486516 0.0680301 0.0572371 0.0983992 0.0474701 0.0438968 0.0339362 0.0265425 0.0658167 0.00478175 0.0198992 0.0377007 0.0315068 0.0401511 0.0395293 0.0876773 0.0364914 0.0479764 0.0672137 0.0331919
internal_weight=31610.5 16512.4 15098.2 15202.9 14530.6 11834.6 567.544 3368.29 11242 8111.89 6820.25 1309.49 840.891 541.691 6591.76 3213.73 9086.45 3065.51 3130.1 569.432 348.727 6020.94 2496.08 3288.64 3266 128.603 5773.44 1051.14 3053.61 1065.16
internal_count=94670 54421 40249 51486 39408 41087 841 10399 29310 22113 18996 2935 2073 692 18477 10194 30625 10652 7197 2297 1346 19973 8355 10098 10066 271 19330 3137 6944 3258
is_linear=0
shrinkage=0.05


Tree=9
num_leaves=31
num_cat=0
split_feature=11 28 28 27 24 26 25 26 27 24 24 4 25 15 25 25 22 28 25 28 24 17 25 25 27 26 27 27 27 25
split_gain=827.551 437.831 391.583 234.762 413.877 389.607 338.306 256.979 239.983 213.733 213.441 207.123 194.353 188.33 179.343 177.372 174.318 166.98 181.293 149.954 133.332 133.209 130.021 125.262 124.554 121.967 204.146 120.887 130.598 139.969
threshold=0.59153214350678807 -0.039347159972033093 0.025620901630110895 -0.034773997354806511 -0.0015410033863246795 -0.012826249689331324 -0.01940636410952867 -0.02835916629735968 -0.03530058869599511 -0.0042546633639689571 0.027258629236108892 -0.016619613321541157 0.0076489787440832133 0.0040165213912466803 0.0054879688746634079 0.21630926703347111 0.013550314116102087 -0.022872377055521909 -0.0093934499867170378 -0.014040147250825434 -0.0056822202722336948 0.046630668542195462 0.055584429680974774 0.073845667319205846 0.012896504703971192 0.0064031457309662318 0.012896504703971192 0.012563091519313787 -0.016694726402313283 -0.00055850587266414997
decision_type=2 2 2 2 2 2 2 2 2 2 2 2 2 2 2 2 2 2 2 2 2 2 2 2 2 2 2 2 2 2
left_child=1 -1 3 4 9 6 7 -5 12 17 23 25 14 -13 -6 -12 -4 -3 20 -9 -19 -8 -18 24 -2 27 -27 28 29 -7
right_child=10 2 16 5 8 11 21 19 -10 -11 15 13 -14 -15 -16 -17 22 18 -20 -21 -22 -23 -24 -25 -26 26 -28 -29 -30 -31
leaf_value=0.068446817413773994 0.044220837998703508 0.0096040348166045262 0.045540812219975552 0.0056932039084138485 0.056819627964213672 0.039258225344234621 -0.0075771170485907785 0.07221776109335995 0.12248306498918252 -0.024886888572499946 0.096012572146723818 0.043764888464760926 0.023393635093054553 0.024935875814885596 0.12318912687455162 -0.040441286854618314 0.06064137391830357 0.10627217412359742 0.026904574308802949 0.0045807143017758383 0.037501837019345313 0.017502343592790827 0.10599763239650187 -0.016313456683148889 0.057584016863412857 0.002952323301209335 0.033061709698049328 0.011268651268773869 0.044697407034669782 -0.0033387951572156275
leaf_weight=1047.8544769436121 2489.562677025795 530.46573008596897 1592.6904875636101 343.05411663651466 1637.4301638454199 433.75393180549145 1192.7177282273769 471.24159501492977 133.97579276561737 196.5114773362875 425.27097231149673 5921.2025327980518 429.28619311749935 1711.9903190284967 108.53213885426521 25.227961540222168 496.76907248795033 167.35667119920254 465.78114269673824 99.196066662669182 121.75892874598503 952.12593111395836 231.70779247581959 64.601185888051987 5820.4404970407486 1136.7495540380478 1115.2929814755917 528.63271486759186 1852.7849341034889 347.22165600955486
leaf_count=2198 6765 1878 4482 1427 4196 1436 5220 1231 149 829 503 17491 1524 5501 126 149 1272 299 1628 425 411 3547 283 283 13934 4524 3678 1928 5914 1439
internal_value=0.041808 0.0368629 0.0353733 0.0331062 0.0443005 0.0304712 0.0144087 0.0398903 0.0575347 0.0236776 0.0548449 0.0342362 0.0535344 0.0395419 0.0609453 0.0883711 0.0548076 0.0311024 0.0462092 0.060456 0.07731 0.003556 0.0750679 0.0530414 0.0535806 0.0267563 0.0178636 0.0330891 0.0374688 0.0203196
internal_weight=32091.2 23266.1 22218.2 19897.1 3791.1 16106 3058.34 913.492 2309.22 1481.87 8825.1 13047.6 2175.25 7633.19 1745.96 450.499 2321.17 1285.36 754.897 570.438 289.116 2144.84 728.477 8374.6 8310 5414.44 2252.04 3162.39 2633.76 780.976
internal_count=94670 73036 70838 64801 11040 53761 11850 3083 5995 5045 21634 41911 5846 22992 4322 652 6037 4216 2338 1656 710 8767 1555 20982 20699 18919 8202 10717 8789 2875
is_linear=0
shrinkage=0.05


Tree=10
num_leaves=31
num_cat=0
split_feature=11 27 28 26 21 26 28 26 25 0 28 17 24 18 23 25 28 24 27 25 26 26 24 24 25 28 25 28 27 26
split_gain=692.806 398.57 410.17 311.882 178.47 177.543 353.143 184.291 167.912 160.597 160.242 168.412 149.179 141.961 210.712 172.717 185.553 142.68 141.82 131.28 125.427 124.137 122.04 119.576 111.993 111.748 167.182 168.686 155.407 145.105
threshold=0.61322046059541868 -0.044851221129482081 0.025620901630110895 -0.018786232013090483 1.1570323027228733 -0.016650131229186623 -0.011575583975250893 -0.01462730459809408 0.039459866238383608 0.085992292494336833 -0.01714893044637127 0.041617077756060446 0.001971445346537926 0.092691394691967896 0.013827500000000001 0.0022083650012493243 -0.010736520702581463 0.02966859673947109 0.051742989368071209 0.058035023757398337 -0.023259772708917544 -0.017055801504244569 0.027258629236108892 -0.0053311103127417483 0.073845667319205846 -0.018937259126097197 -0.0070247786545327697 -0.039347159972033093 -0.053052190474461573 -0.01409294281981077
decision_type=2 2 2 2 2 2 2 2 2 2 2 2 2 2 2 2 2 2 2 2 2 2 2 2 2 2 2 2 2 2
left_child=1 25 3 10 12 6 21 -7 13 22 20 -12 -4 14 -9 17 -17 18 -15 -6 23 -5 24 -3 -2 26 27 -1 -29 -27
right_child=9 2 4 5 19 7 -8 8 -10 -11 11 -13 -14 15 -16 16 -18 -19 -20 -21 -22 -23 -24 -25 -26 29 -28 28 -30 -31
leaf_value=0.066781097337409653 0.050171280856490509 0.011448546097986205 0.060843457347303648 0.059241385112932823 0.057278195658178259 0.0047516433927618758 -0.013563043188100064 0.03203660164973908 -0.054948408933977282 0.077880381061928836 -0.024581776943480623 0.017162546865354244 0.032630907852619954 0.033853498873240621 0.053139495024880683 0.076444847362728233 0.023006899281013481 0.093100454043814493 0.066560023847171079 0.099793190770044296 -0.0057938582690997735 0.11026779733441268 0.083133547069368319 0.037601144744677018 -0.024377965083919109 -0.023392057022365791 0.093774120885109585 0.01140585495238659 0.055253059142079869 0.047375948474233445
leaf_weight=1030.0651416927576 5984.8956307470798 656.7545757740736 747.40310263633728 315.12047675251961 581.72538748383522 567.75731347501278 130.96041902899742 2725.7339274585247 53.179494723677635 611.65472416579723 406.48605912923813 595.67451143264771 1255.8913186937571 4914.2420791238546 2089.8182970285416 167.56383331120014 5318.7451725751162 111.95894585549831 355.41469560563564 263.96576945483685 301.30053262412548 191.70534859597683 283.09687152504921 1306.6710430234671 50.805908635258675 96.70926733314991 295.62097722291946 353.95424143970013 470.96928840875626 288.58234861493111
leaf_count=2051 14604 2600 1823 827 1440 2169 533 8595 258 1098 1947 2223 3672 15643 5532 356 17609 145 848 312 1270 262 414 4224 228 415 446 1184 1133 851
internal_value=0.0393931 0.0355958 0.0335265 0.0310227 0.0512876 0.0337502 0.0596295 0.0327379 0.0337476 0.0534167 0.0168774 0.000230644 0.0431566 0.0340483 0.0411947 0.0308818 0.024639 0.0372461 0.0360594 0.0705484 0.0242438 0.078542 0.0510487 0.0288533 0.0495438 0.0544105 0.0588531 0.0532879 0.0364393 0.029613
internal_weight=32524.4 25594 23058.1 20209.1 2848.99 16942.2 637.786 16304.4 15736.7 6930.45 3266.89 1002.16 2003.29 15683.5 4815.55 10867.9 5486.31 5381.62 5269.66 845.691 2264.73 506.826 6318.8 1963.43 6035.7 2535.9 2150.61 1854.99 824.924 385.292
internal_count=94712 78368 72288 65041 7247 52777 1622 51155 48986 16344 12264 4170 5495 48728 14127 34601 17965 16636 16491 1752 8094 1089 15246 6824 14832 6080 4814 4368 2317 1266
is_linear=0
shrinkage=0.05


Tree=11
num_leaves=31
num_cat=0
split_feature=28 27 30 25 18 10 30 26 14 9 18 25 26 26 25 21 15 23 2 27 4 6 30 12 27 25 5 28 26 5
split_gain=569.264 415.254 357.852 238.078 280.678 218.718 186.651 196.595 161.932 158.094 146.664 145.829 141.842 140.441 132.854 131.792 121.185 125.68 112.951 118.602 111.808 111.557 100.97 98.0339 97.1454 140.597 96.0169 94.7684 91.0308 89.8871
threshold=0.014491116670558668 -0.044851221129482081 0.51355023501762642 0.058035023757398337 0.24866643480449033 0.020181429217920325 0.49604736907886521 -0.018786232013090483 -0.15471480198878854 0.030934846277815651 0.080268343520350297 -0.062354304627685701 -0.023687665495777274 0.017828954918688859 0.0075714746987487489 0.73667647349501808 -0.0096478954933190541 0.015199500000000003 -0.003175277467091064 -0.034773997354806511 -0.06724439720286178 0.011427905117270739 0.33732549244597443 -0.027800082349971719 -0.034773997354806511 0.0037934773295345008 0.33849146877132175 -0.010736520702581463 0.035053529996727513 0.6773482780265111
decision_type=2 2 2 2 2 2 2 2 2 2 2 2 2 2 2 2 2 2 2 2 2 2 2 2 2 2 2 2 2 2
left_child=1 9 6 5 28 10 7 12 -9 -1 -2 -11 26 18 -10 29 -4 24 19 -8 27 -6 -13 -12 25 -18 -3 -16 -5 -7
right_child=3 2 16 4 21 15 13 8 14 11 23 22 -14 -15 20 -17 17 -19 -20 -21 -22 -23 -24 -25 -26 -27 -28 -29 -30 -31
leaf_value=0.06580133992824054 0.053685734389269039 0.016657977570029691 0.011103101724249144 -0.0058611932484451817 -0.0079515704633741843 0.014095314067098241 0.053737468671196109 0.08927594378878688 0.034580572247260674 0.082443564718782433 0.049337431518383337 0.022145098150165726 -0.0067954569207163964 -0.035475576693750691 0.062471719927675487 0.056595683463777635 0.027695361940643978 0.042665601816415127 0.027205108149794478 -0.0013700736784290918 0.028288533161456686 0.065206684179736435 0.049367951110006185 0.02866903330711025 0.026556239708652687 0.094968376188690556 0.054120021721431683 -0.0040943845596448855 0.090397322470043451 0.047543533544436696
leaf_weight=1090.7144816666842 1040.9493407607079 1105.1280101686716 420.18427324295044 25.503716841340065 129.07276712357998 326.11008819937706 107.84364956617355 118.57642483711243 4810.467123195529 186.35392534732819 704.32672093808651 705.4959828555584 606.74446512758732 151.01348185539246 58.819930821657181 3600.3671075701714 185.57527323067188 6020.0130409598351 948.19377855956554 1031.5080632418394 1072.0343826860189 87.389064401388168 658.57922807335854 3094.0250750333071 2499.7364858984947 133.56671966612339 202.3627891689539 587.68720768392086 664.62640261650085 522.96627627313137
leaf_count=2231 2583 4128 1510 84 507 1032 270 195 15240 280 1839 2124 2648 653 139 8191 598 15885 3013 4086 3458 177 1622 9052 7936 204 592 2323 835 1277
internal_value=0.0369877 0.0325797 0.0301259 0.0468023 0.0712592 0.0444153 0.0239425 0.0273035 0.0313692 0.0512165 0.0370583 0.0409562 0.0131844 0.0110877 0.0303175 0.0524168 0.0373386 0.0385858 0.0144561 0.00384605 0.0183846 0.0215836 0.0352884 0.0325016 0.0298728 0.0558503 0.022456 0.00196187 0.0868401 0.0346969
internal_weight=32895.9 22700.6 20059.5 10195.3 906.592 9288.74 10800.4 8561.82 6647.59 2641.14 4839.3 1550.43 1914.24 2238.56 6529.01 4449.44 9259.08 8838.89 2087.55 1139.35 1718.54 216.462 1364.08 3798.35 2818.88 319.142 1307.49 646.507 690.13 849.076
internal_count=94712 69135 62878 25577 1603 23974 36745 28723 21355 6257 13474 4026 7368 8022 21160 10500 26133 24623 7369 4356 5920 684 3746 10891 8738 802 4720 2462 919 2309
is_linear=0
shrinkage=0.05


Tree=12
num_leaves=31
num_cat=0
split_feature=11 28 28 14 25 24 9 21 23 0 18 24 27 24 26 25 10 25 28 25 25 24 27 25 23 27 26 24 28 25
split_gain=569.154 327.617 304.134 169.949 153.707 189.06 167.325 149.094 148.072 141.849 140.904 125.964 118.635 178.099 153.857 192.364 117.822 116.355 113.648 113.332 112.146 107.278 108.862 106.079 105.975 94.8638 120.169 156.768 94.7832 93.1622
threshold=0.61322046059541868 -0.039347159972033093 0.025620901630110895 -0.030663092147953614 0.019825620185909946 0.013661487171627741 0.054440607602370163 1.1570323027228733 0.008408500000000001 0.085992292494336833 0.083790932094914575 0.001971445346537926 -0.033849186989631679 0.0002578391255563251 -0.017877250362788141 -0.030269897119490404 0.096360337677725019 0.058035023757398337 0.022738846996237794 0.0073512064048032464 -0.0070247786545327697 0.027258629236108892 0.19008332945995535 -0.0242752589936952 0.021772500000000004 -0.033849186989631679 -0.013572062005978767 0.0002578391255563251 0.013344427105191183 0.073845667319205846
decision_type=2 2 2 2 2 2 2 2 2 2 2 2 2 2 2 2 2 2 2 2 2 2 2 2 2 2 2 2 2 2
left_child=1 -1 3 4 5 6 12 11 25 21 24 -4 13 -3 15 -14 -7 -9 -12 -16 23 29 -23 -15 -10 26 27 -5 -6 -2
right_child=9 2 7 8 28 16 -8 17 10 -11 18 -13 14 20 19 -17 -18 -19 -20 -21 -22 22 -24 -25 -26 -27 -28 -29 -30 -31
leaf_value=0.058192164090629578 0.044338683122619703 0.01988609617523357 0.054047074972290811 0.016669893754213516 -0.029197842561593204 0.010194493969905485 -0.0015488785246274776 0.050633726426090722 0.036858884758787035 0.070152877055471172 0.03139815429064844 0.028460786150456743 0.0573062003140739 0.052458985212185887 0.029833698352335142 -0.0094840443815921403 0.083522259188632306 0.090480829231078641 -6.3783997756780404e-05 0.0032117743381722512 0.071269049271999993 0.087116536349799267 -0.0070988289312177563 -0.0024046133782196881 0.057416133196314126 0.016380687462681336 0.0021835719890773131 0.074790954492036182 0.026643805300405721 -0.023876586840151565
leaf_weight=1091.0868824273348 6125.8271396160126 871.15044637024403 769.57556681334972 197.35276058316231 233.10517607629299 75.180685579776764 702.14131295681 598.74538312852383 2192.6277904808521 622.22161263227463 9223.8069529384375 1282.9519432634115 126.98684291541576 256.37694728374481 2236.5710689276457 713.67256866395473 201.88668662309647 263.97173018753529 296.2518407702446 486.78370931744576 400.04717682301998 245.9479328840971 35.026616320014 134.23585191369057 877.95004445314407 2348.976105928421 172.66757163405418 281.51516538858414 112.74255247414112 50.46377731859684
leaf_count=2202 14604 2869 1823 644 1058 278 2718 1440 6260 1098 27426 3672 324 617 7360 3217 348 312 988 1849 797 274 140 528 2095 8025 622 514 382 228
internal_value=0.0347765 0.0313716 0.0302037 0.0282049 0.0214471 0.0232552 0.0213684 0.0453849 0.0310444 0.0473529 0.0334231 0.0380541 0.0244475 0.0354801 0.0193033 0.000605038 0.0636252 0.062826 0.0304191 0.0250752 0.0526617 0.0451559 0.0753715 0.0336049 0.0427367 0.0210629 0.0379437 0.0508379 -0.0109941 0.0437813
internal_weight=33227.8 26148.4 25057.3 22142 6550.88 6205.03 5927.97 2915.24 15591.1 7079.49 12590.6 2052.53 5225.82 1661.81 3564.01 840.659 277.067 862.717 9520.06 2723.35 790.66 6457.27 280.975 390.613 3070.58 3000.51 651.535 478.868 345.848 6176.29
internal_count=94712 78368 76166 68919 22345 20905 20279 7247 46574 16344 36769 5495 17561 4811 12750 3541 626 1752 28414 9209 1942 15246 414 1145 8355 9805 1780 1158 1440 14832
is_linear=0
shrinkage=0.05


Tree=13
num_leaves=31
num_cat=0
split_feature=11 27 28 26 26 28 26 24 8 9 28 17 24 26 24 26 26 14 11 27 2 26 24 27 24 2 28 30 26 9
split_gain=510.846 299.721 299.667 232.942 152.71 303.164 158.046 147.862 146.566 142.207 129.336 143.785 128.908 144.622 111.687 106.578 103.74 102.879 102.337 101.618 112.831 111.885 114.791 111.221 100.426 96.0359 94.6892 143.94 98.7163 91.9444
threshold=0.61672797791262457 -0.044851221129482081 0.025620901630110895 -0.018786232013090483 -0.016650131229186623 -0.011575583975250893 -0.01462730459809408 0.03421936190537523 0.0059665871121718462 0.030934846277815651 -0.01714893044637127 0.041617077756060446 0.027258629236108892 0.25925338873119702 -0.0024819636891243997 -0.017055801504244569 -0.023259772708917544 -0.15471480198878854 0.71605726988664486 -0.010844743957454437 -0.014786188460238879 -0.013572062005978767 -0.014660411162799923 -0.025437631530060397 -0.0053311103127417483 -0.083612908860876953 -0.040859961251453893 0.17267631677790302 -0.019871692919369851 0.030431913614235123
decision_type=2 2 2 2 2 2 2 2 2 2 2 2 2 2 2 2 2 2 2 2 2 2 2 2 2 2 2 2 2 2
left_child=1 9 3 10 5 15 14 29 19 -1 16 -12 18 -14 -6 -5 24 -10 -2 21 -21 23 -23 -8 -3 -26 28 -28 -11 -4
right_child=12 2 7 4 6 -7 8 -9 17 26 11 -13 13 -15 -16 -17 -18 -19 -20 20 -22 22 -24 -25 25 -27 27 -29 -30 -31
leaf_value=0.059344465476098819 0.03960246869835974 0.0085105587871358527 0.054356811703052191 0.051167852909938132 0.017271770511668581 -0.015649514321014666 0.084745160307163739 0.087823470350152449 0.083134827507062498 0.040875294410039981 -0.024314756319737715 0.014017123847044117 0.081513989847875667 -0.041819837025438122 -0.028752389219273217 0.097528835220226415 -0.0070148883639731515 0.031945878421524493 0.054067350554767982 0.017125694567087419 0.031528055142675947 0.1071227860679433 0.0080519313542534009 -0.015724480898536574 -0.015643473801466957 0.03585084673295335 -0.0054553286847407907 0.03856903276871624 0.09108061948633224 0.034311734501898741
leaf_weight=1103.0473228543997 4826.3932261765003 674.26295459270477 793.10253873467445 328.56118766963482 388.75800584256649 133.63118240237236 98.498055174946785 170.58839344978333 99.297896921634674 521.1266273856163 404.67618563771248 618.6349670290947 354.31775537133217 25.478048756718636 199.44134658575058 199.07936124503613 304.78576312959194 8530.0566714406013 1637.6682082414627 2128.0106782913208 3767.3742689490318 29.736453980207443 1746.2448468059301 38.240125566720963 97.587030991911888 1254.3736019432545 268.44744278490543 602.09500350058079 120.56193163990974 2052.6980154514313
leaf_count=2214 11693 2605 1780 830 1359 536 193 188 150 1190 1947 2246 422 143 826 264 1275 25032 3347 6902 10796 55 6183 161 396 3835 983 1567 137 5457
internal_value=0.0327443 0.0296175 0.02787 0.0257571 0.0280481 0.0516225 0.0271325 0.0426085 0.0280438 0.0456929 0.0136767 -0.00114151 0.0449305 0.0732403 0.00166631 0.0686599 0.0201818 0.0325349 0.0432671 0.0230803 0.0263293 0.0130662 0.00971074 0.0566479 0.0242728 0.0321339 0.0357352 0.0249933 0.050308 0.0398981
internal_weight=33516.8 26672.9 24057.6 21041.3 17686.9 661.272 17025.7 3016.39 16437.5 2615.28 3354.32 1023.31 6843.86 379.796 588.199 527.641 2331.01 8629.35 6464.06 7808.1 5895.38 1912.72 1775.98 136.738 2026.22 1351.96 1512.23 870.542 641.689 2845.8
internal_count=94712 79107 73016 65591 53287 1630 51657 7425 49472 6091 12304 4193 15605 565 2185 1094 8111 25182 15040 24290 17698 6592 6238 354 6836 4231 3877 2550 1327 7237
is_linear=0
shrinkage=0.05


Tree=14
num_leaves=31
num_cat=0
split_feature=11 27 25 14 11 23 9 15 8 24 25 15 9 27 26 25 24 0 4 21 9 12 23 27 25 23 2 25 28 25
split_gain=459.626 275.663 243.256 198.838 201.792 193.397 139.23 132.397 128.291 126.118 132.089 113.79 121.926 108.569 129.486 106.899 98.3305 97.9388 96.7783 94.4684 91.6544 87.6626 86.6103 83.2018 79.3617 78.0103 86.6369 75.8253 106.061 81.7246
threshold=0.61672797791262457 -0.057173274273899226 0.058035023757398337 -0.019957812730696214 0.28833920887663572 0.0083055000000000021 0.041860887775103474 -0.014603904223840379 0.016242546815073474 0.027258629236108892 0.21630926703347111 0.0040165213912466803 0.058100615112924844 -0.034418233448341932 -0.017055801504244569 -0.030269897119490404 0.0043673820333290933 0.085992292494336833 -0.039903264812575605 0.98672078322099643 0.028571428571428609 -0.055905622250160873 0.020417500000000002 -0.013938828950914415 -0.062354304627685701 0.021772500000000004 0.063353431888901093 -0.0070247786545327697 -0.039347159972033093 -0.047424757660765253
decision_type=2 2 2 2 2 2 2 2 2 2 2 2 2 2 2 2 2 2 2 2 2 2 2 2 2 2 2 2 2 2
left_child=1 20 3 4 16 -5 -4 19 13 17 -11 12 23 -9 15 -15 21 25 -16 -6 -1 -3 -13 -7 -22 26 -2 28 29 -26
right_child=9 2 6 5 7 11 -8 8 -10 10 -12 22 -14 14 18 -17 -18 -19 -20 -21 24 -23 -24 -25 27 -27 -28 -29 -30 -31
leaf_value=0.076064537147861752 0.033822490245399538 0.078888734679319159 0.085618095590312485 0.016810217541143924 -0.010132955986429354 0.026923122329387091 0.026733951628558846 0.029069050403669156 0.037499681544289974 0.078532254770766016 -0.040721337505924854 0.01698074020657794 0.016070216203724012 0.04562263652277878 0.011783430012022512 -0.0083244145808230204 0.072472548053782018 0.061673046906777024 0.028042548578440359 0.02254324396603144 0.071673312992883847 0.023300326957251906 0.030998856693688889 0.039354415372767203 0.011911468774108862 0.042069743555689251 -0.0011501495068670933 0.072480239081998202 -0.010752971712572126 0.060693640301617446
leaf_weight=299.58536283671856 1160.4519283920527 85.88411271572113 274.10738767683506 2521.060039639473 653.82286313176155 1684.8871863931417 158.39626553654671 1615.8478125035763 955.95353123545647 349.50247755646706 24.872621536254883 1819.0461618602276 770.56162905693054 103.01953007280827 2330.7705225050449 845.3598246127367 231.75336083769798 515.85054577887058 1506.9433417320251 334.2741946876049 191.25201630592346 407.12743256986141 2794.7848741710186 6691.6832441389561 144.80530197918415 4630.8148672580719 208.97703370451927 108.87417873740196 138.39917528629303 210.90012177824974
leaf_count=450 2979 161 328 8116 2605 5065 417 4653 2865 422 143 5662 2315 262 8179 3698 427 928 4615 1086 285 1313 7576 17549 403 10489 644 174 503 400
internal_value=0.0308672 0.0279137 0.0268708 0.0262365 0.020304 0.0295416 0.0640529 0.0181064 0.0204141 0.0423882 0.0706093 0.031874 0.0351031 0.0178629 0.0140795 -0.00246431 0.045611 0.0407668 0.0181678 0.000921434 0.0524984 0.032984 0.0254721 0.0368539 0.0436093 0.0389695 0.0284856 0.034708 0.026385 0.0408347
internal_weight=33769.6 26879.1 25785.3 25352.8 9070.76 16282 432.504 8345.99 7357.89 6890.47 374.375 13761 9147.13 6401.94 4786.09 948.379 724.765 6516.09 3837.71 988.097 1093.82 493.012 4613.83 8376.57 794.231 6000.24 1369.43 602.979 494.105 355.705
internal_count=94712 79107 76892 76147 29864 46283 745 27963 24272 15605 565 38167 24929 21407 16754 3960 1901 15040 12794 3691 2215 1474 13238 22614 1765 14112 3623 1480 1306 803
is_linear=0
shrinkage=0.05


Tree=15
num_leaves=31
num_cat=0
split_feature=30 27 30 25 18 23 15 28 8 30 4 27 25 9 27 10 10 25 25 17 29 9 18 28 28 28 21 9 25 9
split_gain=419.039 305.22 299.071 256.389 206.91 159.146 168.436 158.914 139.111 154.079 138.515 107.281 90.2562 103.206 91.1299 90.0555 85.6223 83.4043 82.3595 82.3953 81.4143 95.4413 80.4313 124.641 152.613 94.4992 79.4587 76.2975 71.7913 72.2634
threshold=0.5009920634920636 -0.057173274273899226 0.49604736907886521 0.058035023757398337 0.25086180121778562 0.016057500000000002 -0.0086784616979341915 -0.004336929305059585 0.020123839009287936 0.25537696577243302 -0.010840972567889016 -0.034418233448341932 -0.027270273662916008 0.056156900167092121 -0.0083114099962152115 0.27447130802796887 0.28920714627314287 0.041946446272541078 0.00077647780274892064 0.064735667085166398 0.92873015873015885 0.026874181179278631 0.12228817058264151 -0.0044903601093254902 -0.014505683181905047 -0.0032476996130394388 0.96680735433608034 0.027363007248454061 -0.027270273662916008 0.031060982492741241
decision_type=2 2 2 2 2 2 2 2 2 2 2 2 2 2 2 2 2 2 2 2 2 2 2 2 2 2 2 2 2 2
left_child=1 27 8 5 -5 11 -7 28 9 15 -9 -2 -8 14 -14 -3 18 20 -12 -20 21 -16 23 24 -11 -25 -17 -1 -4 -30
right_child=3 2 7 4 -6 6 12 10 -10 22 16 -13 13 -15 17 26 -18 -19 19 -21 -22 -23 -24 25 -26 -27 -28 -29 29 -31
leaf_value=0.074385998446075116 0.045830614312682753 0.015206299353277409 -0.01290167288317888 0.075104483669690428 0.0033020000710471831 0.0096179727563387267 0.060534891809791526 -0.024235961479424473 0.041551554022699576 0.036317947321057344 -0.020033775060095561 0.022895557931867302 0.027445165529861461 0.025960671456740438 0.050002583321192652 0.01028224488134144 0.053042103420711854 -0.0054266500039229252 0.030421784775705715 -0.0065539079719768266 0.049551867985268026 0.034894373774002584 0.021163214971682671 0.08917447319921834 0.00053285580229864228 0.038162041536942214 0.066510722639724559 0.042129448964139081 0.036943481573770309 0.0080894982934517357
leaf_weight=243.73502177000046 576.31451892852783 4930.9892563819885 136.94504183530807 611.08280538022518 120.04205474257469 575.0985791683197 404.36850826442242 556.94675897061825 1108.1070721745491 669.88180522620678 282.49379210174084 4422.6493348777294 1548.3243026435375 1937.3668547123671 1342.1834103912115 101.58697654306889 91.538610264658928 97.041166439652443 313.93742752075195 289.69302940368652 2153.6162120252848 4726.1599998921156 2196.0974242985249 94.741829812526703 536.59529060125351 2173.9757279157639 164.6869452893734 739.60789778828621 567.20923186838627 351.44304144382477
leaf_count=354 1379 16461 622 830 437 1940 832 2316 2982 1881 1057 13044 4206 5035 2956 324 210 293 915 967 4385 11773 6982 179 1940 5798 319 1623 1626 1160
internal_value=0.0292145 0.0231635 0.0213435 0.0342969 0.0633154 0.0331038 0.0360616 0.00593799 0.0246752 0.0229546 -0.00433351 0.0255397 0.0373072 0.0365115 0.0385831 0.0167357 0.00700436 0.0406561 0.00224855 0.0126765 0.0412 0.038236 0.0286536 0.0333871 0.0204021 0.0402923 0.0450588 0.0501247 0.0208705 0.025905
internal_weight=34064.5 15550.2 14566.9 18514.2 731.125 17783.1 12784.2 2590.21 11976.7 10868.6 1534.61 4998.96 12209.1 11804.7 9867.33 5197.26 977.663 8319 886.124 603.63 8221.96 6068.34 5671.29 3475.19 1206.48 2268.72 266.274 983.343 1055.6 918.652
internal_count=94826 47716 45739 47110 1267 45843 31420 8873 36866 33884 5465 14423 29480 28648 23613 17104 3149 19407 2939 1882 19114 14729 16780 9798 3821 5977 643 1977 3408 2786
is_linear=0
shrinkage=0.05


Tree=16
num_leaves=31
num_cat=0
split_feature=20 11 24 27 26 25 25 9 27 24 26 23 27 26 25 24 24 8 25 25 27 26 27 25 26 26 26 25 0 2
split_gain=421.341 268.814 268.687 226.371 166.773 129.993 122.825 121.08 121.029 129.014 107.404 104.718 95.4073 91.8603 99.3094 89.2103 85.6446 85.3712 84.69 84.2961 103.075 86.8118 83.8603 88.2677 83.6504 78.9229 76.3667 82.1559 74.3783 77.9241
threshold=0.46261381537817886 0.50408755847770326 0.027258629236108892 -0.044851221129482081 -0.018786232013090483 0.21630926703347111 -0.01940636410952867 0.036028273331284923 -0.041895781333310005 0.00051032694843333737 -0.02835916629735968 0.019875500000000004 0.033796966749911291 -0.0312061640404615 -0.0049448020755252778 0.0016254042897436707 -0.0043780464518612386 0.0098311845250455727 -0.0040349626572415689 -0.062354304627685701 0.012896504703971192 0.0084240622077140798 0.0144111580304932 0.039459866238383608 0.15504804594258995 -0.040430338660717928 -0.02835916629735968 -0.011592245227132923 0.085992292494336833 0.036248667377398743
decision_type=2 2 2 2 2 2 2 2 2 2 2 2 2 2 2 2 2 2 2 2 2 2 2 2 2 2 2 2 2 2
left_child=1 3 19 7 6 -4 10 26 9 -6 25 24 -13 16 -15 -14 -8 -10 -16 -2 21 -21 -22 -24 28 -5 27 -1 29 -3
right_child=2 11 5 4 8 -7 13 -9 17 -11 -12 12 15 14 18 -17 -18 -19 -20 20 22 -23 23 -25 -26 -27 -28 -29 -30 -31
leaf_value=0.047793988526761526 0.073888601653855149 0.026671766732580128 0.076027555395844548 0.027844662125486183 0.078246885157666035 -0.040753999328914214 -0.022740965398566911 0.019537662612066582 0.015513470182174988 0.0066720921306258471 0.042175378794260275 0.027838784398848709 0.04700201482649078 -0.02836191228369905 0.05365468552891698 0.031205442568373744 0.029899895083677408 0.026580267829098878 -0.0063525812780759099 0.031638463149118182 0.067491915661199164 0.011848556733958229 0.039375537294778044 0.00082441038276504755 -0.066411099431781431 -0.0098676185052323281 0.026721170584027312 0.09092606723190369 0.096713499834018002 0.0098439292429072407
leaf_weight=572.99474194645882 135.00939318537712 4196.2344325184822 526.23049274086952 235.98291498422623 174.39439572393894 24.959474131464958 107.9374208599329 661.18754401803017 6264.9969146251678 98.528891921043396 310.97545769810677 3871.9051462560892 1801.8480324149132 527.75110982358456 72.844773128628731 1773.4861669242382 271.92372460663319 2414.1472137272358 304.92667871713638 3470.4313278645277 253.9681005179882 659.45592261850834 3702.8204155564308 154.68246394395828 25.474438533186913 336.63992090523243 321.1993343681097 136.750792324543 35.331609904766083 822.84845538437366
leaf_count=1126 184 11635 648 727 294 144 491 1883 20185 329 917 10226 3936 2428 186 4307 880 7266 1298 9262 444 1998 8492 506 115 1377 861 171 44 2466
internal_value=0.027584 0.0242932 0.0369248 0.0192012 0.0166088 0.0707393 0.0041696 0.0362388 0.0196227 0.0524074 0.0185203 0.0295014 0.033277 -0.00569538 -0.0143526 0.0391664 0.014942 0.0185918 0.00521848 0.0346997 0.0340577 0.0284784 0.0396619 0.0378297 0.0239663 0.00567394 0.0469499 0.0561045 0.0244218 0.0239129
internal_weight=34267.9 25340.3 8927.56 12813.2 11121 551.19 2168.98 1692.13 8952.07 272.923 883.598 12527.1 7447.24 1285.38 905.523 3575.33 379.861 8679.14 377.771 8376.37 8241.36 4129.89 4111.47 3857.5 5079.89 572.623 1030.94 709.746 5054.41 5019.08
internal_count=94826 73148 21678 40419 36378 792 8304 4041 28074 623 3021 32729 18469 5283 3912 8243 1371 27451 1484 20886 20702 11260 9442 8998 14260 2104 2158 1297 14145 14101
is_linear=0
shrinkage=0.05


Tree=17
num_leaves=31
num_cat=0
split_feature=11 25 27 11 24 15 25 9 10 24 28 25 9 25 28 27 24 27 24 24 18 28 27 24 28 24 27 23 0 13
split_gain=391.484 237.548 253.957 202.489 130.525 115.986 115.619 115.179 99.6693 99.5649 98.0745 90.4181 86.6537 85.6619 181.698 125.722 200.331 104.49 122.758 90.3361 89.9607 89.7798 137.315 89.4022 170.218 130.667 85.9046 84.355 82.8026 82.5042
threshold=0.60979857551615646 0.055584429680974774 -0.044851221129482081 0.50408755847770326 0.027258629236108892 0.0067679907946060327 0.21630926703347111 0.026142445450802809 0.28248492925033236 0.014279679938823399 0.0066364696481802923 0.0046169247778988795 0.040058434568660636 -0.01940636410952867 -0.017493091895091979 -0.034418233448341932 -0.0039849739936889663 -0.016694726402313283 -0.0068227300185498821 0.0003012821118634213 0.068325948417932894 -0.010337608686723284 -0.042610368229631039 -0.0040940730593456145 -0.024034712490718847 -0.013347440998001723 -0.038078069933336449 0.024162500000000003 0.085992292494336833 0.0090125391668981984
decision_type=2 2 2 2 2 2 2 2 2 2 2 2 2 2 2 2 2 2 2 2 2 2 2 2 2 2 2 2 2 2
left_child=1 2 7 8 28 -5 -6 -1 13 -10 -11 -9 -3 23 26 16 -16 18 -17 -20 -19 22 -18 24 -4 -26 -15 -7 -2 -29
right_child=4 12 3 5 6 27 -8 11 9 10 -12 -13 -14 14 15 17 21 20 19 -21 -22 -23 -24 -25 25 -27 -28 29 -30 -31
leaf_value=0.055901968505458643 0.033025792672952095 0.077764313771057719 0.0020973202072057345 0.028519530996415927 0.071847668994178798 0.0032246644877309814 -0.040011556100074716 0.034738892621308491 0.022424167185475945 0.081195650280800835 -0.051499399547179948 -0.0020160297002669572 0.037422953289129396 0.013139999906923622 -0.00774914305165628 -0.039107931192277887 -0.018704636057291137 0.02939478540514889 0.021202576028404991 -0.0043647671017638945 0.014373205883955083 0.019254515966560307 0.064405600610316902 0.013960647044581798 0.012202040504766911 0.062876548121336681 -0.016315063554889368 0.036092867011682649 0.053239134999688034 0.0093213146161752556
leaf_weight=628.51154641807079 6722.4135827720165 249.05078057944775 256.72388517856598 8641.8467694818974 355.88805529475212 850.40933626890182 24.704340741038322 1845.859737932682 327.75908213853836 156.67639397084713 15.283017754554747 184.00640173256397 285.95356246829033 391.91515296697617 233.70154260098934 158.46879197657108 55.24891123175621 1200.3416805565357 637.04448485374451 754.87203204631805 5874.7047379761934 237.16566473245621 494.7791700810194 807.4389588534832 170.65633840858936 499.70804007351398 671.92610390484333 634.55985841155052 547.94675573706627 526.61655306816101
leaf_count=1161 15630 309 962 23026 453 2701 146 4281 1000 228 63 645 675 1289 903 715 200 3334 2172 2932 18946 780 903 2687 585 1158 2873 1575 989 1505
internal_value=0.0260683 0.0232196 0.0225475 0.0208971 0.0360434 0.0260025 0.0645869 0.0371983 0.0166952 0.0385899 0.0694023 0.0314071 0.0562023 0.015816 0.0141466 0.0163094 0.0329012 0.0143456 0.00258952 0.00733675 0.0169217 0.0449694 0.0560574 0.0261242 0.0367179 0.0499762 -0.00546393 0.0151891 0.0345492 0.0239514
internal_weight=34442.2 26791.2 26256.2 23597.8 7650.95 10653.4 380.592 2658.38 12944.4 499.718 171.959 2029.87 535.004 12444.7 10710.2 9646.33 1020.9 8625.43 1550.39 1391.92 7075.05 787.194 550.028 1734.53 927.088 670.364 1063.84 2011.59 7270.36 1161.18
internal_count=94826 77608 76624 70537 17218 28807 599 6087 41730 1291 291 4926 984 40439 35047 30885 2786 28099 5819 5104 22280 1883 1103 5392 2705 1743 4162 5781 16619 3080
is_linear=0
shrinkage=0.05


Tree=18
num_leaves=31
num_cat=0
split_feature=20 27 25 27 26 25 26 15 27 30 30 25 25 26 26 27 29 25 0 27 26 25 4 4 25 27 11 15 27 18
split_gain=366.118 283.191 182.271 176.255 180.185 129.207 184.035 127.841 127.531 143.199 347.875 134.996 184.552 134.67 122.603 117.181 116.084 98.6149 102.52 97.0478 96.9714 109.447 95.429 88.5817 87.6362 82.7012 80.6776 120.132 74.4093 74.0591
threshold=0.72338184577243048 0.03166967086169948 0.058035023757398337 -0.044851221129482081 -0.018786232013090483 -0.0052649420250145398 0.011437266183744745 -0.01292295102132404 0.026887021187438024 0.5059173669467788 0.49604736907886521 0.013972579559517475 -0.011592245227132923 0.017828954918688859 -0.023687665495777274 0.068178792030430216 0.18556893970328028 0.21630926703347111 -0.028625954198473299 -0.034773997354806511 -0.022872831424770698 -0.011592245227132923 -0.0089755098282926476 -0.016619613321541157 0.0037934773295345008 0.050918963475675823 0.61492184771723435 0.0046904367772390059 0.073882887062870287 0.1041316954223287
decision_type=2 2 2 2 2 2 2 2 2 2 2 2 2 2 2 2 2 2 2 2 2 2 2 2 2 2 2 2 2 2
left_child=1 3 -2 7 14 -3 16 -1 9 10 23 12 -10 22 -5 26 -7 18 -4 24 21 -9 -12 -6 -11 -18 27 29 -17 -8
right_child=2 5 17 4 8 6 15 20 11 19 13 -13 -14 -15 -16 28 25 -19 -20 -21 -22 -23 -24 -25 -26 -27 -28 -29 -30 -31
leaf_value=0.0042871996960830109 0.032909562270252643 0.04768460182811083 -0.025273947421453481 0.012806201618982875 0.019168177735282524 -0.052187859690184163 0.047253449108488194 0.036525042982520885 0.070611777695153699 0.025241469787826903 -0.014881781343051435 0.031525608640675155 -0.018688285786600436 -0.039688061712802453 -0.0090731139698516147 -0.0089648289376125755 0.0073151535545942885 -0.037895141846350539 0.073176076400668408 0.025053973974606882 0.01821598385055731 0.069743018353420769 0.011746624991563148 0.034811782520839801 0.072564180175335599 0.033924330550105651 0.04650310721907111 0.016262226134137959 0.023958452632880451 0.028660157069860928
leaf_weight=340.22480742633343 5842.4559106677771 931.39559870958328 27.960157200694084 2231.330305814743 5148.2708625346422 66.979132249951363 1073.103239312768 1048.1211421042681 63.967391058802605 181.63743878901005 536.01233658194542 273.597059071064 605.67731551826 225.93384797871113 897.95967093110085 204.58432027697563 986.52974073588848 23.039548575878143 487.45302300155163 5644.6921839267015 477.05060736835003 324.81425909698009 903.73657065629959 1097.9008919298649 212.04167275130749 414.77328741550446 1273.0467972606421 906.77388033270836 1065.0118710398674 1069.1341408342123
leaf_count=1008 14056 2074 116 7655 16003 283 2360 2285 130 503 2105 705 2076 940 3633 601 2812 139 642 15145 1368 509 2812 2927 339 988 2570 2500 2734 2808
internal_value=0.0246594 0.0222125 0.035475 0.0190622 0.0174346 0.0301806 0.0278714 0.0324557 0.0197262 0.0209293 0.0165037 0.0019328 -0.010158 -0.00379895 0.00652786 0.0320081 0.0121176 0.0633113 0.0678354 0.026728 0.037636 0.0443839 0.00183298 0.0219179 0.0507302 0.0151912 0.0359311 0.031517 0.0186532 0.037974
internal_weight=34585.2 28204.3 6380.91 20213 18022.8 7991.33 7059.94 2190.21 14893.5 13950.2 7911.85 943.242 669.645 1665.68 3129.29 5591.65 1468.28 538.453 515.413 6038.37 1849.99 1372.94 1439.75 6246.17 393.679 1401.3 4322.06 3049.01 1269.6 2142.24
internal_count=94826 79873 14953 60143 54973 19730 17656 5170 43685 40774 24787 2911 2206 5857 11288 13573 4083 897 758 15987 4162 2794 4917 18930 842 3800 10238 7668 3335 5168
is_linear=0
shrinkage=0.05


Tree=19
num_leaves=31
num_cat=0
split_feature=10 21 27 28 24 15 23 24 30 23 26 1 1 27 26 28 24 27 27 12 24 15 26 24 26 24 28 15 26 26
split_gain=337.264 243.551 210.72 185.921 145.126 136.028 114.527 113.178 134.863 108.187 106.143 103.166 101.791 96.8115 114.634 118.052 112.285 99.4004 95.7733 109.77 93.5659 87.4734 85.2275 84.2131 80.325 79.3469 70.4693 68.5262 67.1823 66.3155
threshold=-0.016608230866361425 0.76987498508948826 0.0099152758612657283 -0.035674239547378063 0.027258629236108892 -0.011355357804413777 0.024162500000000003 0.0043673820333290933 0.041436543139218775 0.0086185000000000029 0.036098047769443371 0.0027884283624666222 0.1339189293427954 -0.034773997354806511 -0.012826249689331324 -0.014288381758935754 -0.0011160097614831275 -0.03530058869599511 0.068178792030430216 0.068886444339524913 -0.011536691207495118 -0.01163714074312191 -0.016044434689164663 -0.004309103416790804 -0.012255257357195402 -0.0093648836186535616 0.0029552991926155426 0.0040996509654624902 0.0081079075093886139 0.017828954918688859
decision_type=2 2 2 2 2 2 2 2 2 2 2 2 2 2 2 2 2 2 2 2 2 2 2 2 2 2 2 2 2 2
left_child=4 12 3 -3 5 -1 13 8 -5 -10 20 26 21 16 15 -15 23 22 -12 -20 29 -2 -18 -7 -16 -22 -9 -26 -11 -4
right_child=1 2 10 7 -6 6 -8 11 9 28 18 -13 -14 14 24 -17 17 -19 19 -21 25 -23 -24 -25 27 -27 -28 -29 -30 -31
leaf_value=0.0020600204131974481 -0.012406232666107884 0.044732103973306771 0.071014384854104384 -0.028335294897148863 0.073370756003395807 0.023328469702456042 0.025602860895183089 0.052724214547204822 0.0020956066923334972 0.024959200001542628 0.057411540737332359 0.022819763503869578 0.081850470205909881 0.013937702769582012 0.075031449450526561 -0.020083267994975677 0.049998206645999736 0.092657779445121269 0.024889962119020888 0.064905312068273158 -0.0084632196263550279 0.018398040338504004 0.010130880338211933 -0.017976436999826772 0.018032087729140795 0.032358148661090623 0.0096031178394491989 0.0060097714356538426 0.003431364956059061 0.025775559512349923
leaf_weight=1348.0225779414177 243.27982510626316 1020.5220182836056 263.25702327489853 154.44961951673031 115.89405868947506 550.6689118295908 4167.6522648483515 644.93414252996445 770.56619307398796 3378.1760298162699 1007.3240006566048 1203.1432485878468 60.883842378854752 539.90556013584137 56.791639178991318 483.19086797535419 360.76417236030102 86.574365198612213 677.47981643676758 229.42197960615158 121.90182356536388 4373.1695932745934 213.32487770915031 159.03993605077267 5252.5741733461618 5071.4810603111982 111.06167593598366 1530.6874541789293 405.95498059689999 117.01703824102879
leaf_count=4800 903 1982 470 629 149 1556 11056 1396 2600 9399 1820 3185 84 1895 127 1985 771 94 1693 336 368 12317 646 573 15475 11935 342 4723 1240 277
internal_value=0.0233331 0.0275972 0.0306715 0.0248574 0.0176378 0.0171999 0.0187228 0.0218157 0.0176142 0.0191724 0.0366417 0.0319148 0.0176218 0.0156174 0.0134801 -0.00212982 0.0278813 0.0427154 0.0467997 0.0350128 0.033153 0.0167747 0.035184 0.0140724 0.015815 0.0314 0.0463894 0.0153192 0.0226497 0.0570936
internal_weight=34719.1 19854 15176.7 7688.81 14865.1 14749.2 13401.2 6668.29 4709.15 4554.7 7487.88 1959.14 4677.33 9233.52 7863.15 1023.1 1370.37 660.663 1914.23 906.902 5573.66 4616.45 574.089 709.709 6840.05 5193.38 755.996 6783.26 3784.13 380.274
internal_count=94826 50976 37672 20773 43850 43701 38901 18791 13868 13239 16899 4923 13304 27845 24205 3880 3640 1511 3849 2029 13050 13220 1417 2129 20325 12303 1738 20198 10639 747
is_linear=0
shrinkage=0.05


Tree=20
num_leaves=31
num_cat=0
split_feature=20 24 15 27 28 24 25 26 8 26 25 24 25 28 25 24 24 27 28 28 27 26 28 25 26 26 25 24 26 27
split_gain=326.852 260.382 235.756 172.843 209.768 278.308 103.962 103.771 88.6613 106.367 98.2711 87.8273 81.63 77.5261 77.059 74.7891 109.772 73.4565 84.0171 143.211 68.4162 130.744 91.9515 78.1126 117.414 201.395 88.0471 134.071 99.8884 107.208
threshold=0.38745325868631059 0.027258629236108892 -0.0096478954933190541 -0.057173274273899226 0.013114387067531966 0.0016254042897436707 0.21630926703347111 0.0082978821112823526 0.0080645161290322041 -0.01462730459809408 -0.027270273662916008 0.013661487171627741 -0.062354304627685701 0.017394210191801932 0.01109953029372779 -0.00037626605205881564 -0.0041710252902106273 0.010291307816736374 0.042265311256008666 0.03716098448560308 -0.033849186989631679 -0.012826249689331324 -0.011575583975250893 1.0000000180025095e-35 -0.0063093478593147503 0.00094568679254014587 -0.0093934499867170378 -0.0047711388610306984 -0.0071606667206260402 0.034617172796919789
decision_type=2 2 2 2 2 2 2 2 2 2 2 2 2 2 2 2 2 2 2 2 2 2 2 2 2 2 2 2 2 2
left_child=2 12 -1 -4 7 13 -3 8 20 10 -10 -7 -2 15 -9 16 -6 -14 19 -19 -5 22 -22 26 -25 -26 28 -28 -23 -30
right_child=1 6 3 4 5 11 -8 14 9 -11 -12 -13 17 -15 -16 -17 -18 18 -20 -21 21 23 -24 24 25 -27 27 -29 29 -31
leaf_value=0.0047543703622670566 0.06660829053291191 0.068417969956709665 0.050714524776023118 0.024022013199945375 0.065439978334591198 0.015186116682505531 -0.038506187763796551 0.012944970823408817 0.038989175828734478 0.029092011612755698 0.0076520677689767298 0.035830431643189393 0.022667358229378973 0.031974575474270656 -0.0055719158093571718 0.062123020136743923 0.022343694469230742 0.031143359924518256 0.0097357426602020878 0.067223328115931624 0.0062223108377872476 0.030415892225083958 -0.024927763310999752 -0.015644618646516281 0.03362392569238546 -0.005598654040169182 0.0014522275614014784 0.042342513913649252 -0.0077380727802035323 0.054045061168572252
leaf_weight=2607.0188113898039 133.4525310844183 510.66719859838486 468.02130433917046 1561.1064893454313 222.973453566432 3465.9266241788864 23.792465046048164 2096.8049676120281 307.23164568841457 3193.5100651681423 1347.1804695725441 605.14284017682076 4529.3385402262211 2006.6603795588017 767.52532953023911 527.75420348346233 438.02468316257 4052.1548094451427 403.2967027425766 295.0583463460207 827.41374498605728 461.26569278538227 331.95534504950047 391.73117111623287 709.66310645639896 607.38847370445728 263.12441419064999 841.7766055315733 564.75642605125904 80.183434069156647
leaf_count=8885 186 682 848 4200 409 9331 145 6315 732 8397 4467 1370 12178 4696 2535 1004 1146 9334 1099 454 3007 1260 1355 1419 1871 1992 851 2142 1850 168
internal_value=0.022057 0.0297091 0.0189745 0.0206529 0.0200021 0.026924 0.063658 0.0164977 0.0186206 0.0237613 0.0134715 0.0182548 0.0277816 0.0379689 0.00798319 0.0480875 0.0368813 0.0272232 0.0315669 0.0335922 0.0148675 0.0120538 -0.00269671 0.0164165 0.00838762 0.0155355 0.0226214 0.0326048 0.0126497 -5.67615e-05
internal_weight=34641.9 9947.76 24694.1 22087.1 21619.1 7266.48 534.46 14352.6 11488.3 4847.92 1654.41 4071.07 9413.3 3195.41 2864.33 1188.75 660.998 9279.85 4750.51 4347.21 6640.36 5079.26 1159.37 3919.89 1708.78 1317.05 2211.11 1104.9 1106.21 644.94
internal_count=94328 24078 70250 61365 60517 17956 827 42561 33711 13596 5199 10701 23251 7255 8850 2559 1555 23065 10887 9788 20115 15915 4362 11553 5282 3863 6271 2993 3278 2018
is_linear=0
shrinkage=0.05


Tree=21
num_leaves=31
num_cat=0
split_feature=11 27 25 25 11 10 15 8 27 27 11 25 10 27 14 15 25 15 11 14 28 10 9 26 26 25 26 25 26 28
split_gain=306.039 224.296 151.016 133.454 122.586 111.24 156.249 106.415 100.709 187.992 97.5537 88.872 88.6523 86.8202 115.044 84.8619 117.992 76.0977 73.088 94.9498 71.5347 70.1903 70.964 93.5323 68.0247 66.3069 170.912 130.597 94.0813 109.698
threshold=0.55697394281030133 -0.057173274273899226 0.055584429680974774 0.035628101111806261 0.69852109288145348 0.19978960527453651 -0.0096478954933190541 0.0093856655290102363 -0.033849186989631679 -0.010844743957454437 0.30562629306871864 0.0071529160089561792 -0.12371884934380493 -0.010592121195570457 -0.033140519757383032 0.010425390480768466 0.062348374607007935 0.0046036857437122885 0.26139654633669146 -0.071722075055758935 0.012012266293105171 -0.13015184381778713 0.028332139523837722 -0.019118963251526452 -0.016044434689164663 0.0040164147300384432 -0.012826249689331324 0.011739950775770726 -0.023687665495777274 -0.02306157239553808
decision_type=2 2 2 2 2 2 2 2 2 2 2 2 2 2 2 2 2 2 2 2 2 2 2 2 2 2 2 2 2 2
left_child=1 24 3 5 15 6 18 8 25 12 -7 -12 -10 -11 -15 16 -2 21 -3 -20 -19 -16 23 -23 -1 28 27 -27 29 -8
right_child=4 2 -4 -5 -6 10 7 -9 9 13 11 -13 -14 14 17 -17 -18 20 19 -21 -22 22 -24 -25 -26 26 -28 -29 -30 -31
leaf_value=0.042051096274602857 0.025833266203024487 0.041698830192039127 0.04829850154789847 -0.022234609561597656 0.03716546620864844 0.058712093412747794 0.012738860782650222 0.022608613009615648 0.016430877418424202 0.066243350234755763 0.030748073283587071 0.0020775146191005906 -0.0052631892266190687 -0.0015475121613378892 0.010121219031628935 0.014464584154506487 0.071903623988133436 -0.021241831276896932 -0.011134279749010784 0.0095654827478760876 0.012709645388490202 -0.040067370237091331 0.015587343778237193 0.031964677265673251 -0.027184296242591111 0.078976732309696429 -0.010328674421053398 0.0086830089294651549 0.0047815132250486267 0.049276240571667025
leaf_weight=1022.0785549730062 9000.2394202798605 115.38910280168056 356.62167809903622 231.92557562887669 2373.7201727926731 227.75847519934177 428.48938557505608 5012.0096999704838 624.11231222748756 85.35994853079319 1065.550989434123 362.1577750146389 1918.5641305744648 856.47649209201336 1163.841899767518 1728.7648103237152 141.15919345617294 206.64166563749313 952.14077934622765 1324.8272442221642 622.56119148433208 46.120028659701347 1374.1356780678034 1972.1056567430496 36.753017172217369 238.70590747892857 119.21245415508747 91.365904822945595 647.59881399571896 394.6209841966629
leaf_count=1973 21726 284 675 878 4832 414 1205 14185 2065 191 2757 1125 7052 2975 3504 4463 189 743 3586 4470 1778 219 3917 5044 147 292 405 305 2060 869
internal_value=0.0208925 0.0172091 0.0160466 0.0154739 0.0268714 0.0159145 0.0147854 0.0165883 0.0137918 0.0115444 0.0283232 0.0234754 6.17251e-05 0.0161588 0.0154739 0.0246235 0.0265447 0.0181809 0.002877 0.000909635 0.00424876 0.0207165 0.0243515 0.0303186 0.0396479 0.0241744 0.0409857 0.059519 0.0190387 0.0302559
internal_weight=34741 21497.1 20438.3 20081.7 13243.9 19849.7 18194.3 15801.9 10789.9 8869.92 1655.47 1427.71 2542.68 6327.24 6241.88 10870.2 9141.4 5385.41 2392.36 2276.97 829.203 4556.2 3392.36 2018.23 1058.83 1919.99 449.284 330.072 1470.71 823.11
internal_count=94328 63118 60998 60323 31210 59445 55149 46809 32624 27488 4296 3882 9117 18371 18180 26378 21915 15205 8340 8056 2521 12684 9180 5263 2120 5136 1002 597 4134 2074
is_linear=0
shrinkage=0.05


Tree=22
num_leaves=31
num_cat=0
split_feature=24 10 21 27 28 28 28 27 14 26 0 27 28 29 25 8 27 26 26 27 28 26 28 28 4 25 24 24 28 26
split_gain=304.144 217.785 134.295 131.096 118.716 142.243 118.623 101.162 139.72 99.0726 88.1001 76.0513 117.624 75.6662 72.9845 71.9229 69.2168 62.5059 70.219 89.873 61.3942 61.3182 60.9826 60.0891 59.9724 59.7707 59.6943 58.2192 84.1824 77.7583
threshold=0.027258629236108892 0.05680109187786709 0.77573154328271332 0.19008332945995535 0.032916006645387096 0.042265311256008666 0.029703842277919914 -0.057173274273899226 -0.048893163549757819 0.031884603993975864 0.070230805619787798 0.0099152758612657283 -0.035674239547378063 0.16699867197875168 0.0075714746987487489 0.0061408995479145046 0.073882887062870287 -0.01462730459809408 -0.01409294281981077 -0.015898708978308192 -0.0041493472798094008 -0.053619824809255805 -0.011575583975250893 -0.035674239547378063 -0.061403508771929842 0.0033040734087582684 -0.0019517792333049731 -0.0041710252902106273 0.013344427105191183 0.014268589660653476
decision_type=2 2 2 2 2 2 2 2 2 2 2 2 2 2 2 2 2 2 2 2 2 2 2 2 2 2 2 2 2 2
left_child=1 4 10 -2 6 16 7 -1 -9 -8 13 12 21 -3 20 27 -6 22 19 -19 23 -4 -17 -15 -13 -25 -20 28 29 -10
right_child=3 2 11 -5 5 -7 9 8 15 -11 -12 24 -14 14 -16 17 -18 18 26 -21 -22 -23 -24 25 -26 -27 -28 -29 -30 -31
leaf_value=0.038744124946384455 0.061540108680687801 -0.01371519200710742 0.016867004447947125 -0.0052115397733081045 0.054805252264507345 0.01266517898065659 0.013974454976894632 0.0046476177565485761 0.0044176510875761476 -0.051193938841961821 0.073374988420289985 -0.02005995427778208 0.019419631672823724 0.051428618014448951 0.0061097250045348108 0.015747574058378341 0.025908818669980627 0.088070511356409364 0.027548246128844846 -0.041201271990460697 0.029620563629604531 0.048566609105157976 -0.009866178771633604 0.0026232402798679879 0.03231535631642779 0.050745697784544755 0.017715310888408491 0.015387107150644669 0.038651491048479911 -0.036515998995657731
leaf_weight=452.32090547680855 585.96931581199169 221.74206022918224 205.45996794104576 84.112279340624809 505.67603668570518 707.08566188812256 110.44799986481667 2864.9033053070307 1288.2100228071213 123.56882464885712 64.776152715086937 55.296100348234177 4096.0911187231541 85.827828824520111 1087.9537264108658 1077.4752871692181 351.13737468421459 76.052244544029236 2438.3463197499514 16.332371518015862 1163.5453210622072 592.4329639673233 296.27955155074596 672.0886548012495 4722.0542307496071 71.378585621714592 4205.8413034230471 6307.4156647771597 163.23308262228966 127.50109341740608
leaf_count=921 883 781 481 297 919 1886 279 9889 4134 438 93 192 11179 165 3085 3280 864 84 6300 66 2850 1052 1110 2131 10360 160 11509 18100 367 473
internal_value=0.0198011 0.0191465 0.0242273 0.0531611 0.0160086 0.0292644 0.0149481 0.0153768 0.0148164 -0.0204367 0.0156276 0.0272215 0.0228408 0.0144949 0.0165253 0.0166376 0.042963 0.0199436 0.0219258 0.065217 0.0222116 0.0404039 0.0102234 0.0118163 0.0317091 0.00724337 0.0213239 0.0132377 0.00465136 0.000731104
internal_weight=34820.6 34150.5 13038.6 670.082 21111.8 1563.9 19547.9 19313.9 18861.6 234.017 3367.31 9671.33 4893.98 3302.54 3080.79 15996.7 856.813 8110.33 6736.57 92.3846 1992.84 797.893 1373.75 829.295 4777.35 743.467 6644.19 7886.36 1578.94 1415.71
internal_count=94328 93148 32529 1180 60619 3669 56950 56233 55312 717 9265 23264 12712 9172 8391 45423 1783 22349 17959 150 5306 1533 4390 2456 10552 2291 17809 23074 4974 4607
is_linear=0
shrinkage=0.05


Tree=23
num_leaves=31
num_cat=0
split_feature=24 30 27 30 28 18 28 27 11 25 15 28 28 27 24 5 4 18 25 27 24 9 10 24 1 27 25 25 27 25
split_gain=287.291 227.895 196.871 218.049 137.902 189.567 137.648 122.883 109.21 99.8594 99.7957 126.13 180.278 109.66 114.12 98.3314 97.0539 87.3408 98.1336 146.606 101.867 93.8703 87.1316 84.0541 82.859 81.9034 81.7982 87.8687 81.2538 85.1618
threshold=0.027258629236108892 0.5009920634920636 -0.057173274273899226 0.49604736907886521 -0.0044903601093254902 0.083790932094914575 -0.0035113682646609246 0.19008332945995535 0.71605726988664486 -0.027270273662916008 0.010425390480768466 0.032916006645387096 0.029703842277919914 0.050918963475675823 0.0053451148184137107 0.026315789270475478 -0.010840972567889016 0.27888526477985215 -0.01940636410952867 -0.034418233448341932 0.0071368922154068102 0.019444305597209725 -0.16075744015080631 -0.0013986582849435101 0.012133030149970693 -0.023852729481843023 -0.012394302547470702 0.01109953029372779 0.051083030898626876 0.041946446272541078
decision_type=2 2 2 2 2 2 2 2 2 2 2 2 2 2 2 2 2 2 2 2 2 2 2 2 2 2 2 2 2 2
left_child=1 2 -1 4 17 -6 -5 -2 9 -3 11 12 13 22 26 -7 -8 18 25 20 23 -21 -11 -20 -14 -4 -15 -28 -13 -30
right_child=7 8 3 6 5 15 16 -9 -10 10 -12 28 24 14 -16 -17 -18 -19 19 21 -22 -23 -24 -25 -26 -27 27 -29 29 -31
leaf_value=0.035510261984326011 0.059790000471680295 0.039926019315546069 0.01580205392731621 0.011593099766268941 0.034983873250566698 -0.0024417111150591385 -0.028194652996465803 -0.0049563349062174281 0.034530548446954738 0.0060142103448678954 0.0096440375457869897 0.057214372237450732 -0.062411477635918013 -0.033494170780612974 -0.0010374030225615133 0.018004835229691946 -0.0012069579587016108 -0.009628272171485916 0.0089269699676360961 -0.037017096637754737 -0.031545347342645726 0.0014326404913262408 0.020547016614784579 0.034634272500026896 -5.8264751054020554e-05 0.043643164707177627 0.047733430160260104 0.0026037140251048922 0.034448458596143906 -0.0062085282016584994
leaf_weight=973.5371620953083 573.28902162611485 652.12146429717541 1246.338225916028 1225.0668188482523 1602.194353967905 680.7503572255373 530.97360204160213 84.023444041609764 1569.3978967815638 1149.361939266324 2044.76371781528 331.27236770093441 88.077812686562538 36.336585164070129 195.59267523884773 4316.7891566306353 894.09723637998104 547.77749328315258 583.64362597465515 173.38077752292156 91.964797407388687 1879.5879312008619 10047.15398798883 698.53059421479702 134.85678830742836 335.20863075554371 977.68328414857388 121.23136971890926 960.02959558367729 148.75720965862274
leaf_count=1970 883 1393 3459 3852 3815 2320 2177 297 3128 3383 5410 565 329 118 551 12462 2787 2016 1859 718 361 6773 25981 1641 362 903 1951 337 2113 414
internal_value=0.0187708 0.0181421 0.0137303 0.0122982 0.0151313 0.0200178 -0.000697108 0.0515136 0.0219141 0.0207416 0.019971 0.0214591 0.0198749 0.020668 0.0342368 0.0152197 -0.0112624 0.0093274 0.0114005 0.00664611 0.0192864 -0.00181458 0.0190552 0.0229324 -0.024693 0.021703 0.0403142 0.0427548 0.0354857 0.0289938
internal_weight=34893.8 34236.5 15779.8 14806.3 12156.2 6599.73 2650.14 657.312 18456.6 16887.2 16235.1 14190.4 12750.3 12527.4 1330.84 4997.54 1425.07 5556.43 5008.65 3427.11 1374.14 2052.97 11196.5 1282.17 222.935 1581.55 1135.25 1098.91 1440.06 1108.79
internal_count=94328 93148 47113 45143 36327 18597 8816 1180 46035 42907 41514 36104 33012 32321 2957 14782 4964 17730 15714 11352 3861 7491 29364 3500 691 4362 2406 2288 3092 2527
is_linear=0
shrinkage=0.05


Tree=24
num_leaves=31
num_cat=0
split_feature=24 11 27 27 8 18 12 25 27 9 28 24 11 24 26 26 26 24 27 28 27 24 20 25 3 28 1 17 24 16
split_gain=271.353 206.958 181.179 115.34 107.252 93.6098 116.021 94.8806 83.9415 96.0177 88.3497 80.692 76.8931 73.558 72.717 107.124 72.1928 83.8103 81.4834 67.6963 106.379 82.0884 64.6735 76.281 63.5393 74.6325 79.4997 63.0268 62.647 69.0396
threshold=0.027258629236108892 0.55697394281030133 -0.057173274273899226 0.19008332945995535 0.016427104722792622 0.094072540736371793 -0.045427479627506505 0.00077647780274892064 -0.033849186989631679 0.037104120179825083 -0.0008267746837537594 -0.0015410033863246795 0.71605726988664486 0.0057385966411970255 -0.0094694178329147709 -0.0085975879808551352 -0.013572062005978767 0.0070252990924583045 -0.051502583293254516 -0.010736520702581463 -0.013938828950914415 0.0010259819710886078 0.036678655983561355 0.058035023757398337 -0.11166796781670062 -0.040859961251453893 -0.073913043478260818 0.10465526027526091 0.0086419562373670784 0.00020263435827470305
decision_type=2 2 2 2 2 2 2 2 2 2 2 2 2 2 2 2 2 2 2 2 2 2 2 2 2 2 2 2 2 2
left_child=1 2 24 22 5 7 -7 13 9 11 -11 -8 27 -4 28 -16 17 -13 -19 -9 -21 -22 23 -2 25 -1 -27 -3 -10 -30
right_child=3 12 4 -5 -6 6 8 19 14 10 -12 16 -14 -15 15 -17 -18 18 -20 20 21 -23 -24 -25 -26 26 -28 -29 29 -31
leaf_value=0.032028583276791964 -0.049857300195662577 0.025630947823760353 0.0077960865076945321 -0.004713421163078246 0.022225655837315075 0.020804337022572582 0.0076827875769331436 0.055127965774495059 -0.0070944714561462056 -0.0027886839187706621 0.069821161659620323 0.045960581163854874 0.032224176060628933 0.03303837017137308 0.047012323363211164 0.0062080080657964396 0.0046743982343601066 0.050234391232210789 -0.023770694193844484 -0.0043530582091373454 0.03612572437591037 0.016816539313017825 0.063499492560674747 0.073511194529350871 0.042729857706852281 -0.058569348935197579 0.03106722849902965 0.017855572165139093 -0.032290204354177614 0.037757550019318326
leaf_weight=228.48177596926689 28.504999756813049 4125.2087215930223 2522.134033665061 83.938273847103119 2804.2935165762901 1830.2890345752239 582.0349332690239 161.64723341166973 1683.1230029016733 756.14265756309032 44.351494029164314 638.49082507193089 1668.36355432868 325.90461760759354 165.47618532180786 5751.0580116957426 205.40495586395264 61.003217548131943 95.304515540599823 338.27033410966396 1024.5395443588495 1189.4185512065887 509.60716135799885 22.357635915279388 722.10711424052715 56.957972630858421 43.726219743490219 7078.3595728129148 45.183088973164558 158.82900631427765
leaf_count=462 114 9765 7792 297 7718 5165 1758 293 6325 2509 89 1314 3368 807 412 17878 629 104 354 1177 2411 3174 741 28 1326 232 100 17322 184 480
internal_value=0.0178022 0.0171984 0.0141889 0.0499474 0.0131449 0.0116963 0.00921397 0.0170594 0.00713141 0.0153455 0.00123428 0.0224847 0.0222098 0.0106846 0.00462336 0.00734924 0.0310982 0.0379271 0.00511174 0.0237494 0.021762 0.0257521 0.0581336 0.00437166 0.0344306 0.0162241 -0.019641 0.0207185 -0.0039228 0.0222439
internal_weight=34950.5 34306.1 21434.2 644.408 20382.9 17578.6 12016.7 5561.91 10186.4 2382.73 800.494 1582.24 12871.9 2848.04 7803.67 5916.53 1000.2 794.799 156.308 2713.88 2552.23 2213.96 560.47 50.8626 1051.27 329.166 100.684 11203.6 1887.14 204.012
internal_count=94328 93148 62693 1180 60573 52855 37201 15654 32036 6757 2598 4159 30455 8599 25279 18290 2401 1772 458 7055 6762 5585 883 142 2120 794 332 27087 6989 664
is_linear=0
shrinkage=0.05


Tree=25
num_leaves=31
num_cat=0
split_feature=24 10 27 28 27 21 15 24 27 28 27 28 15 11 23 18 16 28 27 27 24 27 24 18 28 24 9 28 27 27
split_gain=270.971 205.332 186.375 185.686 129.6 106.842 103.458 99.4039 94.8178 87.2013 81.7583 80.7743 79.3932 81.724 74.0593 72.081 70.3535 68.2689 66.7945 166.009 66.4678 80.9861 66.2689 65.7282 64.861 64.4486 64.431 61.543 71.4361 58.7544
threshold=0.027258629236108892 -0.018018018018017942 0.0099152758612657283 -0.039347159972033093 0.19008332945995535 0.76987498508948826 -0.016823480041398366 0.0043673820333290933 -0.051502583293254516 0.0053858569105446636 -0.061553232587895239 0.032916006645387096 0.0045190152242475931 0.52142519571559187 0.0086185000000000029 0.079541310543885399 0.0052982857345488018 0.042265311256008666 0.0024946131457617153 -0.0029276091639387487 -0.0074302048983388427 -0.036662247446587963 0.0011215476036754437 0.22392950875016768 0.10045271358317981 0.0054416795293791296 0.026511419766109046 -0.0070737726534131984 0.0056302120234036366 -0.014393254448090862
decision_type=2 2 2 2 2 2 2 2 2 2 2 2 2 2 2 2 2 2 2 2 2 2 2 2 2 2 2 2 2 2
left_child=1 6 3 -3 18 16 -1 9 -9 10 -5 12 13 -8 20 -7 24 -13 19 -2 -12 26 -11 -15 -4 -14 -22 28 -16 -29
right_child=4 2 5 7 -6 15 11 8 -10 22 14 17 25 23 27 -17 -18 -19 -20 -21 21 -23 -24 -25 -26 -27 -28 29 -30 -31
leaf_value=-0.010378596013621151 0.059879893148197832 0.036475489224668707 0.015449243893825597 -0.042617181942899943 -0.010149472443874956 0.038192865789162263 0.010299708932912925 0.052755136235148881 0.018402075751020618 0.00032161976703684722 -0.021308787463380805 0.036670578625660415 0.0070007464907217267 0.021951475000347623 0.011893825181814149 0.02524962976249865 0.073858702097357426 0.011190477067893083 0.067006592788925512 -0.059607109155745366 0.045877206933349984 -0.0026162392965118401 -0.041600889322214764 0.00061234928380177851 -0.036277459010338679 -0.014939391168311528 0.0021571954461584459 0.005794778969863741 -0.026376862380151252 0.026676975344702383
leaf_weight=507.65634271502495 109.40842388570309 902.63878485560417 2230.988939806819 69.64504499733448 82.183316633105278 1316.7125713676214 7819.7562808394432 222.65315826237202 2052.3925655335188 358.51063364744186 260.14751459658146 614.93384310603142 1580.042078524828 3110.1632875353098 2984.7902123332024 5875.6520111262798 50.236899435520172 459.17958000302315 427.72991201281548 39.586934685707092 194.02330601215363 722.48381720483303 127.89423747360706 408.22457157075405 62.29515352845192 424.67820437252522 148.97427874803543 439.76088812947273 127.12746238708496 1439.3178872019053
leaf_count=1885 159 1750 5740 248 304 2787 24191 360 5499 1042 983 1313 4580 7758 8804 13413 74 1234 611 162 420 2478 487 1158 238 1352 445 1341 456 3557
internal_value=0.0168306 0.0162242 0.0195909 0.0148399 0.0485929 0.0245981 0.011806 0.0127051 0.0217641 0.00970627 0.0112606 0.0125872 0.0115253 0.0131471 0.0118546 0.0276192 0.0153263 0.0257779 0.0569637 0.0281331 0.00134954 0.00688179 -0.0107014 0.0194756 0.0140441 0.00235297 0.0268883 0.0146448 0.0103304 0.0217899
internal_weight=35169.8 34510.9 19586.2 10050.4 658.909 9535.89 14924.6 9147.72 2275.05 6872.68 6386.27 14417 13342.9 11338.1 6316.63 7192.36 2343.52 1074.11 576.725 148.995 1325.63 1065.48 486.405 3518.39 2293.28 2004.72 342.998 4991 3111.92 1879.08
internal_count=94829 93593 50122 27870 1236 22252 43471 26120 5859 20261 18732 41586 39039 33107 18484 16200 6052 2547 932 321 4326 3343 1529 8916 5978 5932 865 14158 9260 4898
is_linear=0
shrinkage=0.05


Tree=26
num_leaves=31
num_cat=0
split_feature=28 10 25 18 10 27 27 27 4 30 3 27 27 27 9 25 8 6 28 25 17 28 25 28 1 27 10 9 25 25
split_gain=251.597 158.388 138.165 162.299 125.43 114.73 140.98 186.612 141.154 116.597 101.457 99.4298 121.758 98.204 96.127 92.5363 86.3838 82.2995 82.1545 79.7009 79.2102 79.1599 87.8606 78.9825 136.247 115.457 73.7675 71.0811 68.7528 65.8194
threshold=0.013114387067531966 0.22916666666666621 0.058035023757398337 0.22045721516213579 -0.018018018018017942 -0.034418233448341932 -0.010844743957454437 -0.0073522606867500442 -0.044042271649691038 0.25537696577243302 -0.018082874158693914 -0.0080036136823368725 -0.0099897405894456264 -0.011893891101844188 0.034033131048056449 0.025294037664357231 0.013468013468013443 -1.0000000180025095e-35 0.01752505603770917 -0.012310106453381096 0.01008968708535361 -0.0024319050122799976 0.0046169247778988795 0.0097033316201215834 0.005755432025163488 0.059433199533411869 -0.17509621833892999 0.037104120179825083 -0.062354304627685701 0.018991099669917969
decision_type=2 2 2 2 2 2 2 2 2 2 2 2 2 2 2 2 2 2 2 2 2 2 2 2 2 2 2 2 2 2
left_child=1 5 4 -4 -2 9 13 11 -9 27 14 12 -8 15 -11 16 -7 -5 -6 -13 -3 22 -14 25 -25 26 -10 -1 -29 -22
right_child=2 20 3 17 18 6 7 8 23 10 -12 19 21 -15 -16 -17 -18 -19 -20 -21 29 -23 -24 24 -26 -27 -28 28 -30 -31
leaf_value=0.016894994126561962 0.014328871709804739 0.044661353252158767 0.058190129315568995 -0.023819413055996122 0.034451690725254579 0.0017613561328354073 0.049900529257314828 -0.0028589680597958435 -0.0019951077797967357 0.046032304120653074 0.015425688799698281 -0.013375070654279409 0.0143260068929899 -0.025903772303182551 0.018572742367970466 -0.050985208116023389 0.017234707658428949 0.032837635565277544 0.021588337199247014 0.069632908087173928 0.022658695178796841 -0.010077094215451436 0.077052773480767223 -0.014242655006596942 0.017634552617138928 0.050578078556422823 0.016190717943261917 0.045132299654627756 -0.0064828115243060584 -0.0095339676142360292
leaf_weight=1264.5100091248751 4614.1431042850018 392.53442111611366 528.89345474541187 106.01227177679539 1737.0385723114014 3951.310085400939 302.28609657287598 1639.1848185360432 620.86398181319237 795.94315388798714 1310.5927495360374 33.178304716944695 295.05907535552979 280.08361183106899 531.55841591954231 74.097410127520561 1168.8051086366177 162.10651153326035 4348.952406167984 225.18779887259007 2467.1235830485821 256.4238478243351 68.851601138710976 646.21569113433361 696.47493180632591 228.00122283399105 5474.2183116674423 70.617985084652901 746.8191749304533 169.69514600932598
leaf_count=3348 12084 780 849 424 3702 13366 697 5631 1983 1576 3450 111 940 1082 1399 342 3421 366 9972 419 5860 856 137 2043 1737 435 14675 121 2499 524
internal_value=0.0159722 0.0130288 0.022042 0.0421254 0.0205461 0.0114647 0.00943947 0.0128349 0.0104586 0.018313 0.0252942 0.0315577 0.0238803 0.00293564 0.0350369 0.00449073 0.00529357 0.0104358 0.0252597 0.0589734 0.0237064 0.0112008 0.0261939 0.0133063 0.00229256 0.015645 0.0143383 0.00946688 -0.00202381 0.0205869
internal_weight=35206.8 23709.6 11497.1 797.012 10700.1 20680.3 15960.2 10485.9 9304.96 4720.04 2638.09 1180.99 922.621 5474.3 1327.5 5194.21 5120.12 268.119 6085.99 258.366 3029.35 620.335 363.911 7665.77 1342.69 6323.08 6095.08 2081.95 817.437 2636.82
internal_count=94829 67432 27397 1639 25758 60268 47875 29664 26504 12393 6425 3160 2630 18211 2975 17129 16787 790 13674 530 7164 1933 1077 20873 3780 17093 16658 5968 2620 6384
is_linear=0
shrinkage=0.05


Tree=27
num_leaves=31
num_cat=0
split_feature=28 10 25 10 26 26 28 28 27 12 3 27 26 26 28 25 26 28 25 26 26 27 27 25 27 26 28 27 2 27
split_gain=235.464 184.506 109.154 174.436 102.157 179.983 147.102 101.766 109.601 94.0011 92.8878 113.508 95.8212 172.119 140.032 151.349 124.842 206.354 114.225 109.1 95.1544 152.238 84.7436 112.745 114.223 109.706 121.495 84.2958 83.6056 148.991
