tree
version=v4
num_class=1
num_tree_per_iteration=1
label_index=0
max_feature_idx=32
objective=binary sigmoid:1
feature_names=feat_pct_chg_1 feat_pct_chg_3 feat_pct_chg_5 feat_pct_chg_10 feat_pct_chg_20 feat_price_pctl_20 feat_body_ratio feat_lower_shadow_ratio feat_upper_shadow_ratio feat_atr_ratio feat_atr_mom_5 feat_rsi_val feat_rsi_diff feat_bias_s feat_bias_l feat_macd_norm feat_macd_diff feat_bb_pos feat_bb_width feat_vol_pct_chg_1 feat_vol_pct_chg_5 feat_vol_ratio_5 feat_vol_slope feat_realized_vol_20 feat_vol_regime_chg feat_turnover feat_market_pct_1 feat_market_pct_5 feat_market_pct_10 feat_market_pct_20 feat_market_bias_20 feat_rsi_rank_252 feat_mom_rank_252
feature_infos=[-0.20045300113250286:0.2005044136191676] [-0.28989513047719695:0.72786069651741281] [-0.31688311688311688:1.4878223495702008] [-0.38878676470588236:2.6481092436974794] [-0.44675324675324668:3.0150289017341043] [0:0.99999999998727229] [-0.3486176668914362:0.20493583415597239] [0:0.19120533961523364] [0:0.15873567210837097] [0.0061109934639407143:0.2072398190045249] [-0.71463414634146361:3.450000000000002] [0.084616216880999962:0.98113295946094692] [-0.31273500852451952:0.34520955533104125] [-0.210628898080922:0.39321245170185987] [-0.33461042234706695:1.5393923872653215] [-0.068908981129724239:0.078740974251266707] [-0.025057448533488527:0.020485740659023095] [-0.16775208371197139:1.0593516344650367] [0.013686225777317821:1.43007037222875] [-0.9530116337976845:66.060057575331101] [-0.93468296389977645:97.270341640062895] [0.065265008807324429:4.3652190473427268] [-0.10957584198685541:0.16167149603507644] [0.0032876455668144761:0.12743564674830105] [-0.84340178320044079:3.9034293754762821] [0:0.599804] [-0.073438340671686753:0.080636921063662381] [-0.082665269747612014:0.21886906459391997] [-0.079723030344439061:0.29055453635855866] [-0.084638456428626774:0.22783676895288196] [-0.079207691826033988:0.2204289478145085] [0.003968253968253968:1] [0.003968253968253968:1]
tree_sizes=3420 3463 3489 3479

Tree=0
num_leaves=31
num_cat=0
split_feature=26 30 11 15 6 0 26 30 26 27 26 27 25 26 14 25 26 15 11 26 30 30 23 30 15 30 9 24 10 27
split_gain=3766.2 2101.07 2353.96 749.442 595.357 532.665 504.985 1462.07 951.502 514.915 449.279 798.181 379.23 334.045 329.494 319.645 302.995 262.266 257.741 212.188 208.781 187.491 186.763 172.337 170.404 142.173 141.971 126.04 104.462 90.8331
threshold=0.02551834561787281 -0.04050133020828009 0.553319289391904 -0.008117744061363898 -0.0053097345132743076 0.099143213301859059 0.004324524913689399 -0.010287899997801655 0.0070252990924583045 0.055584429680974774 0.031280277077810788 0.12666225251766597 0.015916500000000004 0.012628798502741791 -0.14588429044152756 0.016623000000000002 -0.0025207817748863488 0.0072996219350549276 0.70026046192973579 -0.010285103218714007 0.026707574071513859 -0.035674239547378063 0.018599672844834037 0.054675124957836128 -0.016918934664949866 0.013109675366277879 0.037587674198662525 0.032650228448621539 0.27416265223671582 -0.047424757660765253
decision_type=2 2 2 2 2 2 2 2 2 2 2 2 2 2 2 2 2 2 2 2 2 2 2 2 2 2 2 2 2 2
left_child=1 16 3 13 -2 15 12 8 -8 -9 11 23 21 24 -15 17 19 25 22 26 -14 -5 -17 -6 -3 -4 29 -26 -16 -1
right_child=4 2 5 6 10 -7 7 9 -10 -11 -12 -13 20 14 28 18 -18 -19 -20 -21 -22 -23 -24 -25 27 -27 -28 -29 -30 -31
leaf_value=-1.2962210178150912 -1.4135837279451391 -1.393412494178327 -1.3229470851980558 -1.280199663400418 -1.4364666759905564 -1.230619776411785 -1.2037071440980183 -1.340918068152652 -1.3171956887847585 -1.2478055877513952 -1.1607893314907816 -1.1533211693025778 -1.3255139899513855 -1.1794451706377331 -1.361915826339243 -1.2775566131481908 -1.2864386855163388 -1.3564382642292208 -1.2673150379236753 -1.1720008581838346 -1.2767708418927239 -1.3447917113601273 -1.3050984401826731 -1.3024517877312716 -1.3680649108212639 -1.2922703720896527 -1.2814989207155967 -1.340052683784436 -1.266696145836858 -1.201878470155413
leaf_weight=34.20051434636116 31.567218244075775 436.8795031607151 960.30591163039207 114.85933607816696 31.583918958902359 270.07226401567459 438.17345812916756 1824.6303040385246 323.54175689816475 161.41939154267311 427.69655102491379 114.88549590110779 3138.2115924954414 45.152760416269302 102.2064236998558 764.47902926802635 247.67881977558136 389.83908462524414 702.87275049090385 173.95539891719818 238.9599227309227 5337.8808335661888 3601.0953474640846 93.202070713043213 1197.0963969826698 649.99502423405647 144.76083323359489 610.537573158741 40.162838757038116 190.1544488966465
leaf_count=129 175 2290 4043 410 186 770 1078 8163 1334 500 783 195 13333 92 488 2710 909 1832 2386 345 843 24185 14224 363 5831 2444 520 2723 134 461
internal_value=-1.31606 -1.31968 -1.32265 -1.33468 -1.20182 -1.2997 -1.32937 -1.31062 -1.25173 -1.33327 -1.1918 -1.24794 -1.33522 -1.35995 -1.29595 -1.30236 -1.23964 -1.31942 -1.29565 -1.21856 -1.32203 -1.34341 -1.30025 -1.33639 -1.36534 -1.3105 -1.24108 -1.35857 -1.33424 -1.21569
internal_weight=22838.1 22139.1 21348.4 14009.7 698.935 7338.66 11577.7 2747.76 761.715 1986.05 667.368 239.671 8829.91 2432.04 187.522 7068.59 790.75 2000.14 5068.45 543.071 3377.17 5452.74 4365.57 124.786 2244.51 1610.3 369.116 1807.63 142.369 224.355
internal_count=93879 92177 89813 61404 1702 28409 49846 11075 2412 8663 1527 744 38771 11558 714 27639 2364 8319 19320 1455 14176 24595 16934 549 10844 6487 1110 8554 622 590
is_linear=0
shrinkage=1


Tree=1
num_leaves=31
num_cat=0
split_feature=26 11 27 15 11 11 8 27 12 26 28 28 21 27 15 9 28 28 27 20 4 27 28 26 28 27 26 27 26 15
split_gain=2705.08 1383.4 1109.09 466.986 380.182 363.588 345.7 231.433 229.303 229.277 658.238 206.952 201.48 251.462 176.133 175.632 320.714 249.941 201.565 171.52 193.425 168.678 151.941 150.256 156.921 149.465 298.795 141.783 134.016 124.949
threshold=0.02551834561787281 0.5583890523472762 -0.038149624392996177 -0.0072166719150294073 0.29668664219128649 0.70026046192973579 0.01722723543888436 0.062348374607007935 0.046816132289890629 0.003898750142529273 -0.013953240242651486 -0.04836814166402769 1.2823876849693876 0.062348374607007935 0.016751482972642836 0.033547020057322498 -0.019871692919369851 -0.036492776665374919 -0.047424757660765253 0.30679157058908085 -0.080275835305788287 0.036096031864909735 0.004023686024714924 0.0096131181739486111 -0.038067992314821213 0.058035023757398337 0.031280277077810788 -0.027270273662916008 0.031280277077810788 0.0053391555420347373
decision_type=2 2 2 2 2 2 2 2 2 2 2 2 2 2 2 2 2 2 2 2 2 2 2 2 2 2 2 2 2 2
left_child=1 2 15 4 23 12 9 -8 14 11 -11 -5 21 -14 28 18 17 -17 -1 20 -6 27 -18 24 -4 26 -10 -3 -2 -29
right_child=8 5 3 6 19 -7 7 -9 25 10 -12 -13 13 -15 -16 16 22 -19 -20 -21 -22 -23 -24 -25 -26 -27 -28 29 -30 -31
leaf_value=0.078616496584276635 0.10590050270797242 0.13530094130225251 0.12794315012325572 0.11175528131695399 0.016483942907142401 0.12229599068571365 0.08919603334189613 0.19340124579792459 0.0055361967798300505 0.12021900705377078 0.064854643188082178 0.060722671927711691 0.10228458395642462 0.22038113283248664 0.0017489065464026286 0.10566223585174855 0.20068622567031236 0.017694699650859302 0.18070410848982232 0.068535786049007827 0.047120660968473914 0.045041864626863125 0.10883956205388208 0.16037595878094163 0.051826928344828195 0.2002788186139767 0.18447972377380303 0.092779624998729465 0.19711153691902172 0.075651724476540505
leaf_weight=66.156594261527061 110.16083140671253 150.97224815189838 105.01108151674271 204.83188506960869 874.73885443806648 1028.1487952768803 1273.3767681717873 55.582300797104836 32.75522568821907 716.8658045232296 2164.4359447807074 7564.2570281475782 1498.101348772645 46.409351095557213 25.732884138822556 304.6140665858984 107.64520157873631 110.56299662590027 208.28838647902012 452.02387011051178 1260.0855129063129 253.37226438522339 85.845646396279335 70.553962424397469 195.93331302702427 466.26220774650574 81.115573093295097 2602.2659592330456 68.721705302596092 1882.0945526361465
leaf_count=254 377 459 319 671 4359 3190 4810 109 174 2224 9052 32186 5246 80 133 1034 174 547 462 1880 5700 1110 299 177 875 756 147 9540 115 7420
internal_value=0.0798903 0.0768058 0.0684243 0.0651961 0.0473677 0.0945656 0.0695942 0.0937002 0.171181 0.0665772 0.0786679 0.062083 0.0901146 0.105977 0.124367 0.122887 0.107496 0.082347 0.156488 0.0405422 0.0345833 0.0850816 0.160732 0.0946457 0.0787391 0.187441 0.133546 0.0872589 0.14187 0.0856106
internal_weight=24066.9 23282.2 15820.8 14937.7 2958.35 7461.36 11979.3 1328.96 784.748 10650.4 2881.3 7769.09 6433.22 1544.51 204.615 883.113 608.668 415.177 274.445 2586.85 2134.82 4888.71 193.491 371.498 300.944 580.133 113.871 4635.33 178.883 4484.36
internal_count=93879 92177 65132 62362 13310 27045 49052 4919 1702 44133 11276 32857 23855 5326 625 2770 2054 1581 716 11939 10059 18529 473 1371 1194 1077 321 17419 492 16960
is_linear=0
shrinkage=0.05


Tree=2
num_leaves=31
num_cat=0
split_feature=26 29 32 28 32 11 30 27 30 29 28 29 4 29 26 27 26 28 27 28 29 14 0 28 18 27 28 28 27 11
split_gain=2076.27 1374.1 1987.92 672.594 523.177 474.136 427.028 371.669 359.189 384.995 358.534 354.787 325.1 310.589 271.422 377.805 270.222 261.481 245.248 280.499 349.63 227.698 226.736 220.829 172.827 170.258 164.815 164.81 161.097 151.635
threshold=0.02551834561787281 -0.044823827253672947 0.5009920634920636 -0.018581022379852204 0.49604736907886521 0.60833470398079681 -0.018937259126097197 -0.0070189904847468001 -0.04050133020828009 -0.052689289686006051 -0.016828398065911295 -0.034112232007322101 -0.0061582096403104405 -0.020062546344239259 -0.0055114970414113498 -0.021451769518045501 -0.0068921334526309544 -0.013953240242651486 -0.027270273662916008 -0.021066645553670934 -0.034112232007322101 -0.14588429044152756 0.099143213301859059 -0.03970905916432254 0.21175651215446087 0.073845667319205846 -0.04836814166402769 -0.031099764279624294 -0.047424757660765253 0.4503700491240058
decision_type=2 2 2 2 2 2 2 2 2 2 2 2 2 2 2 2 2 2 2 2 2 2 2 2 2 2 2 2 2 2
left_child=1 6 3 13 10 18 7 8 23 26 11 -5 -6 14 -3 -16 -11 -8 -4 27 -21 -12 25 28 -2 -7 -10 -20 -1 -15
right_child=24 2 5 4 12 22 17 -9 9 16 21 -13 -14 29 15 -17 -18 -19 19 20 -22 -23 -24 -25 -26 -27 -28 -29 -30 -31
leaf_value=0.082556789985001447 0.16585926504433479 0.0022316689643572026 0.11432087417081263 0.1535365785794448 0.0067431126829122197 0.091798978169888426 0.0077164045606802865 0.16928242135436536 0.096296501812261653 0.05245059609634467 0.14369067690972054 -0.0086487807812658697 0.050635491699685009 -0.023134109708444248 0.10217195696219038 0.033481908524529223 0.13769335291223006 0.087673858649782277 0.070861927418631038 0.12094505367838651 0.071107863723995954 0.059420280107472662 0.13858725582088383 0.1728614115766427 0.1174529165261496 0.0066632051593564978 0.024855487672160493 0.023368606941953092 0.1325108247328505 0.028127647630584826
leaf_weight=265.12277072668076 555.94834521412849 421.74522635340691 337.36695377528667 187.58452250063419 740.18589387834072 3581.3262655287981 153.54984906315804 272.2434364259243 113.72132705152035 132.14201426506042 80.957835212349892 40.86602009832859 981.9554864615202 408.18973119556904 259.15777561068535 879.01634348928928 329.33058840036392 307.15579836070538 299.39529757201672 373.3540473729372 6650.0190821439028 5534.3168003261089 265.46268238127232 213.39587604999542 297.89830279350281 59.998246982693672 277.2599750161171 471.40396955609322 447.77569848299026 221.79599584639072
leaf_count=904 919 2066 1041 462 3582 11921 749 547 375 546 195 210 4010 2168 883 3874 896 1103 1131 1116 25225 22387 631 345 783 282 1287 2129 1115 997
internal_value=0.0725044 0.0698063 0.0657635 0.0489782 0.0560423 0.0793606 0.104844 0.11463 0.106172 0.0825425 0.0631825 0.124591 0.0317881 0.0245558 0.0365162 0.0492027 0.113461 0.0611099 0.0724552 0.0706279 0.0737747 0.0606615 0.09371 0.1278 0.149134 0.0903998 0.0458403 0.0418904 0.114082 -0.00506273
internal_weight=25159.6 24305.8 21794.1 9755.77 7565.87 12038.3 2511.7 2050.99 1778.75 852.454 5843.73 228.451 1722.14 2189.91 1559.92 1138.17 461.473 460.706 8131.54 7794.17 7023.37 5615.27 3906.79 926.294 853.847 3641.32 390.981 770.799 712.898 629.986
internal_count=93879 92177 84310 40834 30846 43476 7867 6015 5468 3104 23254 672 7592 9988 6823 4757 1442 1852 30642 29601 26341 22582 12834 2364 1702 12203 1662 3260 2019 3165
is_linear=0
shrinkage=0.05


Tree=3
num_leaves=31
num_cat=0
split_feature=27 29 32 18 11 23 29 29 29 27 6 27 29 27 27 29 29 27 18 0 7 32 6 29 27 17 29 27 27 32
split_gain=1760.84 1119.27 1537.95 623.816 432.798 358.466 336.076 482.168 480.46 280.92 258.249 251.282 233.026 305.417 202.407 215.691 351.788 325.387 186.97 178.302 159.15 157.056 147.406 125.501 120.938 120.152 116.456 190.481 115.299 112.738
threshold=0.058035023757398337 -0.044823827253672947 0.5009920634920636 0.24695013092986698 0.60833470398079681 0.017927009092872509 -0.034112232007322101 0.016596562328817014 -0.044026760906585131 -0.025768475430823942 0.010038825376248726 0.0049712445449646711 -0.026246062328077909 -0.030269897119490404 -0.027270273662916008 -0.034112232007322101 0.0046198542244650928 0.003929130346917665 0.12014339377913033 0.099143213301859059 0.0036183814300352643 0.49604736907886521 0.016216216216216217 -0.056674827320560499 -0.028592724178683967 0.17476976926018298 -0.046371776746761288 -0.011554767603528414 -0.026701340549794058 0.908910533910534
decision_type=2 2 2 2 2 2 2 2 2 2 2 2 2 2 2 2 2 2 2 2 2 2 2 2 2 2 2 2 2 2
left_child=1 5 6 -2 14 23 8 12 -3 -10 29 -7 22 -14 24 17 -17 -16 21 -6 -11 -9 -8 -1 -4 -20 28 -28 -25 -5
right_child=3 2 4 10 19 11 7 18 9 20 -12 -13 13 -15 15 16 -18 -19 25 -21 -22 -23 -24 26 -26 -27 27 -29 -30 -31
leaf_value=0.14060814436083469 0.15178499491447001 -0.014249355152123784 0.088139992674997905 0.055168276712431512 0.082264955477066068 0.086819050217102484 0.0040431377924448819 0.087847688153242079 0.0054390144051982671 0.053802087710796288 0.11809697117961367 0.025237070272153151 0.1278976210807502 0.036744405956565217 0.062900666219386031 0.044867235022302027 0.068482913977576748 0.13749095540471176 0.039838118409392824 0.12353134826941302 0.088286070285397089 0.031716696900813468 0.059185154872143542 0.11983865136019552 0.16541906141856708 0.090208193460255742 0.081231151051157718 0.17384275199054741 0.064646852967625415 -0.037560790187017981
leaf_weight=384.97023193538189 788.92827992141247 177.31787978112698 295.41182017326355 67.37859034538269 3749.9988146871328 1438.3789506703615 850.27845604717731 787.8826360553503 145.77699539065361 485.42434114217758 98.338494151830673 188.60422374308109 92.805715650320053 5119.33067086339 380.24352979660034 2291.1079996675253 5134.3991554528475 240.62470926344395 810.91903355717659 285.91081061959267 1132.4106570482254 150.14852322638035 140.4323990046978 161.23666439950466 62.858070075511932 139.06962214410305 104.92979465425014 125.75877925753593 242.6337619125843 61.959848672151566
leaf_count=760 1242 881 912 254 11949 4439 4036 2691 682 1905 242 841 254 21642 1383 9127 18471 556 3367 635 3705 642 537 397 129 446 331 212 887 324
internal_value=0.0662286 0.0636123 0.0599841 0.130742 0.0717331 0.0943846 0.0454078 0.0409133 0.0641102 0.0719951 0.057457 0.0797033 0.0341673 0.0383926 0.065247 0.0635915 0.0612041 0.0919916 0.0630439 0.0852195 0.077982 0.0789116 0.0119163 0.117707 0.102135 0.0473042 0.103607 0.132272 0.0869349 0.0107605
internal_weight=26135.5 25118.9 22472.4 1016.61 12440.6 2646.51 10031.8 8090.87 1940.93 1763.61 227.677 1626.98 6202.85 5212.14 8404.65 8046.38 7425.51 620.868 1888.02 4035.91 1617.83 938.031 990.711 1019.53 358.27 949.989 634.559 230.689 403.87 129.338
internal_count=93879 91817 83950 2062 43162 7867 40788 33615 7173 6292 820 5280 26469 21896 30578 29537 27598 1939 7146 12584 5610 3333 4573 2587 1041 3813 1827 543 1284 578
is_linear=0
shrinkage=0.05


end of trees

feature_importances:
feat_market_pct_5=24
feat_market_pct_1=15
feat_market_pct_20=14
feat_market_pct_10=13
feat_rsi_val=8
feat_market_bias_20=8
feat_macd_norm=6
feat_mom_rank_252=5
feat_pct_chg_1=3
feat_body_ratio=3
feat_bb_width=3
feat_pct_chg_20=2
feat_atr_ratio=2
feat_bias_l=2
feat_realized_vol_20=2
feat_turnover=2
feat_lower_shadow_ratio=1
feat_upper_shadow_ratio=1
feat_atr_mom_5=1
feat_rsi_diff=1
feat_bb_pos=1
feat_vol_pct_chg_5=1
feat_vol_ratio_5=1
feat_vol_regime_chg=1

parameters:
[boosting: gbdt]
[objective: binary]
[metric: auc]
[tree_learner: serial]
[device_type: cpu]
[data_sample_strategy: bagging]
[data: ]
[valid: ]
[num_iterations: 500]
[learning_rate: 0.05]
[num_leaves: 31]
[num_threads: 0]
[seed: 0]
[deterministic: 0]
[force_col_wise: 0]
[force_row_wise: 0]
[histogram_pool_size: -1]
[max_depth: 7]
[min_data_in_leaf: 80]
[min_sum_hessian_in_leaf: 0.001]
[bagging_fraction: 0.8]
[pos_bagging_fraction: 1]
[neg_bagging_fraction: 1]
[bagging_freq: 5]
[bagging_seed: 3]
[bagging_by_query: 0]
[feature_fraction: 0.8]
[feature_fraction_bynode: 1]
[feature_fraction_seed: 2]
[extra_trees: 0]
[extra_seed: 6]
[early_stopping_round: 0]
[early_stopping_min_delta: 0]
[first_metric_only: 0]
[max_delta_step: 0]
[lambda_l1: 0.1]
[lambda_l2: 1]
[linear_lambda: 0]
[min_gain_to_split: 0]
[drop_rate: 0.1]
[max_drop: 50]
[skip_drop: 0.5]
[xgboost_dart_mode: 0]
[uniform_drop: 0]
[drop_seed: 4]
[top_rate: 0.2]
[other_rate: 0.1]
[min_data_per_group: 100]
[max_cat_threshold: 32]
[cat_l2: 10]
[cat_smooth: 10]
[max_cat_to_onehot: 4]
[top_k: 20]
[monotone_constraints: ]
[monotone_constraints_method: basic]
[monotone_penalty: 0]
[feature_contri: ]
[forcedsplits_filename: ]
[refit_decay_rate: 0.9]
[cegb_tradeoff: 1]
[cegb_penalty_split: 0]
[cegb_penalty_feature_lazy: ]
[cegb_penalty_feature_coupled: ]
[path_smooth: 0]
[interaction_constraints: ]
[verbosity: -1]
[saved_feature_importance_type: 0]
[use_quantized_grad: 0]
[num_grad_quant_bins: 4]
[quant_train_renew_leaf: 0]
[stochastic_rounding: 1]
[linear_tree: 0]
[max_bin: 255]
[max_bin_by_feature: ]
[min_data_in_bin: 3]
[bin_construct_sample_cnt: 200000]
[data_random_seed: 1]
[is_enable_sparse: 1]
[enable_bundle: 1]
[use_missing: 1]
[zero_as_missing: 0]
[feature_pre_filter: 1]
[pre_partition: 0]
[two_round: 0]
[header: 0]
[label_column: ]
[weight_column: ]
[group_column: ]
[ignore_column: ]
[categorical_feature: ]
[forcedbins_filename: ]
[precise_float_parser: 0]
[parser_config_file: ]
[objective_seed: 5]
[num_class: 1]
[is_unbalance: 0]
[scale_pos_weight: 3.72361]
[sigmoid: 1]
[boost_from_average: 1]
[reg_sqrt: 0]
[alpha: 0.9]
[fair_c: 1]
[poisson_max_delta_step: 0.7]
[tweedie_variance_power: 1.5]
[lambdarank_truncation_level: 30]
[lambdarank_norm: 1]
[label_gain: ]
[lambdarank_position_bias_regularization: 0]
[eval_at: ]
[multi_error_top_k: 1]
[auc_mu_weights: ]
[num_machines: 1]
[local_listen_port: 12400]
[time_out: 120]
[machine_list_filename: ]
[machines: ]
[gpu_platform_id: -1]
[gpu_device_id: -1]
[gpu_use_dp: 0]
[num_gpu: 1]

end of parameters

pandas_categorical:[]
