tree
version=v4
num_class=1
num_tree_per_iteration=1
label_index=0
max_feature_idx=21
objective=binary sigmoid:1
feature_names=feat_pct_chg_1 feat_pct_chg_3 feat_pct_chg_5 feat_pct_chg_10 feat_pct_chg_20 feat_price_pctl_20 feat_body_ratio feat_lower_shadow_ratio feat_upper_shadow_ratio feat_atr_ratio feat_atr_mom_5 feat_rsi_val feat_rsi_diff feat_macd_norm feat_macd_diff feat_bb_pos feat_bb_width feat_vol_pct_chg_1 feat_vol_pct_chg_5 feat_vol_ratio_5 feat_vol_slope feat_turnover
feature_infos=[-0.20077220077220082:0.20121951219512191] [-0.31961591220850483:0.72808764940239068] [-0.4094516594516594:1.2592592592592591] [-0.46739130434782605:2.151862464183381] [-0.48521866601514785:2.9767216294859358] [0:0.99999999999727973] [-0.22717077859660356:0.20750253464008098] [0:0.15965909090909086] [0:0.20958083832335334] [0.0011872994906712089:0.15558068831178609] [-0.36459213142410063:60.408788571939404] [0.095729842560763459:0.97728164576438015] [-0.28527555202000549:0.29517314815280243] [-0.086227050819958767:0.063818034923483744] [-0.021766241791788894:0.01829278861542874] [-0.14075663659276663:0.99748850554804791] [0.0030568319462464587:1.3514876969390945] [-0.97636810421844433:135.04841954022987] [-0.9813584223557954:163.46660980001894] [0.01934382484270511:4.7530249907275453] [-0.72625648940531617:0.93158982043393157] [0:0.700762]
tree_sizes=3509 3543 3541 3509 3510 3545 3553 3560 3560 3564 3548 3547 3548 3556 3557 3561 3553 3547 3546 3559 3559 3560 3555 3563 3571 3564 3556 3559 3570 3571 3557 3560 3557 3548 3571 3575 3565 3586 3573 3576 3568 3572 3569 3568 3563 3584 3569 3570 3575 3568 3571 3581 3551 3577 3564 3580 3568 3580 3571 3585 3600 3559 3569 3594 3585 3581 3579 3572 3597 3578 3571 3601 3577 3592 3561 3591 3613 3589 3580 3589 3608 3608 3579 3593 3570 3590 3585 3590 3599 3574 3589 3568 3591 3552 3601 3597 3594 3606 3605 3583 3612 3572 3587 3611 3587 3603 3562 3600 3597 3603 3588 3591 3607 3566 3589 3591 3567 3590 3607 3607 3609 3590 3605 3560 3606 3570 3586 3568 3598 3590 3575 3603 3602 3599 3566 3577 3584 3612 3590 3580 3571 3555 3600 3549 3576 3543 3603 3572 3560 3594 3587 3581 3590 3576 3599 3589 3606 3592 3582 3574 3597 3568 3572 3588 3582 3581 3601 3596 3558 3584 3601 3586 3603 3581 3541 3555 3607 3593 3567 3548 3581 3589 3575 3573 3607 3602 3580 3545 3595 3558 3581 3558 3591 3596 3565 3615 3578 3584 3455 3594 3576 3605 3584 3571 3568 3581 3558 3570 3584 3581 3551 3572 3567 3546 3545 3569 3529 3570 3556 3590 3514 3567 3542 3580 3576 3603 3576 3587 3575 3562 3611 3575 3512 3603 3572 3594 3582 3547 3589 3494 3620 3607 3593 3540 3547 3522 3586 3596 3498 3584 3575 3554 3538 3538 3520 3562 3568 3528 3569 3513 3558 3590 3573 3595 3556 3547 3554 3479 3544 3490 3523 3505 3530 3531 3546 3550 3560 3582 3551 3561 3574 3573 3574 3566 3585 3501 3545 3482 3470 3563 3588 3565 3528 3581 3600 3562 3558 3526 3566 3531 3555 3494 3561 3579 3545 3556 3578 3600 3550 3582 3477 3522 3542 3563 3566 3589 3438 3609 3583 3570 3568 3490 3541 3548 3589 3537 3564 3570 3462 3514 3567 3588 3552 3585 3534 3548 3504 3452 3508 3520 3542 3549 3569 3540 3524 3537 3539 3555 3544 3514 3575 3501 3544 3573 3560 3578 3580 3499 3563 3586 3523 3587 3528 3502 3498 3563 3542 3454 3519 3552 3518 3566 3576 3540 3549 3589 3588 3572 3580 3546 3548 3547 3506 3477 3565 3607 3580 3560 3591 3546 3509 3491 3452 3477 3467 3598 3580 3501 3447 3576 3542 3460 3494 3546 3572 3538 3590 3559 3493 3553 3490 3559 3538 3533 3540 3504 3514 3534 3542 3549 3573 3543 3528 3479 3487 3521 3558 3534 3541 3537 3580 3539 3533 3473 3553 3518 3470 3478 3544 3548 3505 3569 3529 3499 3524 3468 3559 3547 3486 3561 3526 3527 3486 3541 3549 3541 3556 3513 3542 3529 3512 3554 3572 3495 3562 3523 3467 3556 3464 3487 3523 3554 3477 3535 3487 3550 3490 3540 3483 3546 3517 3541 3466 3503 3530 3516 3502 3527 3527 3528 3492 3542 3480 3526 3485 3546 3490 3528 3578 3487

Tree=0
num_leaves=31
num_cat=0
split_feature=9 1 1 0 9 9 1 8 0 8 1 0 1 12 9 15 1 20 1 11 0 9 9 9 2 12 0 2 9 19
split_gain=154008 48975.1 43816.2 15050.8 9699.92 8074.96 3735.69 3310.77 2979.8 2579.04 2169.79 2047.08 1708.72 1510.78 1406.61 1399.59 1551.51 1310.05 1179.36 981.441 864.169 789.379 753.372 649.026 479.045 468.676 464.81 458.955 429.058 400.898
threshold=0.035335834675974773 -0.029609551812220244 -0.020936299854795167 -0.022277157238752118 0.049273613427910389 0.026246289919721975 -0.037922129223729055 0.049470813263951877 -0.024474901360965248 0.049470813263951877 -0.033778338592520267 0.090424253383594513 -0.017500994431185354 -0.018778918609578237 0.023564578041378181 0.19181369080735844 -0.0005669183130243004 0.23415269193640625 -0.010658208480195329 0.56680351817685604 -0.032629467167942343 0.02168616142061261 0.043719925325611718 0.063650286036328177 -0.044753921908951659 -0.013050151928696465 0.077399198002177219 0.10818807041827073 0.04590862734886101 0.89784716161775158
decision_type=2 2 2 2 2 2 2 2 2 2 2 2 2 2 2 2 2 2 2 2 2 2 2 2 2 2 2 2 2 2
left_child=1 6 10 20 9 21 -1 15 -7 11 -2 13 24 -5 -8 16 -6 26 -15 -20 -4 -3 -12 25 -10 -18 -14 -23 -22 -17
right_child=2 5 3 4 7 8 14 -9 12 -11 22 -13 17 18 -16 29 23 -19 19 -21 28 27 -24 -25 -26 -27 -28 -29 -30 -31
leaf_value=-0.61871348726907571 -0.60895600009329109 -0.83216175098090694 -0.6146448514571653 -0.70999368240449379 -0.67118031256160249 -0.68919838217491114 -0.77392564531270525 -0.60809966676641025 -0.69022684840543447 -0.61118138097197039 -0.66736489949950273 -0.66728980472096244 -0.79821057905732284 -0.72063177928603928 -0.67960547427397655 -0.65024611432294244 -0.68640881583931068 -0.74045909444906488 -0.77707686318646985 -0.7466550065971217 -0.68013958258481721 -0.81388241899157387 -0.63014075733230945 -0.69475566719655402 -0.75449363591134622 -0.74017468599725078 -0.66453866794684624 -0.67572895733439142 -0.63776422501887864 -0.68314584920973753
leaf_weight=3459.822569668293 18841.193756937981 17550.889991670847 3292.6646127253771 1786.8166552037001 2001.5229143500328 841.50101049244404 525.98260462284088 1197.571928858757 349.05687569081783 347.23974485695362 2149.0013016313314 730.36252672970295 11778.280273541808 1726.762366682291 1590.6885726749897 1359.0771927982569 460.74479801952839 1101.2502552866936 6707.9896638095379 4383.6568067967892 944.24138441681862 7418.0725919604301 3698.6837759613991 1483.7072236984968 1712.7725878953934 3369.4699324518442 65.394288688898087 60.606637686491013 1625.9978009909391 2905.512861341238
leaf_count=7881 40952 80033 7357 5814 5682 2551 2071 2592 1062 763 6013 2043 49434 5815 4659 3554 1383 3942 26638 15982 2771 32377 8877 4586 6388 12051 181 175 4035 8620
internal_value=-0.721621 -0.78972 -0.668013 -0.704554 -0.719581 -0.808682 -0.650723 -0.687243 -0.780755 -0.745929 -0.617214 -0.74898 -0.785889 -0.753065 -0.703044 -0.695428 -0.7087 -0.792622 -0.759069 -0.765053 -0.631605 -0.826365 -0.64382 -0.722831 -0.743614 -0.733707 -0.797473 -0.812763 -0.653332 -0.672661
internal_weight=105467 46454.3 59012.2 34323.3 28460.4 40877.8 5576.49 12777.6 15848.3 15682.8 24688.9 15335.6 15006.8 14605.2 2116.67 11580 7315.44 12944.9 12818.4 11091.6 5862.9 25029.6 5847.69 5313.92 2061.83 3830.21 11843.7 7478.68 2570.24 4264.59
internal_count=356282 190754 165528 109686 95523 176143 14611 38468 63558 57055 55842 56292 61007 54249 6730 35876 23702 53557 48435 42620 14163 112585 14890 18020 7450 13434 49615 32552 6806 12174
is_linear=0
shrinkage=1


Tree=1
num_leaves=31
num_cat=0
split_feature=9 1 1 0 9 9 10 10 10 1 1 14 14 1 1 8 14 14 8 0 9 9 8 0 2 10 10 6 6 9
split_gain=134200 39585.4 38545.4 13842 9892.04 6677.57 5214.44 3323.56 3242.46 2001.98 1815.37 1654.78 1630.03 1492.83 1371.33 1365.95 1399.47 1195.81 1282.65 1049.61 852.949 823.158 757.862 708.872 667.286 657.895 616.903 606.032 601.374 586.489
threshold=0.034092221568803566 -0.022880377421119921 -0.031633183970778737 -0.022775666191975293 0.048066103967800165 0.025541819317021808 0.025269205054186842 0.064701730002704197 -0.012796521636335821 -0.03977382968215331 -0.020936299854795167 0.00048043770170035218 -0.0010639152805259331 -0.035372544188119408 -0.010658208480195329 0.049470813263951877 1.3389839400092709e-05 -0.00051979945188150459 0.049470813263951877 0.090424253383594513 0.063650286036328177 0.022257546893796439 5.4822625409174059e-05 -0.032629467167942343 0.10030007176811818 -0.08932563583325763 -0.12414942136535166 -0.026595744680851133 -0.0074513454376727095 0.019543435348430102
decision_type=2 2 2 2 2 2 2 2 2 2 2 2 2 2 2 2 2 2 2 2 2 2 2 2 2 2 2 2 2 2
left_child=2 13 9 23 6 24 14 10 11 -1 -7 -6 -9 -2 26 16 -10 -8 19 27 -13 -11 -18 -3 29 -15 -5 -19 -24 -4
right_child=1 3 5 4 8 7 17 12 15 21 -12 20 -14 25 -16 -17 22 18 -20 -21 -22 -23 28 -25 -26 -27 -28 -29 -30 -31
leaf_value=0.13497922928973877 0.13996731628647119 0.13446813160407817 -0.068666060100176063 -0.0068271139223975838 0.077779155114250917 0.018580775920221747 0.087083645615145255 0.0840346384312049 0.11736763659833969 -0.00030448545400602609 -0.041095663291707656 0.0078035747406147091 0.0040824959926391595 0.091691694580949321 -0.019114784902995324 0.14008522950565724 0.10383587026550578 0.11398179438715901 0.13857640710190824 0.087953768277226341 0.057317489385599309 0.084296535268365586 0.10283608635481278 0.10077080976795696 0.076344852485528011 0.12493250776960546 0.049119464131035136 0.018204599122997944 0.049618161352842576 -0.052512927671166845
leaf_weight=2797.0061338841915 19602.911811113358 3661.6794140636921 13983.954717427492 821.50267206132412 2134.6837241798639 1469.0164818763733 1443.6136278808117 793.70373716950417 1997.7691067606211 361.21336716413498 9618.3706965744495 2770.0879159718752 3239.0445634126663 2449.1140504330397 7945.0731001347303 1168.8083852529526 1155.059006690979 171.56900028884411 289.07269310951233 689.13230793178082 1267.8782041370869 1409.3612518757582 628.76336164772511 2720.0323990881443 87.266146346926689 3795.070015758276 1231.1869867891073 4423.1453295052052 3408.757844209671 9394.4407607018948
leaf_count=5956 40408 7806 65721 3133 6092 5245 4093 2298 4826 1373 41611 10162 12349 6444 32105 2406 2966 440 604 1873 3887 3891 1641 6951 260 8644 3959 15992 10866 42280
internal_value=0.0393904 0.0854671 -0.0287049 0.052948 0.0393621 -0.0449633 0.0134864 -0.0190511 0.0696583 0.108642 -0.0331889 0.0421735 0.0198182 0.133185 -0.00970233 0.0899539 0.0818049 0.0465277 0.036022 0.0304114 0.0233504 0.0670372 0.0681227 0.120106 -0.0616599 0.111895 0.0267292 0.021781 0.0579058 -0.062175
internal_weight=106928 63774.9 43153.4 37927.8 31546.1 38585.8 17014.3 15120.1 14531.8 4567.58 11087.4 6172.65 4032.75 25847.1 9997.76 8359.16 7190.35 7016.53 5572.92 5283.85 4037.97 1770.57 5192.58 6381.71 23465.7 6244.18 2052.69 4594.71 4037.52 23378.4
internal_count=356282 175298 180984 119802 105045 169764 62199 61503 42846 11220 46856 20141 14647 55496 39197 22705 20299 23002 18909 18305 14049 5264 15473 14757 108261 15088 7092 16432 12507 108001
is_linear=0
shrinkage=0.05


Tree=2
num_leaves=31
num_cat=0
split_feature=9 1 1 9 10 14 9 10 14 14 14 10 9 1 8 1 8 10 10 10 12 0 2 9 2 2 8 12 2 14
split_gain=117857 37150.9 29831.1 13951.9 6538.9 5800.05 5033.9 2963.85 2654.69 2315.89 2173.09 1542.78 1429.55 1367.66 1179.78 1113.66 902.766 851.911 827.184 753.702 709.166 884.129 683.146 639.603 629.841 611.061 551.822 711.772 542.484 502.574
threshold=0.032688031929250148 -0.023365657678140413 -0.033028567846022032 0.04590862734886101 0.053871888423705945 4.2437144844319841e-05 0.025180690655308046 0.028740926905334922 -0.00127223500125733 -0.00058988043354710423 -0.0007608076902930784 0.11767311207536925 0.060701849191309588 -0.035372544188119408 0.049470813263951877 -0.041769041769041775 0.049470813263951877 -0.055594151748106106 0.018562930949040716 -0.091717853277031011 -0.03156254914893903 0.090424253383594513 -0.044753921908951659 0.041641978161818964 -0.05266505246166258 0.10030007176811818 5.4822625409174059e-05 -0.010746992491279811 -0.044753921908951659 -0.00090479908837558535
decision_type=2 2 2 2 2 2 2 2 2 2 2 2 2 2 2 2 2 2 2 2 2 2 2 2 2 2 2 2 2 2
left_child=2 13 15 4 9 17 25 12 18 19 -6 22 -7 -2 26 -1 20 -5 -8 -3 -12 -22 -10 29 -11 28 -9 -28 -4 -15
right_child=1 3 6 5 10 7 8 14 11 24 16 -13 -14 23 -16 -17 -18 -19 -20 -21 21 -23 -24 -25 -26 -27 27 -29 -30 -31
leaf_value=0.12667281638805725 0.12789192571954419 -0.0021677695930023967 0.008419910952055569 0.079137443140320382 0.099646519883770199 0.012638612544506954 0.0051142653354673403 0.097081591715735688 0.027237534571111551 0.045200566710354828 0.086414642908402395 0.0092477709549684296 0.060800930073878129 0.097352784754965463 0.1281006793597026 0.071238101816089611 0.12853668379673208 0.1154293008275295 0.074485274472466126 0.050076008671814637 0.017370288002813882 0.082448777698452921 -0.0413952216978207 0.11322553183579238 -0.022190236877174096 0.074495880622100719 0.10516088804998605 0.050567841298136129 -0.06172437118001553 0.048144392352803482
leaf_weight=2131.6398990005255 20925.238068163395 1080.5661291331053 279.12690569460392 2170.2658170312643 1867.7691383361816 4297.729471847415 961.85563564300537 1285.7431087046862 377.60348309576511 361.07090438902378 542.9885456264019 2042.1124730706215 2401.7299458384514 1514.8152946382761 970.59868206083775 1575.7243376225233 256.49922943115234 6343.2405401319265 776.73742978274822 1911.6969636380672 3952.7053362578154 601.28176127374172 9106.1550015360117 4239.9582673460245 8718.9297820776701 83.708530575037003 717.3705016374588 3559.5016873329878 22066.793014958501 789.20026703178883
leaf_count=4306 41629 4089 1098 5826 4628 15409 3625 3173 1327 1188 1431 7644 7023 3718 1930 4378 519 14047 2246 6024 14186 1595 40031 9383 35695 240 1696 11022 104808 2368
internal_value=0.0370202 0.0766479 -0.0318822 0.0465247 0.015574 0.0739846 -0.0459034 0.0532724 -0.0214865 -0.00693878 0.0532101 -0.030174 0.0299046 0.121653 0.0772349 0.103112 0.0370089 0.106178 0.0361066 0.0312097 0.0324029 0.0259629 -0.0386626 0.101703 -0.0195104 -0.0603431 0.0683595 0.0597249 -0.0608482 0.0804973
internal_weight=107910 68508.9 39401.5 41039.7 19293.5 21746.2 35694.1 13232.7 13264.5 12072.3 7221.24 11525.9 6699.46 27469.2 6533.21 3707.36 5353.47 8513.51 1738.59 2992.26 5096.98 4553.99 9483.76 6543.97 9080 22429.6 5562.62 4276.87 22345.9 2304.02
internal_count=356282 186579 169703 129481 69355 60126 161019 40253 54873 46996 22359 49002 22432 57098 17821 8684 17731 19873 5871 10113 17212 15781 41358 15469 36883 106146 15891 12718 105906 6086
is_linear=0
shrinkage=0.05


Tree=3
num_leaves=31
num_cat=0
split_feature=1 21 0 14 2 15 1 21 1 19 0 21 21 2 14 2 0 0 19 15 2 19 14 6 21 19 0 1 15 0
split_gain=94834.6 43594 10067.9 8987.02 6423.71 5755.74 3556.7 2938.95 2160.1 2088.48 1827.64 1560 1466.46 1279.05 1020.15 902.989 859.484 833.057 756.008 629.137 607.33 566.43 547.681 499.908 453.03 445.1 436.881 413.618 397.302 394.373
threshold=-0.026559444134752804 0.033023500000000004 -0.017635491429262459 -0.0014845440866918197 -0.044753921908951659 0.17369180771466292 -0.037922129223729055 0.014566500000000001 -0.0093240093240091731 0.73654674231911677 -0.022277157238752118 0.016664500000000002 0.063346000000000013 0.12329089443996778 -0.0022615804172730568 -0.04582210242587597 0.069971648471868111 -0.031669023610628948 0.83573027731123906 0.28378692441224651 -0.05976661960478407 0.70873191587558737 -0.0020434762141638553 -0.016469807089656393 0.063346000000000013 0.73654674231911677 0.041317532439309031 0.006319160122966295 0.13729570609182706 -0.027079303675048402
decision_type=2 2 2 2 2 2 2 2 2 2 2 2 2 2 2 2 2 2 2 2 2 2 2 2 2 2 2 2 2 2
left_child=6 3 17 14 20 8 -1 13 -4 26 -11 15 18 21 -2 -8 28 -3 -10 -7 27 -6 -13 -14 -19 -17 -9 -5 -12 -16
right_child=1 2 5 4 7 19 11 9 12 10 16 22 23 -15 29 25 -18 24 -20 -21 -22 -23 -24 -25 -26 -27 -28 -29 -30 -31
leaf_value=0.1179962469482808 0.09448600890472722 0.11591622493984616 0.060508827233112787 0.08561699365938602 -0.028955044909370582 0.056626557620980338 0.094800323502201689 0.013291716919755343 0.028138533885392558 0.043645423731486513 -0.038292216502598148 0.11343923073901355 0.08441369482517333 0.10426055987719791 0.079522649065299683 0.063340779569316871 0.080563343760033768 0.066324824368170707 -0.010456950719872805 0.084793490831527152 0.018579325312358844 -0.056667924875185488 0.082803790949748754 0.025202451851640818 0.1019475525818313 0.012385900275515229 0.12169023461516666 0.021996109674623163 -0.0058277669123151668 0.024049881045597257
leaf_weight=22910.169461011887 1015.1603996455669 3856.0761535912752 2384.9955819100142 930.30496780574322 2066.8109528422356 5347.0396251380444 753.61943553388119 2422.0822730064392 1540.731178894639 773.74480873346329 14735.176523536444 2344.943997040391 383.21633334457874 129.05222798883915 389.40856808423996 656.47774802148342 159.1532421708107 1968.7430322319269 7188.9235590845346 3150.5709062814713 1192.7343517243862 17091.313137695193 3860.8848076909781 5107.1780162155628 1632.6585081219673 1234.512431755662 96.661035791039467 352.18273863196373 1006.8128521293402 1807.8663500994444
leaf_count=44608 2476 7801 6920 2483 8913 15513 1836 8804 5231 2376 65446 4909 1024 306 1022 1863 424 5469 28682 7821 4208 81524 9563 17395 3724 4381 202 1203 3852 6303
internal_value=0.0349368 0.00486041 0.0487557 -0.0274983 -0.0338149 0.0336015 0.107597 -0.038837 0.0164742 -0.0249854 -0.0313956 0.0806763 0.0090887 -0.0526214 0.0530327 0.0485197 -0.035047 0.0997662 -0.00364508 0.0670697 0.0442614 -0.0536782 0.0943797 0.0293353 0.082474 0.0300754 0.0174517 0.0681461 -0.0362159 0.033881
internal_weight=108489 76728.6 32560.1 44168.5 40956 25102.7 31760.6 38480.8 16605 19193.6 16674.9 8850.44 14220 19287.2 3212.44 2644.61 15901.1 7457.48 8729.65 8497.61 2475.22 19158.1 6205.83 5490.39 3601.4 1890.99 2518.74 1282.49 15742 2197.27
internal_count=356282 289122 99580 189542 179741 82586 67160 171847 59252 81104 72098 22552 52332 90743 9801 8080 69722 16994 33913 23334 7894 90437 14472 18419 9193 6244 9006 3686 69298 7325
is_linear=0
shrinkage=0.05


Tree=4
num_leaves=31
num_cat=0
split_feature=9 1 1 9 12 12 9 8 1 1 9 8 0 1 0 1 9 0 1 18 13 21 1 0 9 2 2 17 2 0
split_gain=95472.7 30125.3 21627 12328.4 4422.03 4099.67 3679.39 2773.9 1910.8 1583.75 1531.5 1458.93 1328.5 946.414 915.627 874.948 871.159 800.345 988.979 757.565 622.859 621.362 503.104 407.206 397 390.875 373.427 340.909 318.131 281.172
threshold=0.031622612830264997 -0.020936299854795167 -0.033028567846022032 0.044700117590498252 -0.01918224381236882 -0.033404160928677658 0.023007622406247621 0.049470813263951877 -0.021406016310836492 -0.033028567846022032 0.061249923453039513 0.049470813263951877 0.090424253383594513 -0.011655011655011647 -0.023912617387895626 -0.041769041769041775 0.03932527172196517 0.090424253383594513 -0.0038610038610037973 1.282872729702345 0.0056813803155388006 0.032047110000000011 0.012945287406570973 -0.035967307440613876 0.023007622406247621 0.12329089443996778 -0.042709867452135501 -0.3601557104844445 -0.050247908770156717 -0.030788177339901409
decision_type=2 2 2 2 2 2 2 2 2 2 2 2 2 2 2 2 2 2 2 2 2 2 2 2 2 2 2 2 2 2
left_child=2 9 15 5 29 23 25 10 26 -2 17 12 13 28 -10 -1 -11 18 -6 -16 -20 -15 -12 -3 -17 -4 -8 -23 -7 -5
right_child=1 3 6 4 7 11 8 -9 14 16 22 -13 -14 21 19 24 -18 -19 20 -21 -22 27 -24 -25 -26 -27 -28 -29 -30 -31
leaf_value=0.10887571826935385 0.10985634594631302 0.10638884229190299 -0.061379702797731119 0.10914143118932058 0.059602947628487994 0.070676216004121759 0.063289273032600249 0.11648487430885418 0.036265496627718184 0.056033121351630147 0.089803976757975718 0.11929685868097935 0.069567421831929002 -0.020487497110588115 -0.040611235520156143 0.015770493728857971 0.094298057387921297 0.075278068960162231 0.0093964853293402942 0.0026824751515901 0.039050927496247556 0.040156156143033535 0.05579519454110117 0.058204479840650247 0.073918267780715682 0.11799664309752622 0.0085272169685574554 -0.0023173372442958202 0.017452461520980206 0.087519062336185227
leaf_weight=1934.1529851108789 23614.357229784131 583.08819268643856 18002.143808871508 3366.5561626553535 2029.6840503811836 332.14067474007607 397.29364995658398 1431.8467857092619 445.2842676192522 2111.5086112171412 1584.7844112813473 250.55785669386387 618.74093820154667 6926.4058634489775 11228.695158421993 409.3215224891901 5032.5370747447014 1014.640552520752 4806.4147014766932 1110.3570332080126 2803.58125667274 512.8650140017271 3465.3914724737406 1767.9069976508617 1037.7205824404955 30.421544447541237 1438.3337555974722 5993.0772842466831 1814.9033488035202 2716.8598468899727
leaf_count=3748 45408 1192 90087 6618 5797 929 1151 2762 1445 5929 3806 499 1626 28876 51208 1352 11158 2562 17218 4315 8645 1678 9697 4943 2580 66 5290 22881 6438 6378
internal_value=0.0330612 0.0660166 -0.0334994 0.0384938 0.0628633 0.00839483 -0.0459643 0.0498626 -0.0273239 0.103616 0.0437883 -0.0004325 -0.00228451 -0.00513814 -0.0341734 0.0868758 0.0829884 0.0330384 0.0285923 -0.0367154 0.0203214 -0.0100651 0.0664674 0.070155 0.0574701 -0.0610771 0.0203796 0.00103086 0.025686 0.0994849
internal_weight=108812 72777.8 36033.7 42019.4 23219.8 18799.7 32652.5 17136.3 14620 30758.4 15704.5 16448.7 16198.1 15579.4 12784.3 3381.2 7144.05 10654.3 9639.68 12339.1 7610 13432.3 5050.18 2351 1447.04 18032.6 1835.63 6505.94 2147.04 6083.42
internal_count=356282 195040 161242 132545 63483 69062 153562 50487 63409 62495 47725 62927 62428 60802 56968 7680 17087 34222 31660 55523 25863 53435 13503 6135 3932 90153 6441 24559 7367 12996
is_linear=0
shrinkage=0.05


Tree=5
num_leaves=31
num_cat=0
split_feature=9 14 1 9 1 9 1 8 18 1 9 6 14 1 0 14 9 8 14 6 0 14 0 0 9 1 18 13 15 9
split_gain=84931.2 27064.5 20236.3 9622.51 4059.53 3252.45 2728.58 2194.63 2080.57 1953.39 2232.27 1642.76 1428.59 1196.63 1033.25 1025.06 979.216 773.367 763.146 739.322 652.264 602.38 578.416 523.056 505.829 479.737 495.64 426.627 425.351 424.266
threshold=0.031622612830264997 -0.00088423543702891082 -0.03095975232198139 0.046964549241068944 -0.028949487738012421 0.023921641053525997 -0.015559855578814617 0.049470813263951877 0.92228562073015474 -0.028325651705109974 0.041641978161818964 -0.016814760320981333 -0.0015170853499685895 -0.03886661701711857 0.090424253383594513 0.0014173356991472638 0.03892703073587777 0.049470813263951877 0.0003152755991812438 -0.0084477296726505804 0.090424253383594513 -0.0018591211193360903 0.077399198002177219 0.090424253383594513 0.022257546893796439 -0.019125325155938785 0.98621048794208632 0.011741740419433528 0.028163262303988679 0.056782442757005634
decision_type=2 2 2 2 2 2 2 2 2 2 2 2 2 2 2 2 2 2 2 2 2 2 2 2 2 2 2 2 2 2
left_child=2 9 13 4 -3 27 -5 11 16 -2 21 -8 -7 -1 15 29 28 19 -18 -10 25 -11 -20 -21 -15 -14 -27 -4 -6 -13
right_child=1 3 5 6 8 12 7 -9 17 10 -12 14 20 24 -16 -17 18 -19 22 23 -22 -23 -24 -25 -26 26 -28 -29 -30 -31
leaf_value=0.097228199846381938 0.10389485093450966 0.079383059509064158 -0.059073344746325543 0.093049403905975381 0.010705628400112967 0.029398418745127237 0.083117985688283186 0.10936536707264788 0.071702988062643233 0.073937377918159838 0.093385969431872912 0.033624894305733476 -0.0024356235961501493 -0.011119042979556602 0.071535000884997535 0.014687065334088496 0.030893035852770079 0.11118915872790935 -0.0087925248252073568 0.0076453240396401325 0.089499122376583917 0.032903403786269679 0.077104218408549502 0.062012437951900472 0.05684998497560631 -0.039921022042127934 -0.0073978837237404244 0.094966919094514018 -0.023534469279331127 0.06696808357322323
leaf_weight=2412.3325186520815 21586.700788661838 1905.7642556875944 18742.53646543622 4574.345448628068 1054.3650642633438 1067.2935383021832 2095.2670415937901 1354.4342687129974 767.17935882508755 1393.9681079089642 8446.8290737867355 2183.5045105665922 1211.999112918973 364.53548085689545 1634.3488516956568 5548.858904287219 2295.9640235304832 298.81978577375412 4147.3672693371773 2591.8779876381159 111.16488362848759 2495.5540082454681 205.70781694352627 533.45478020608425 1098.8687626123428 8994.4398091435432 1346.8613774776459 45.057019963860512 6490.4292873591185 1694.3344262093306
leaf_count=4809 41154 4247 96161 9590 3865 3562 4871 2570 2052 3505 18231 6816 4683 1397 4059 18677 7540 577 16249 9513 300 7913 505 1398 2963 41774 5434 107 27166 4425
internal_value=0.0313783 0.0620914 -0.0322248 0.0338911 0.00991969 -0.045482 0.0593772 0.0487624 0.00271928 0.0948246 0.0789532 0.0425233 -0.0259711 0.0755893 0.0348336 0.0284705 -0.00642087 0.0336721 0.00756867 0.0277213 -0.0310373 0.0476096 -0.00473341 0.0169251 0.0399188 -0.0321971 -0.0356852 -0.0587039 -0.0187495 0.0481935
internal_weight=108694 73299.1 35395.1 39376 20290.9 31519.4 19085.1 14510.7 18385.2 33923.1 12336.4 13156.3 12731.8 3875.74 11061 9426.7 14193.8 4191.33 6649.04 3892.51 11664.5 3889.52 4353.08 3125.33 1463.4 11553.3 10341.3 18787.6 7544.79 3877.84
internal_count=356113 194923 161190 124120 73112 152021 51008 41418 68865 70803 29649 38848 55753 9169 33977 29918 55325 13540 24294 12963 52191 11418 16754 10911 4360 51891 47208 96268 31031 11241
is_linear=0
shrinkage=0.05


Tree=6
num_leaves=31
num_cat=0
split_feature=9 1 1 9 14 10 10 9 10 14 1 1 9 10 10 10 14 6 9 1 5 9 14 9 1 10 5 10 0 13
split_gain=76315.7 25206.1 17418.5 10437.2 4568.27 4271.18 3011.81 2615.34 1598.77 1593.75 1467.2 1396.01 1290.43 810.978 796.313 750.94 731.016 727.542 673.043 526.184 523.086 473.323 459.686 434.806 424.155 410.02 409.363 390.278 361.526 358.486
threshold=0.031097261443024837 -0.020936299854795167 -0.029609551812220244 0.042551496556264133 -0.00026514394152515934 -0.011434522425338265 -0.012796521636335821 0.023007622406247621 0.032311087499167342 -0.00051979945188150459 -0.032275110617882789 -0.037026840027288836 0.058605154004882649 -0.10736955343142156 0.22491524722647796 -0.054378091912611497 -0.00094811348499913861 1.0000000180025095e-35 0.042787166443272483 -0.008999437570303746 0.81578946646157491 0.023741725134787409 0.0046811808433736201 0.056340568449646224 -0.023365657678140413 -0.14330313888253907 0.15294117467128018 0.32124755257103016 -0.01691225819186731 0.011343984357956317
decision_type=2 2 2 2 2 2 2 2 2 2 2 2 2 2 2 2 2 2 2 2 2 2 2 2 2 2 2 2 2 2
left_child=2 10 11 5 15 19 12 29 24 20 -2 -1 25 18 -11 -5 -10 -8 -12 -3 -7 -13 -18 27 -9 -6 -27 -19 -14 -4
right_child=1 3 7 4 6 9 17 8 16 14 13 21 28 -15 -16 -17 22 23 -20 -21 -22 -23 -24 -25 -26 26 -28 -29 -30 -31
leaf_value=0.088044172515819863 0.097678150868805699 -0.00076092204239976743 -0.059153249228072372 0.056107280195127354 -0.022576356317782167 0.076914116259656773 0.07776241505133491 -0.0030864506861271947 0.039446004193999441 0.00092110154290807799 0.01435108368829445 -0.014576725141431317 0.082214616272189928 0.083619826972110317 0.039309594448595137 0.090159080579814019 -0.017533117012290721 0.027119405908431527 0.069532708444001223 -0.030255519283159133 0.027338441370614794 0.04706058700326704 0.074440955927703681 0.06135506712634782 -0.044081836603185036 0.045729268751733963 0.00035796181359977887 0.061782870278143637 0.033702524355826567 0.090750200403813874
leaf_weight=2558.022115200758 24577.097897157073 1990.5803357809782 16778.980988144875 2128.9938538968563 1539.1909010708332 1677.5081608891487 2750.5683714896441 684.37423659861088 812.14334510266781 4115.4039940088987 921.65775743126869 479.21038514375687 471.00932586193085 4732.3046256899834 2011.0198271274567 6759.7754332125187 3133.8312616944313 2937.158916965127 1379.8879435956478 6291.4065578579903 779.24147634208202 889.79082974791527 142.00962723791599 3197.4272344857454 8082.5733675062656 607.7582294344902 2731.6371330171824 1122.3085590004921 2079.9584942311049 39.978184670209885
leaf_count=5253 46749 7438 89163 5608 6068 4208 6558 2614 2668 15669 2924 1906 1056 10507 6248 14291 13552 9378 3216 27393 2474 2487 392 8221 38870 1872 10068 2942 6226 94
internal_value=0.0298711 0.0579886 -0.0327235 0.0331579 0.0528309 0.00244919 0.0379599 -0.0458197 -0.0288407 0.027166 0.0919154 0.0662353 0.0138426 0.0717798 0.0135223 0.0820032 -0.00301828 0.0558646 0.0474351 -0.0231665 0.0611895 0.0254848 -0.013546 0.0475647 -0.0408816 -0.00122559 0.00861538 0.0367027 0.0426598 -0.0587969
internal_weight=108403 74801.9 33600.9 43190.9 26325.8 16865.2 17437 29673.9 12854.9 8583.17 31610.9 3927.02 7429.55 7033.85 6126.42 8888.77 4087.98 10007.5 2301.55 8281.99 2456.75 1369 3275.84 7256.89 8766.95 4878.59 3339.4 4059.47 2550.97 16819
internal_count=356113 199114 156999 135718 72288 63430 52389 147353 58096 28599 63396 9646 25290 16647 21917 19899 16612 27099 6140 34831 6682 4393 13944 20541 41484 18008 11940 12320 7282 89257
is_linear=0
shrinkage=0.05


Tree=7
num_leaves=31
num_cat=0
split_feature=9 14 1 9 9 1 10 1 1 9 10 1 10 10 9 14 10 1 10 9 10 6 9 10 14 10 14 5 10 1
split_gain=68900.1 20276.5 19809.8 6649.08 3471.72 2741.78 3412.5 1957.9 1905.47 1860.14 1793.22 1747.38 1576.22 1071.21 755.939 731.143 723.399 677.004 625.541 613.037 542.243 520.911 478.128 425.604 422.829 399.574 393.783 386.779 346.405 322.593
threshold=0.033026558912216585 -0.00068225399117450311 -0.027148067835700281 0.049273613427910389 0.025895414911316906 -0.027148067835700281 0.028740926905334922 -0.036145076584252693 -0.028325651705109974 0.040355711720280553 0.032311087499167342 -0.014463224966713093 -0.012796521636335821 -0.048520706154572928 0.023564578041378181 -0.00094811348499913861 0.30925972825346598 -0.013360858356458281 0.34705665472182684 0.06801530864313507 -0.12283109487219034 0.00097231880268208195 0.019543435348430102 -0.050908285541849112 0.0052424680408474323 -0.12017417896792491 0.0011375370403589914 0.76870748036157832 -0.13728439869341055 -0.0099813560193282008
decision_type=2 2 2 2 2 2 2 2 2 2 2 2 2 2 2 2 2 2 2 2 2 2 2 2 2 2 2 2 2 2
left_child=2 8 7 5 18 -3 17 -1 -2 13 -6 -5 19 -10 -9 -12 29 28 22 26 -11 -14 -4 -16 -17 -19 -13 -15 -7 -8
right_child=1 3 4 11 10 6 16 14 9 20 15 12 21 27 23 24 -18 25 -20 -21 -22 -23 -24 -25 -26 -27 -28 -29 -30 -31
leaf_value=0.08341663090033051 0.09359572947933871 0.068436966983474595 -0.062095395627346187 0.084441473701347441 -0.034133337855209105 -0.013639882153093594 0.065113780368820817 -0.024134868293811659 0.00073695588252503305 0.046672416033760357 0.050146168318799644 0.034846678662732368 0.080481980188520166 0.0742925323721568 0.010347966691135571 -0.0076204675213157064 0.054652529953180901 -0.034595249928695358 0.0075247996231123764 0.054540313112841625 0.08456796633753394 0.051472785110382606 -0.046364864022877511 0.063513736317893213 0.076248288825135416 -0.011716500691627539 0.001127197700743414 0.030445123498513773 0.03449698681063542 0.017048865253519421
leaf_weight=3450.2923649847507 21711.326887786388 1886.1188772767782 11580.07497613132 3764.2370235323906 7465.0124053657055 603.59961204230785 376.5753328204155 615.27663673460484 1238.6501530706882 1055.5588337182999 804.62456521391869 1371.5902996063232 2203.6168883740902 1427.9097555577755 645.0151037722826 2944.522348344326 2227.225835159421 2875.7156597971916 401.23103104531765 1209.3346950858831 8929.2330600917339 5197.4572056233883 8287.750548094511 903.99480578303337 158.36361779272556 5673.5646366626024 2348.1196404099464 776.40422415733337 981.41851836442947 4782.985802680254
leaf_count=7101 41237 4217 64352 7791 34751 2242 1026 2686 4383 2808 2364 4045 4870 3435 2100 12065 6099 12656 1702 3165 18933 13771 42609 2364 414 22999 8292 2357 3025 16254
internal_value=0.0284967 0.0575134 -0.0265212 0.0308625 -0.0418794 0.0111573 0.00499117 0.0600317 0.0844391 0.0696338 -0.0197688 0.0546239 0.0455209 0.0379422 0.0227516 0.00767372 0.0308373 -0.0138478 -0.0542852 0.0236151 0.0805618 0.0601101 -0.0555335 0.0413753 -0.00334001 -0.0194122 0.0135608 0.0588486 0.0161657 0.0205569
internal_weight=107897 70640.6 37256.2 35501.6 31641.6 19407.2 17521.1 5614.58 35139.1 13427.8 11372.5 16094.4 12330.1 3442.96 2164.29 3907.51 7386.79 10134.3 20269.1 4929.04 9984.79 7401.07 19867.8 1549.01 3102.89 8549.28 3719.71 2204.31 1585.02 5159.56
internal_count=356113 183605 172508 110452 158257 68518 64301 14251 73153 31916 49594 41934 34143 10175 7150 14843 23379 40922 108663 15502 21741 18641 106961 4464 12479 35655 12337 5792 5267 17280
is_linear=0
shrinkage=0.05


Tree=8
num_leaves=31
num_cat=0
split_feature=1 21 16 0 8 0 16 2 1 14 0 16 14 14 8 1 21 17 6 6 17 8 0 8 14 14 0 14 1 2
split_gain=55003.3 27069.2 6965.9 5891.37 3926.04 2951.68 2895.78 2781.91 2552.24 1593.23 1334.86 1282.02 1206.87 901.475 843.253 692.214 672.936 597.643 588.89 562.485 553.832 532.455 450.463 495.023 438.951 416.919 397.202 385.377 371.553 353.195
threshold=-0.025997338392640176 0.033688500000000003 0.10090966827444628 -0.019599785387971688 0.049470813263951877 -0.021340341714675356 0.16503882950680976 -0.05266505246166258 -0.037922129223729055 -0.0013322454021106153 0.077399198002177219 0.097259441358247295 -0.0016218408252730969 -0.0015854994395485078 1.0000000180025095e-35 -0.014463224966713093 0.011221990000000003 -0.26822076243230075 -0.024590163934426163 -0.030553324348135857 -0.30441298112647369 0.015484592830520347 0.090424253383594513 0.018384516194368154 -0.0020935645254899246 0.0016710412983589995 -0.037325505517896811 -0.0019033099375753558 0.006319160122966295 -0.04582210242587597
decision_type=2 2 2 2 2 2 2 2 2 2 2 2 2 2 2 2 2 2 2 2 2 2 2 2 2 2 2 2 2 2
left_child=8 2 9 26 6 -4 17 28 -1 -2 12 24 -9 -8 -15 -14 -11 -5 -16 -19 -18 -17 23 -21 -10 -20 -3 -13 -7 -29
right_child=1 3 5 4 -6 7 13 10 11 16 -12 27 15 14 18 21 20 19 25 22 -22 -23 -24 -25 -26 -27 -28 29 -30 -31
leaf_value=0.089696023432231695 0.014107150548846601 0.092600285481856448 0.056247444657055334 0.031735894059797369 0.098265048452759143 0.063835664527858327 0.071708676797871698 0.034346454777913718 0.076384662098027439 -0.055555185200201362 0.084797820062723572 0.084314365705505795 0.005636187493174941 0.062667798260080218 0.083528872612420577 -0.030352210783896522 -0.0053462721474862567 0.084639594561565487 0.033476667136137672 -0.01552510873934021 -0.041329887018039718 -0.0024323393674465592 0.043579051123568094 0.010641404173220256 0.018513078998293821 0.012457536851447343 0.068276984368188173 0.078856837795395207 0.010980092106046542 0.049715065118111197
leaf_weight=23464.794226780534 1173.967600017786 2865.0945582538843 1984.4728766381741 1414.2742162495852 1767.5683386921883 1351.8504350036383 1602.6940611153841 1060.1113301366568 390.18621806800365 9546.7229948937893 328.30894234776497 2785.7095799297094 2084.1255470365286 1854.1532899141312 424.50649899244308 9978.447700381279 1193.2026682198048 178.73529958724976 4887.1116282939911 5913.0140963643789 10299.641946345568 2060.2096939682961 454.17864944040775 2603.2303809672594 2044.7777291834354 4560.8978783339262 4052.4791507571936 1659.1217698156834 440.94075866043568 2785.0779131501913
leaf_count=44658 4480 5458 5092 4635 3347 3607 3633 3217 924 53223 719 5675 7598 4554 943 45424 5184 441 14439 24631 52625 7953 1259 9265 6766 14905 9407 3552 1487 7012
internal_value=0.0272357 0.00328572 -0.0234927 0.0373995 0.0263597 -0.00150983 0.0210402 -0.0081336 0.0807894 -0.0425808 -0.0149493 0.0591656 -0.0171062 0.0365361 0.031729 -0.0209684 -0.0457439 0.00148681 0.0259184 -0.00318908 -0.037594 -0.0255742 -0.00493906 -0.00752658 0.0277866 0.02333 0.0783511 0.0697338 0.0508357 0.0605944
internal_weight=107210 74079.9 41502 32577.9 25660.4 19288.5 23892.8 17304 33129.7 22213.5 15511.2 9664.87 15182.9 13329.4 11726.7 14122.8 21039.6 10563.4 9872.52 9149.16 11492.8 12038.7 8970.42 8516.24 2434.96 9448.01 6917.57 7229.91 1792.79 4444.2
internal_count=356113 287526 190609 96917 82052 75097 78705 70005 68587 115512 64911 23929 64192 38474 34841 60975 111032 40231 30287 35596 57809 53377 35155 33896 7690 29344 14865 16239 5094 10564
is_linear=0
shrinkage=0.05


Tree=9
num_leaves=31
num_cat=0
split_feature=9 1 1 9 14 10 10 9 14 10 9 1 1 6 10 1 1 9 10 1 5 10 10 10 1 10 9 10 2 9
split_gain=57833.9 20137.1 12321.5 8562.76 3651.95 3596.79 2324.87 2220.05 1410.61 1370.09 1050.52 1007.58 826.609 627.167 627.129 615.411 596.439 556.589 598.03 523.771 489.092 425.817 409.47 404.407 484.002 371.523 361.192 341.732 316.702 315.365
threshold=0.030408909583657603 -0.023365657678140413 -0.031633183970778737 0.042551496556264133 -0.00058988043354710423 -0.011434522425338265 -0.012796521636335821 0.02168616142061261 -0.00050313144413366266 0.064701730002704197 0.058605154004882649 -0.037922129223729055 -0.040717325453373414 1.0000000180025095e-35 0.18974672127711981 -0.008999437570303746 -0.019125325155938785 0.042787166443272483 -0.095242437638930741 -0.024901478725053935 0.81578946646157491 -0.11361359727711749 1.0000000180025095e-35 -0.14178162415400256 -0.00092521204975626315 0.33358085282198108 0.064315116211362142 0.25293415293118632 -0.044753921908951659 0.023741725134787409
decision_type=2 2 2 2 2 2 2 2 2 2 2 2 2 2 2 2 2 2 2 2 2 2 2 2 2 2 2 2 2 2
left_child=2 11 12 5 22 15 10 -4 20 19 23 -2 -1 -8 -10 21 -11 18 -13 -9 -7 -3 -5 -6 -25 -18 27 -15 -14 -30
right_child=1 3 7 4 6 8 13 9 14 16 -12 17 28 26 -16 -17 25 -19 -20 -21 -22 -23 -24 24 -26 -27 -28 -29 29 -31
leaf_value=0.082885614718944511 0.087015063964390793 -0.021501816947603336 -0.057336128786067003 0.059257673910534658 -0.018565040644007758 0.066568063426622234 0.068010141797229445 0.0019447195756748682 -0.0012796035547825771 0.055164449589573561 0.038864099389568779 0.02584191839149801 0.067031919600464715 0.026425444693165524 0.030523265833939717 -0.028489306310917867 -0.017781199603490571 0.078129916273894345 0.066746843209313553 -0.041420136564053064 0.021525785739854614 0.019519550249550429 0.082363937609005775 0.041684537669481707 8.18133680181354e-05 0.026922104915764807 0.060611064610399862 0.051613536413876851 -0.020437751368049206 0.037750105606164125
leaf_weight=1776.1858290880919 21069.139934405684 1179.1679693311453 13872.191906690598 3019.9953622668982 1742.5295072644949 2004.8394889384508 3180.3709153681993 754.04429709911346 4024.8817762136459 412.8185797482729 2828.5569520741701 1330.7274380475283 446.22877423465252 3742.5471485704184 2521.0612074285746 6520.0917773395777 2368.1695526838303 5104.6435223668814 2719.7436235994101 9095.0200627744198 861.73422737419605 1364.8628731817007 5251.4073394089937 937.7041223347187 2747.5474444776773 578.27173168957233 1894.2582477480173 2103.4096011072397 367.87949194014072 634.43793542683125
leaf_count=3485 40223 4785 80615 7209 6811 4959 7395 2777 15566 1262 7834 3753 1055 11419 7850 29415 10567 10452 6203 46511 2713 4639 10651 2756 10116 2064 4558 5429 1367 1674
internal_value=0.0260538 0.0493028 -0.0323651 0.0284441 0.0461576 0.00212933 0.0341799 -0.0433668 0.0237778 -0.0286954 0.0141578 0.0809972 0.0600246 0.0493173 0.0109687 -0.0203512 -0.00112158 0.0671481 0.0533081 -0.0381001 0.0530277 0.000505991 0.0739275 0.00128274 0.0106675 -0.00900768 0.0416366 0.0354883 0.0319928 0.0163935
internal_weight=106454 76149.2 30305.2 45925 27448.3 18476.6 19176.9 27080.5 9412.52 13208.3 8256.34 30224.3 3224.73 10920.6 6545.94 9064.12 3359.26 9155.11 4050.47 9849.06 2866.57 2544.03 8271.4 5427.78 3685.25 2946.44 7740.21 5845.96 1448.55 1002.32
internal_count=356113 204736 151377 144105 74178 69927 56318 143796 31088 63181 27517 60631 7581 28801 23416 38839 13893 20408 9956 49288 7672 9424 17860 19683 12872 12631 21406 16848 4096 3041
is_linear=0
shrinkage=0.05


Tree=10
num_leaves=31
num_cat=0
split_feature=9 1 1 9 14 12 9 8 6 8 14 0 1 0 14 1 14 18 6 9 9 9 2 14 0 9 15 0 9 8
split_gain=52952.7 18681.3 11023.4 7816.35 3254.09 2408.48 2126.44 2066 1251.72 946.559 1003.42 1100.58 908.829 899.298 893.602 850.254 829.574 602.959 512.372 507.674 447.06 441.227 431.846 410.328 378.6 362.277 338.961 338.642 329.303 300.358
threshold=0.030408909583657603 -0.024390243902439098 -0.03095975232198139 0.043477869640632917 -0.00042080226565530495 -0.033404160928677658 0.021886318182585691 0.049470813263951877 -0.030553324348135857 0.049470813263951877 -0.00057100999462531921 0.090424253383594513 -0.041769041769041775 0.090424253383594513 0.0014173356991472638 -0.03886661701711857 -0.001392253970967946 1.182811991965242 -0.030553324348135857 0.05588973716019506 0.054694673486244176 0.04099740554949427 -0.051451331918532787 -0.00094811348499913861 -0.025082002427194824 0.03569193508835327 0.033630786436427154 -0.035967307440613876 0.018934496248069508 5.4822625409174059e-05
decision_type=2 2 2 2 2 2 2 2 2 2 2 2 2 2 2 2 2 2 2 2 2 2 2 2 2 2 2 2 2 2
left_child=2 15 12 5 24 27 -4 8 -6 10 -7 18 -1 14 19 -2 -8 22 -12 -10 -16 23 -18 -17 -5 -20 -27 -3 -14 -15
right_child=1 3 6 4 7 9 16 -9 13 -11 11 -13 28 29 20 21 17 -19 25 -21 -22 -23 -24 -25 -26 26 -28 -29 -30 -31
leaf_value=0.081684407899981729 0.084079998879659779 0.081975597595912844 -0.056206843651292852 0.082280965630842334 0.081791166430775081 0.019171540642056603 0.011787502795136009 0.090756803063881106 0.02351041108140145 0.096534309625293191 0.077740643204974522 0.055358773107577058 -0.025085001314564034 0.065095105196507935 -0.0032276424374585362 0.063869822380084332 0.034268915904645078 0.0027480783290391919 -0.024147989993056791 0.054271263853896329 0.020854931353955691 0.074365005158048877 -0.037189067800814511 0.027437223570313203 0.061254979723747008 0.023582402006341544 -0.011006973048290056 0.038915121916064666 0.038067577177792952 0.013931043114142672
leaf_weight=1596.5041607320309 20272.28275513649 589.16678221523762 13653.861731439829 3707.3168848007917 1014.3633744716644 3627.8394300341606 1200.1352356076241 1423.9521485716105 3692.6521974056959 236.45898434519768 152.03754118084908 607.30730965733528 240.79551281034946 1619.5573757141829 3890.0325756967068 2296.2205011546612 215.94087506830692 1131.5400910228491 5591.1694788783789 2106.4430290311575 3818.9458655267954 5537.5797210633755 10121.832441136241 1164.9221928268671 5067.2861415892839 795.87698923051357 6435.1040869802237 2029.0126624554396 1445.9814208894968 348.58494460582733
leaf_count=3129 39158 1194 81940 7311 2102 12101 4381 2708 11631 459 399 1522 924 3713 14072 5193 748 4609 24967 5262 11547 11429 51807 3230 11733 2812 25961 5654 3891 1022
internal_value=0.0249858 0.0470779 -0.0317426 0.0274664 0.0451923 0.00388735 -0.0425177 0.0329735 0.0279839 -0.00282365 -0.00418885 -0.0104288 0.0546448 0.0244572 0.0198565 0.0784024 -0.0277648 -0.0319036 -0.0135082 0.0346839 0.00870261 0.0656119 -0.0356964 0.0516076 0.0701386 -0.0145902 -0.0071999 0.048605 0.0290522 0.0560332
internal_weight=105631 76024.1 29606.6 46753.1 26689.1 20064 26323.3 17914.5 16490.6 17445.8 17209.3 13581.5 3283.28 15476.2 13508.1 29271 12669.4 11469.3 12974.2 5799.1 7708.98 8998.72 10337.8 3461.14 8774.6 12822.2 7230.98 2618.18 1686.78 1968.14
internal_count=356609 205180 151429 146170 71101 75069 143485 52057 49349 68221 67762 55661 7944 47247 42512 59010 61545 57164 54139 16893 25619 19852 52555 8423 19044 53740 28773 6848 4815 4735
is_linear=0
shrinkage=0.05


Tree=11
num_leaves=31
num_cat=0
split_feature=9 14 2 9 14 9 10 9 14 15 10 2 5 10 10 14 5 10 9 14 14 10 9 5 2 10 5 9 15 10
split_gain=48218 17896.3 7261.71 6511.09 2672.01 1767.29 1681.79 1473.97 1434.91 1137.82 1672.48 1109.87 896.51 944.329 873.063 837.29 713.456 773.701 669.484 540.616 436.475 427.646 345.44 358.763 323.815 311.704 335.278 308.155 258.11 255.482
threshold=0.029878996527724983 -0.00094811348499913861 -0.039947504388561032 0.04099740554949427 -0.0016593239461879709 0.053583867805776723 -0.01960973982088737 0.02168616142061261 -0.0019033099375753558 0.039755685841377071 0.069202423583395137 -0.043701452750753593 0.36329551235303742 0.026949261236714154 0.18479128749141874 0.0014173356991472638 0.16243654760418222 0.18974672127711981 0.038346306953904008 -0.0013600443229021362 0.00096088975803533506 0.074062679571757287 0.02072717867113643 0.69801766417545608 -0.051451331918532787 -0.038731421740836262 0.039313252939816259 0.06801530864313507 0.024830547123793619 -0.012796521636335821
decision_type=2 2 2 2 2 2 2 2 2 2 2 2 2 2 2 2 2 2 2 2 2 2 2 2 2 2 2 2 2 2
left_child=2 8 19 6 22 9 11 -6 -2 -5 20 -3 -10 18 25 -7 -8 -18 -14 -1 -11 27 -4 29 -21 -9 -27 -17 -13 -24
right_child=1 3 4 5 7 15 16 14 12 10 -12 28 13 -15 -16 21 17 -19 -20 24 -22 -23 23 -25 -26 26 -28 -29 -30 -31
leaf_value=0.07118221769760967 0.078735004209409376 0.035013701575805953 -0.026784487379317174 0.057714555644186774 -0.055828294151749114 0.064453645233057771 0.060216311783534406 -0.043795395710094262 0.073527636640784086 0.017671862424820477 0.042408156775896468 -0.00044651679569789353 -0.0051667538584635655 0.064350997600151449 0.0087483803892131461 0.017181804344590459 -0.0037834586081357336 0.030793241801018136 0.042376340219137963 0.053237944381131434 -0.007356875511026123 0.053137280005670695 0.012655243431087648 -0.022519256052640668 -0.00081224120323457056 0.031321502616758222 -0.029277803825361118 0.046079337709116909 -0.029008917253405965 0.06598650211249385
leaf_weight=1341.7376772612333 22924.007521465421 853.1027726829052 268.9048455953598 2284.2509088516235 12813.337984025478 6138.0268399268389 751.12409275770187 5523.3183179795742 4606.552745655179 3139.5261200964451 4651.7251234948635 907.08968663215637 1137.9651310741901 3090.5570162683725 1231.2700750827789 2423.5192876011133 4402.1766163408756 2557.9852832406759 2119.817921102047 513.59191459417343 3912.8479037433863 3058.5605268031359 336.13686496019363 217.30449214577675 601.79768168926239 241.56569610536098 4140.499542683363 1489.5727748125792 6178.2059596329927 676.52788136899471
leaf_count=3019 46135 2504 1229 5676 79503 13859 1996 29555 9798 9913 12580 3390 4119 7015 4874 7505 17231 7864 5402 1440 14862 7443 1113 863 2454 861 20637 3778 28312 1679
internal_value=0.0239858 0.0444789 -0.0322858 0.0229675 -0.0402112 0.0377969 -0.00271026 -0.0442643 0.0716216 0.0254355 0.0191357 -0.018865 0.0567363 0.044552 -0.0309593 0.0509868 0.0139203 0.0089241 0.0257692 0.0497987 0.00378524 0.0391303 0.0245515 0.0357749 0.0240757 -0.0358951 -0.0259372 0.0281821 -0.0253522 0.0482841
internal_weight=104533 76626.6 27906 42747.7 25448.9 27098 15649.7 23950 33878.9 13988.4 11704.1 7938.4 10954.9 6348.34 11136.7 13109.7 7711.29 6960.16 3257.78 2457.13 7052.37 6971.65 1498.87 1229.97 1115.39 9905.38 4382.07 3913.09 7085.3 1012.66
internal_count=356609 209382 147227 136913 140314 75616 61297 135430 72469 43031 37355 34206 26334 16536 55927 32585 27091 25095 9521 6913 24775 18726 4884 3655 3894 51053 21498 11283 31702 2792
is_linear=0
shrinkage=0.05


Tree=12
num_leaves=31
num_cat=0
split_feature=9 1 1 9 10 14 9 0 10 10 1 1 1 10 1 1 9 10 9 10 10 2 9 1 10 0 6 10 6 2
split_gain=43897.5 17195.8 9028.3 6824.37 4291.66 2191.44 1772.32 1648.07 1047.37 1022.72 883.593 812.184 790.081 898.379 780.324 603.157 493.214 458.102 414.26 399.621 389.584 372.649 305 295.72 329.293 288.646 316.988 288.433 286.505 271.422
threshold=0.029878996527724983 -0.024390243902439098 -0.03095975232198139 0.047789695009715506 -0.026141516213853352 4.2437144844319841e-05 0.021486150013486215 -0.014965222901730855 0.028740926905334922 0.018562930949040716 -0.03886661701711857 -0.03977382968215331 -0.0038610038610037973 0.16135737380391693 -0.013360858356458281 -0.014842487001999969 0.066398979742255129 -0.075379757033303615 0.04099740554949427 -0.12283109487219034 0.33358085282198108 -0.04582210242587597 0.03892703073587777 -0.0053283734553772879 -0.10487160490576201 0.090424253383594513 -0.0076530612244898434 -0.1110265121031782 0.00078282993352913721 -0.04582210242587597
decision_type=2 2 2 2 2 2 2 2 2 2 2 2 2 2 2 2 2 2 2 2 2 2 2 2 2 2 2 2 2 2
left_child=2 10 11 4 14 19 -4 -6 16 -8 -2 -1 -9 -14 21 -11 23 18 -12 -5 -17 -3 -16 -7 -25 26 -15 -23 -10 -13
right_child=1 3 6 5 7 8 9 12 28 15 17 29 13 25 22 20 -18 -19 -20 -21 -22 27 -24 24 -26 -27 -28 -29 -30 -31
leaf_value=0.073025221993165537 0.078945507750708799 0.045125266232661228 -0.054882427173016071 0.034323463667131314 0.054784277771043277 0.035061570466400287 -0.038652644038889294 0.044177475416844365 0.064846293145491327 0.033693444061369544 0.025734472422602541 0.057766937239013265 -0.0039978168931853351 0.056535747681578818 -0.030625825108876955 -0.02359262873490614 0.041127221557784678 0.069801439779991079 0.05961890778468714 0.069273150568090219 0.023342850373115471 -0.01944940225291536 -0.012050558457228982 -0.014625166701031898 0.015474750654440209 0.055552064295191932 0.014142781316150653 0.018644392111437535 0.040498253633770159 0.0075533791728792992
leaf_weight=1680.2621691823006 19728.90657825768 550.43359325826168 12319.813067242503 920.79285022616386 3516.1507748514414 931.81497475504875 7719.2663480490446 1991.3457133322954 1624.9697867929935 718.83482411503792 1434.3924919366837 368.63018083572388 5312.9654433578253 525.62561060488224 5147.2232875227928 2969.4734189063311 1711.7218113839626 5167.4686967134476 2430.2922319024801 7319.7307042777538 519.45920751988888 1045.916223064065 3872.4678069204092 1497.6827190965414 2310.2741107642651 740.37451307475567 2737.4312416613102 946.66159069538116 4710.9697123318911 996.91570127010345
leaf_count=3452 39401 1500 79225 2381 8655 2591 41676 5821 3615 2509 3930 883 20558 1398 24472 14430 4414 10977 5367 15578 1865 4085 15570 5527 7413 1765 9031 3069 12264 3187
internal_value=0.0230198 0.0425138 -0.0313893 0.0240118 0.00707805 0.0452608 -0.0415816 0.0248871 0.0323032 -0.0278428 0.0730157 0.0497491 0.0155905 0.00948012 -0.0157539 -0.00801185 0.0181224 0.0600634 0.0470426 0.0653679 -0.0166045 0.00870855 -0.0226508 0.00981439 0.00363635 0.0273667 0.0209716 -0.00135127 0.0467428 0.0211086
internal_weight=103468 76175.6 27292.7 47414.6 26386.6 21028 24246.8 14823.9 12787.4 11927 28761.1 3045.81 11307.7 9316.4 11562.7 4207.77 6451.49 9032.15 3864.68 8240.52 3488.93 2543.01 9019.69 4739.77 3807.96 4003.43 3263.06 1992.58 6335.94 1365.55
internal_count=356609 209382 147227 149707 95924 53783 139705 47228 35824 60480 59675 7522 38573 32752 48696 18804 19945 20274 9297 17959 16295 8654 40042 15531 12940 12194 10429 7154 15879 4070
is_linear=0
shrinkage=0.05


Tree=13
num_leaves=31
num_cat=0
split_feature=9 1 1 10 9 9 6 8 10 1 14 8 1 10 12 9 10 14 10 1 5 9 10 10 9 1 9 20 1 8
split_gain=40082.2 13617.5 12074.1 4811 3537.03 1962.54 1934.16 1810.98 1607.03 1458.81 1066.78 1103.12 1031.85 698.356 653.299 627.093 518.543 517.191 471.99 459.429 455.865 439.801 406.266 400.531 399.127 394.261 373.667 323.977 306.374 305.894
threshold=0.034461182172381401 -0.027148067835700281 -0.017500994431185354 -0.026141516213853352 0.025541819317021808 0.051170112736890018 -0.015129677510911745 0.049470813263951877 0.081519804616598149 -0.03977382968215331 4.2437144844319841e-05 5.4822625409174059e-05 -0.033028567846022032 -0.12283109487219034 -0.0071425201717572398 0.022257546893796439 0.34705665472182684 -0.00051979945188150459 -0.048520706154572928 -0.015200415894837392 0.90512805926961326 0.052519309486977826 -0.12017417896792491 -0.10365160949174583 0.01935245491973538 -0.00092521204975626315 0.053220977936021617 0.24256599882580052 0.0018249532686118732 0.049470813263951877
decision_type=2 2 2 2 2 2 2 2 2 2 2 2 2 2 2 2 2 2 2 2 2 2 2 2 2 2 2 2 2 2
left_child=1 9 12 5 16 22 -5 10 19 -1 20 -12 -2 26 -7 -11 24 -10 -17 23 -8 -13 -4 -6 -3 -24 -14 -19 -16 -30
right_child=2 4 3 6 8 14 7 -9 17 15 11 21 13 -15 28 18 -18 27 -20 -21 -22 -23 25 -25 -26 -27 -28 -29 29 -31
leaf_value=0.072512023917211607 0.075559324321627735 -0.057055954287072101 -0.02549393599100043 0.065291553418835621 -0.033004241496436368 0.050293528605416277 0.059266543565880285 0.083088482736692976 0.04242789842683245 -0.020590296370358845 0.051291764267213491 0.0031104566671610783 0.016369417575317322 0.063596703618998635 0.037671742584151208 0.010113966956858246 0.010575824448862028 -0.0099177087030952651 0.052738211590299559 -0.030351963155573661 0.023332038218133969 0.026254237248499547 0.017931066451911674 0.014554979787227893 -0.041276012528762202 -0.012753031856713235 0.05916852306848968 0.028936719635629729 0.0017273547968006027 0.094720147828532053
leaf_weight=2992.8251484334469 20769.729452028871 9362.9629185646772 3432.9268095493317 5851.500280931592 702.24833907186985 1863.7866965532303 2894.7692534923553 1570.0661074370146 1088.1041635274887 629.49612313508987 2103.2564943134785 5942.475883051753 1489.6905179470778 6012.1945294886827 983.12802840769291 1117.3687498122454 357.42259918153286 1845.6487073451281 1550.9728762954473 8067.4774735122919 1269.690864816308 3135.9623745828867 1535.2104902416468 1197.7713032960892 7005.3662996292114 3291.1804378032684 775.45327767729759 756.37015208601952 2542.0644491016865 91.619768500328064
leaf_count=6199 42564 63260 14807 12943 3155 4543 6979 3070 3163 2735 5094 20904 4356 13370 2643 3391 1617 7635 3826 40892 3592 8755 5072 4388 41412 13546 1734 2446 8346 172
internal_value=0.0221361 -0.0197223 0.0455534 0.0264128 -0.0335857 0.00304794 0.0405131 0.031942 -0.0147067 0.0472368 0.0267092 0.0186641 0.0696101 0.0546823 0.0262456 0.0242993 -0.0490015 0.0134815 0.0348893 -0.0251425 0.0483106 0.011105 -0.0123453 -0.00302294 -0.0503024 -0.00299283 0.0310213 0.00137673 0.0138535 0.00496236
internal_weight=102229 36674 65554.7 36507.6 30383.4 13739.9 22767.7 16916.2 13657.6 6290.66 15346.2 11181.7 29047.1 8277.34 5480.6 3297.84 16725.8 3690.12 2668.34 9967.5 4164.46 9078.44 8259.32 1900.02 16368.3 4826.39 2265.14 2602.02 3616.81 2633.68
internal_count=356609 184119 172490 110466 167968 49129 61337 48394 61679 16151 45324 34753 62024 19460 15704 9952 106289 13244 7217 48435 10571 29659 33425 7543 104672 18618 6090 10081 11161 8518
is_linear=0
shrinkage=0.05


Tree=14
num_leaves=31
num_cat=0
split_feature=9 1 1 9 12 8 9 12 9 1 1 1 8 8 1 20 18 1 1 6 9 2 13 15 6 17 8 12 2 19
split_gain=36743.7 15178.8 7723.49 5896.21 2897 1917.04 1868.78 1427.47 1060.36 799.201 716.292 703.859 633.581 603.157 592.521 584.301 557.765 519.412 433.293 347.956 341.889 291.991 288.033 273.632 250.104 246.76 228.118 264.041 226.273 224.669
threshold=0.029878996527724983 -0.025997338392640176 -0.033778338592520267 0.04099740554949427 -0.021471089257855593 0.049470813263951877 0.021886318182585691 -0.04066011726804155 0.056340568449646224 -0.019584704833495389 -0.03977382968215331 -0.00868894834842787 0.049470813263951877 1.0000000180025095e-35 -0.00868894834842787 0.096352827541313482 1.060017391385992 0.0075198441786918932 -0.042893982956229031 -0.028057957674264594 0.042551496556264133 -0.049028286166263861 0.0061488662808364411 0.15935282876286536 -0.03608761776474468 -0.28227827199537997 1.0000000180025095e-35 -0.011384273875950297 -0.042709867452135501 0.69745283572977812
decision_type=2 2 2 2 2 2 2 2 2 2 2 2 2 2 2 2 2 2 2 2 2 2 2 2 2 2 2 2 2 2
left_child=2 10 18 7 24 8 -4 -3 11 28 -2 -6 14 23 21 -16 -11 -10 -1 -15 -12 -9 -19 -13 -5 -21 -17 -28 -8 -23
right_child=1 3 6 4 5 -7 9 12 17 16 20 13 -14 19 15 26 -18 22 -20 25 -22 29 -24 -25 -26 -27 27 -29 -30 -31
leaf_value=0.074061208476378024 0.074862357609619914 0.043371509148799989 -0.052395064607470933 0.076703152263161226 0.037394667908766381 0.080960249313893576 0.041050867862616316 0.043597449832827241 0.055786444064976931 -0.034493930125612242 0.045981313643121274 0.0074484784469860113 0.089321882428433988 0.067202385028531472 -0.019744813652652259 0.034969732134062237 0.0024399544516511135 0.019933832521403759 0.032386389985484987 0.021036969671610797 0.066347254596779037 0.027120626176582088 0.043018886004013213 0.056471477587517797 0.056839662374605276 -0.0007109026943652011 0.029039686159073669 -0.0072804950969835962 -0.0028496496075876912 -0.0026545106700270947
leaf_weight=1283.2535734921694 18371.706862568855 1664.1442703008652 12089.544621169567 2346.6112833768129 2701.4543059021235 1540.4748769104481 365.17482163012028 569.71167427301407 2605.4578982740641 8458.3816164880991 3746.439036488533 419.48562230169773 174.99780674278736 215.87964281439781 7916.231907248497 511.61845287680626 1162.7302982360125 3502.3449407219887 1213.4864639043808 1571.5125232636929 4579.7941858917475 848.14516524970531 2199.9364782571793 885.54422922432423 4880.7878447324038 7671.0750881880522 608.56631034612656 2815.2893409878016 1495.8042300790548 2503.8484079688787
leaf_count=2655 38290 4253 82575 4766 7280 3052 1086 1566 6080 46750 9016 1421 345 505 35191 1479 4932 10057 3221 4996 9793 2690 5437 2049 11167 27071 2060 11454 6008 9364
internal_value=0.0213056 0.0391102 -0.0298174 0.0223447 0.0356314 0.0270571 -0.0386749 -0.000694743 0.0232433 -0.0242288 0.0693489 0.0145761 -0.00529286 0.00884904 -0.00634256 -0.0119171 -0.0300304 0.0372909 0.0538061 0.00445253 0.0571835 0.010504 0.02884 0.0407136 0.063289 0.00298688 0.00382852 -0.000824838 0.00576483 0.00487941
internal_weight=100919 74851.1 26068.4 48153.1 30540.6 23313.2 23571.6 17612.6 21772.7 11482.1 26697.9 13465 15948.4 10763.5 15773.4 11851.7 9621.11 8307.74 2496.74 9458.47 8326.23 3921.71 5702.28 1305.03 7227.4 9242.59 3935.47 3423.86 1860.98 3351.99
internal_count=356609 209382 147227 152283 83881 67948 141351 68402 64896 58776 57099 43322 64149 36042 63804 50184 51682 21574 5876 32572 18809 13620 15494 3470 15933 32067 14993 13514 7094 12054
is_linear=0
shrinkage=0.05


Tree=15
num_leaves=31
num_cat=0
split_feature=9 14 1 9 9 1 10 10 1 1 8 1 10 6 2 14 10 8 9 9 10 2 10 14 6 9 5 1 2 17
split_gain=33721.9 11238.1 11027.4 3035.85 2948.58 1671.84 2057.54 1621.01 1187.75 1118.57 1059.71 1003.1 822.287 692.681 628.841 564.857 562.257 548.747 544.036 485.129 463.194 450.29 382.371 373.164 371.87 366.769 362.194 318.025 306.348 303.129
threshold=0.033914060570530924 -0.00090479908837558535 -0.027148067835700281 0.051505038813718262 0.024473878031513591 -0.029609551812220244 0.053871888423705945 0.032311087499167342 -0.040717325453373414 -0.00836582504889599 0.049470813263951877 -0.029609551812220244 -0.015492379584090108 -0.022321428571428506 -0.05266505246166258 -0.00055396224396092499 -0.088118906783023962 0.049470813263951877 0.040144993485079335 0.023564578041378181 -0.15160271427508734 0.10030007176811818 -0.048520706154572928 0.0052424680408474323 0.00078282993352913721 0.018934496248069508 0.76870748036157832 -0.010658208480195329 -0.040809606138896885 -0.20221008216679395
decision_type=2 2 2 2 2 2 2 2 2 2 2 2 2 2 2 2 2 2 2 2 2 2 2 2 2 2 2 2 2 2
left_child=2 11 8 5 21 -3 14 28 -1 -5 13 -2 18 -11 -7 26 -15 24 -13 -10 -16 25 -21 -17 -8 -4 -9 -22 -6 -18
right_child=1 3 4 9 7 6 17 15 19 10 -12 12 -14 16 20 23 29 -19 -20 22 27 -23 -24 -25 -26 -27 -28 -29 -30 -31
leaf_value=0.068980126631080621 0.071950094087247549 0.053945042623768362 -0.055991659317253667 0.06282359139403744 0.006429918940385475 0.03667627480868476 0.040072234761217351 0.050062911542079785 -0.010262115111389886 0.062576575310169746 0.078343226507691266 0.0066478631030850088 0.063424090162811336 -0.0010775651310018515 -0.029537263335745908 -0.0084038080728191956 0.046850296653641217 0.079753047677018116 0.046542644228845943 0.010738202013018998 0.016358823169137813 0.073762455965175194 0.0505984515155972 0.059501271122118553 0.015491714173030528 -0.039740420051600077 -0.0032931560686521493 -0.008730291830614148 -0.031615070684298877 0.022228799191866058
leaf_weight=2495.3828236758709 17729.061693251133 2037.444397136569 8388.2442707121372 4020.1050968170166 565.24233609437943 785.54450519382954 2265.7282632440329 978.34262005984783 813.10410508513451 1169.4596190750599 1100.2230037301779 1162.7703476250172 7207.3494000583887 2075.2477032840252 2311.3804695755243 3348.9384835660458 1716.6312790960073 459.78665778040886 3223.7559705376625 1020.90793633461 1526.6581936478615 74.763371363282204 1465.0517435073853 215.3266546279192 4795.0590234100819 5923.5729631483555 471.27838465571404 7315.7990649789572 8281.6347442865372 4599.5839748382568
leaf_count=5370 37993 4674 60908 8937 2200 2206 6082 2807 3351 2575 2220 3756 15870 6791 10154 14449 4268 915 7774 3046 4733 206 3552 541 15248 37535 1763 29714 43882 12897
internal_value=0.0204874 0.0414672 -0.0198808 0.0228219 -0.0327697 0.0108525 0.00634072 -0.0163119 0.0429514 0.0403484 0.0318735 0.0644717 0.0530359 0.0265259 -0.0065628 0.00640123 0.0215018 0.0268259 0.0359674 0.0232635 -0.00960805 -0.048626 0.0342291 -0.00430148 0.0233793 -0.0492654 0.0327166 -0.00439863 -0.0291843 0.0289205
internal_weight=99543.4 65501.6 34041.8 36178.7 28247.3 21497.4 19460 13860.8 5794.45 14681.3 10661.1 29322.9 11593.9 9560.92 11939.4 5013.89 8391.46 7520.57 4386.53 3299.06 11153.8 14386.6 2485.96 3564.27 7060.79 14311.8 1449.62 8842.46 8846.88 6316.22
internal_count=356417 176807 179610 111414 164291 73726 69052 65642 15319 37688 28751 65393 27400 26531 46807 19560 23956 22245 11530 9949 44601 98649 6598 14990 21330 98443 4570 34447 46082 17165
is_linear=0
shrinkage=0.05


Tree=16
num_leaves=31
num_cat=0
split_feature=1 21 0 2 8 0 1 16 19 16 10 2 14 10 2 19 14 2 8 8 16 6 10 1 8 1 0 6 0 0
split_gain=28647.2 13839 4393.56 3220.15 2822.73 2086.99 1692.27 1662.77 1489.19 1042.2 966.991 701.016 655.491 635.273 584.597 520.687 472.539 436.155 435.865 379.55 358.973 358.615 342.017 331.227 330.895 326.59 309.856 296.062 285.184 268.249
threshold=-0.027148067835700281 0.027650500000000005 -0.022775666191975293 -0.03650190114068446 0.049470813263951877 -0.021811526058277905 -0.040717325453373414 0.14053831735919117 0.6598767234474211 0.068942480995661373 0.023596920723468088 -0.05266505246166258 -0.0020434762141638553 0.36180992784117999 -0.05266505246166258 0.80990767253736717 -0.001772076841983385 -0.064878224774245527 0.010530983778966862 1.0000000180025095e-35 0.097259441358247295 -0.0033444816053511354 0.071559745128399591 -0.0074341338141923332 0.020769060811040432 -0.014100060926526102 0.090424253383594513 -0.018292682926829212 -0.037325505517896811 -0.034760031789221373
decision_type=2 2 2 2 2 2 2 2 2 2 2 2 2 2 2 2 2 2 2 2 2 2 2 2 2 2 2 2 2 2
left_child=6 3 28 17 7 29 -1 15 22 -10 11 -9 -8 18 -14 -4 -12 -2 -11 -18 -16 -21 -7 -13 26 -19 -17 -26 -3 -5
right_child=1 2 4 5 -6 8 12 10 9 13 16 23 14 -15 20 24 19 25 -20 21 -22 -23 -24 -25 27 -27 -28 -29 -30 -31
leaf_value=0.07103700241692941 0.04859313318690435 0.07300697509824855 0.023593701957889294 0.069345081500533201 0.077624023038663018 -0.0052373272124022372 0.06431149536374299 0.044372787396090248 -0.047840569577185077 -0.033152251655086402 0.063035014926379904 0.023298947349287415 0.062334030688150514 0.038206664642267282 0.010777227880556661 -0.015693155331680805 0.047983333755316229 0.02780161652591305 -0.013971823225196661 0.042518086869157021 0.038280158129629246 0.016522006595078059 0.036333696637534198 -0.0029081029987492414 0.087602903907452193 -0.0066970299185571186 0.037317720140772628 0.0048857449343800222 0.051663389399845605 0.017958330324164443
leaf_weight=18401.97428612411 1071.9251874238253 2777.7951956391335 1453.3664128184319 316.7798109203577 1721.3310866206884 1578.2506425529718 3174.2935252636671 1154.5306993126869 8985.9206763207912 11073.16650699079 1027.6833152920008 1517.4758338183165 1693.977780893445 370.97209200263023 1841.7100101560354 6874.6008093804121 1795.8310280144215 1407.3949289619923 4043.5283405184746 1715.5032477527857 3334.5832699388266 5852.5822851210833 720.71278972923756 5867.7011116594076 115.14606486260891 1338.4285712987185 287.17251478135586 1787.0668561756611 3584.7834238260984 1280.8021389394999
leaf_count=40363 2766 5864 4816 691 3533 6805 7100 2875 63361 61816 2258 4301 3771 1281 6004 32224 4306 4693 18069 4435 8426 17776 2393 20718 257 5401 763 6555 8540 4256
internal_value=0.0197413 0.00248841 0.0231177 -0.0215663 0.0153887 -0.0273677 0.062027 0.0117509 -0.0306804 -0.0342947 0.0206065 0.00814096 0.0455204 -0.0264354 0.0368383 -0.00418917 0.0308505 0.0215448 -0.0280217 0.0273183 0.0284947 0.0224147 0.00779497 0.00247681 -0.00864402 0.0109855 -0.0135675 0.00989284 0.0609816 0.0281477
internal_weight=98167 69720.5 37532.6 32187.9 31170 28370.1 28446.5 29448.7 26772.6 24473.6 18931.3 8539.71 10044.6 15487.7 6870.27 10517.4 10391.6 3817.75 15116.7 9363.92 5176.29 7568.09 2298.96 7385.18 9063.99 2745.82 7161.77 1902.21 6362.58 1597.58
internal_count=356417 290753 119221 171532 104817 158672 65664 101284 153725 144527 56669 27894 25301 81166 18201 44615 28775 12860 79885 26517 14430 22211 9198 25019 39799 10094 32987 6812 14404 4947
is_linear=0
shrinkage=0.05


Tree=17
num_leaves=31
num_cat=0
split_feature=9 14 2 9 9 10 14 2 14 10 8 14 5 10 5 10 8 6 2 14 10 9 2 9 11 10 9 10 6 8
split_gain=28983.6 12023.8 5536.33 3666.5 2287.09 1555.13 1516.41 1246.21 1006.73 960.141 954.778 785.284 768.97 878.739 579.044 582.284 505.211 494.496 452.444 448.232 363.906 344.553 328.449 313.363 313.248 366.234 288.417 285.535 278.04 291.12
threshold=0.030924476976322512 -0.0011929726170403431 -0.038119214579271525 0.046964549241068944 0.020919838228659889 -0.042424722873401093 -0.0014845440866918197 -0.037286654455509098 0.0010471965258047539 0.09701241490849534 0.049470813263951877 -0.0022615804172730568 0.18518517811785853 0.16538636053964331 0.47654694437891471 0.036035723822152484 5.4822625409174059e-05 -0.027331855289993174 -0.066666666666666693 -0.0016218408252730969 -0.0029065922194622114 0.058605154004882649 -0.051451331918532787 0.04590862734886101 0.49351786302324524 0.045691688413614158 0.067113091933070287 0.41636387113188195 1.0000000180025095e-35 0.049470813263951877
decision_type=2 2 2 2 2 2 2 2 2 2 2 2 2 2 2 2 2 2 2 2 2 2 2 2 2 2 2 2 2 2
left_child=2 11 19 5 -4 7 20 -3 21 -8 16 -2 -7 -14 -13 23 -10 -18 -19 -1 -6 24 -21 -16 -5 -26 -20 -11 -15 -30
right_child=1 3 4 8 6 12 9 -9 10 27 -12 14 13 28 15 -17 17 18 26 22 -22 -23 -24 -25 25 -27 -28 -29 29 -31
leaf_value=0.061615082159327643 0.068386220396331396 0.026634739427610517 -0.051817998265048938 0.053324530073757086 -0.0052869736231514891 0.049818651422091867 -0.033892967573545464 -0.018388088497142109 0.044848514162090451 -0.0067218899223104624 0.074353941279565461 0.063112874858252691 0.0011614141348784608 0.047385543681028 0.0086512191145198657 0.056061889095262829 0.065659335286100462 0.047167674491338837 0.0032387818259107903 0.04785704983145319 0.042523518902894339 0.058448984228229819 0.0028625877641101933 0.043031011613401865 0.013523851832668821 0.048114011800171497 0.027613002289514833 0.038366559269316591 0.016606451226157601 0.077354348090021632
leaf_weight=1272.72858273983 16892.082129970193 1911.5345958322287 9946.961277410388 2178.389926046133 646.28062708675861 1557.7483745515347 9424.5049422830343 7843.8560048192739 1751.0179034918547 2115.974487170577 890.45492023229599 5056.8442636728287 6899.5440644770861 1473.5797136425972 1562.8350517749786 2688.7958367913961 462.23128074407578 842.12184044718742 5685.0160504281521 710.02170865237713 1036.0022048205137 3846.3643855154514 945.96335805952549 1150.8874147385359 1755.3391429632902 1356.6667574644089 1543.096715465188 420.99153245985508 2801.3299228698015 212.15587835013866
leaf_count=3033 37866 5678 75010 5263 2478 4171 55181 34701 4282 9719 1873 11602 25644 3768 4915 6212 1006 2092 18463 1991 2908 8779 3885 2794 5148 3262 4131 1365 8763 434
internal_value=0.0190111 0.0358006 -0.0255354 0.0193181 -0.0335848 0.00550912 -0.0202919 -0.00956602 0.0347513 -0.0265432 0.0246853 0.0617196 0.0168704 0.0123628 0.0509529 0.039571 0.0203845 0.015364 0.0124833 0.0393028 0.0241562 0.0470617 0.0221545 0.0232317 0.0387826 0.0286033 0.00844232 0.000760219 0.0295868 0.0208832
internal_weight=96881.3 70361.9 26519.4 43010.4 23590.7 22699.7 13643.8 9755.39 20310.7 11961.5 11173.9 27351.4 12944.4 11386.6 10459.4 5402.52 10283.5 8532.47 8070.23 2928.71 1682.28 9136.76 1655.99 2713.72 5290.4 3112.01 7228.11 2536.97 4487.07 3013.49
internal_count=356417 200847 155570 137458 146661 83159 71651 40379 54299 66265 31847 63389 42780 38609 25523 13921 29974 25692 24686 8909 5386 22452 5876 7709 13673 8410 22594 11084 12965 9197
is_linear=0
shrinkage=0.05


Tree=18
num_leaves=31
num_cat=0
split_feature=9 14 14 9 9 10 10 14 5 5 10 2 15 2 8 14 8 14 2 10 9 15 10 2 10 8 9 9 4 9
split_gain=26732.5 8679.1 8321.97 3136.26 1866.03 1211.23 1176.74 1132.05 1058.55 766.189 765.26 672.568 664.125 664.023 622.995 609.584 556.335 544.187 542.108 489.58 489.542 465.892 454.556 399.765 383.077 317.724 301.306 287.832 247.767 240.618
threshold=0.03569193508835327 -0.00045264345624783798 -0.0013011497293640921 0.024473878031513591 0.053583867805776723 -0.042424722873401093 -0.01960973982088737 -0.0018591211193360903 0.59839347028663059 0.46666663555555732 0.04366777716851878 -0.043701452750753593 0.020608483994053867 -0.044753921908951659 0.049470813263951877 -0.0020434762141638553 0.049470813263951877 0.002018265551389111 -0.037286654455509098 0.24560606177230485 0.024109657522785575 0.033630786436427154 0.32124755257103016 0.10030007176811818 0.058121538335593532 5.4822625409174059e-05 0.051505038813718262 0.018934496248069508 -0.037544224830914345 0.025368024658354211
decision_type=2 2 2 2 2 2 2 2 2 2 2 2 2 2 2 2 2 2 2 2 2 2 2 2 2 2 2 2 2 2
left_child=2 7 8 13 5 18 11 -2 15 -9 26 -5 -8 -4 21 -1 17 28 -3 -14 -17 -7 -23 27 -10 -19 -11 -15 -6 -26
right_child=1 4 3 6 16 14 12 9 24 10 -12 -13 19 23 -16 20 -18 25 -20 -21 -22 22 -24 -25 29 -27 -28 -29 -30 -31
leaf_value=0.063267982293606029 0.065755637182428189 0.02283931490733692 0.029132745916304565 0.020635349923333324 0.05668200391351115 0.056195495272872924 0.040402076576945965 0.058867123617125372 -0.018408944435520606 0.0043016836147123745 0.051318536472136148 -0.02997441146088416 -0.01153521439955519 -0.054101380870732657 0.074360296086483077 -0.006263852138459175 0.072409095002280266 0.044335415279990298 -0.012166660816560601 0.019836882227850988 0.04171497027237886 0.0089308907004591754 0.035557385103457344 0.067151113912798169 -0.025469321949983331 0.013950561023823622 0.037678104803074819 -0.038871544378468376 0.034642335842163377 0.038695594360829595
leaf_weight=2426.1734182089567 18180.550349473953 1351.9050787687302 292.157092705369 718.91149343550205 2116.429309591651 732.7295596152544 962.22679281234741 5764.4771210104227 1062.6667446196079 1997.2348778992891 2979.508716404438 7556.7173507958651 5162.7090309411287 7473.3388183489442 511.66225849092007 729.47349716722965 939.65258784592152 1097.7632543295622 6079.3610401600599 1638.1930117607117 1960.5387436151505 7282.6190190017223 2055.2164957374334 76.112296417355537 182.87257529050112 3978.1294075548649 1022.3026074022055 5304.212561942637 3208.1667026430368 726.75323393940926
leaf_count=5723 41931 4014 1047 2263 5005 1862 2970 13623 4438 6341 7065 40886 23259 59919 1078 3347 2032 2642 24971 5405 5341 24337 5458 206 957 11657 2534 35930 8298 1878
internal_value=0.0183139 0.0389962 -0.0154968 -0.0272998 0.019676 0.00967347 -0.0124607 0.0579355 0.0330982 0.0458495 0.033341 -0.0255779 0.00152254 -0.0454044 0.0205384 0.0450948 0.0355647 0.0322359 -0.00579833 -0.00397834 0.0287041 0.0178038 0.0147913 -0.0470986 0.00197838 0.0205219 0.0156017 -0.0477792 0.0434027 0.0257958
internal_weight=95570.8 59297.7 36273.1 29184.6 29353.6 18013.5 16038.8 29944.1 7088.48 11763.5 5999.05 8275.63 7763.13 13145.8 10582.2 5116.19 11340.1 10400.5 7431.27 6800.9 2690.01 10070.6 9337.84 12853.7 1972.29 5075.89 3019.54 12777.6 5324.6 909.626
internal_count=356417 162848 193569 171885 91354 61720 74783 71494 21684 29563 15940 43149 31634 97102 32735 14411 29634 27602 28985 28664 8688 31657 29795 96055 7273 14299 8875 95849 13303 2835
is_linear=0
shrinkage=0.05


Tree=19
num_leaves=31
num_cat=0
split_feature=1 21 0 16 8 1 2 0 10 0 19 0 1 16 19 17 21 10 8 10 16 1 17 2 14 8 1 10 19 21
split_gain=23860.1 10748.8 3209.67 2923.34 2175.66 1651.11 1379.08 1242.15 1151.6 900.052 845.351 836.189 687.426 543.781 473.416 420.512 410.738 401.671 381.798 374.036 337.46 293.83 283.498 275.225 260.246 258.015 256.129 222.471 216.313 204.918
threshold=-0.027148067835700281 0.032047110000000011 -0.023912617387895626 0.094475497445665302 0.049470813263951877 -0.03977382968215331 -0.054017648971020009 -0.023346303501945494 0.12427555056867635 -0.0179981551982028 0.81267800654587852 0.069971648471868111 -0.011978847784341993 0.10244591396745427 0.73654674231911677 -0.16868982743575947 0.10715450000000003 -0.056750848431484306 0.010530983778966862 -0.092846042165841289 0.18989315790242176 -0.0047322854292337615 -0.25151708080824525 -0.055371253414740522 -0.0018591211193360903 0.018922852983988266 -0.00868894834842787 -0.096382919474876302 0.80437679150162511 0.010488335000000001
decision_type=2 2 2 2 2 2 2 2 2 2 2 2 2 2 2 2 2 2 2 2 2 2 2 2 2 2 2 2 2 2
left_child=5 3 -3 9 8 -1 21 -8 10 -2 26 12 19 24 -11 -10 23 -14 29 -9 -17 -5 -19 -12 -7 -25 -4 -15 -26 -16
right_child=1 2 4 6 -6 13 7 11 15 14 16 -13 17 27 18 20 -18 22 -20 -21 -22 -23 -24 25 28 -27 -28 -29 -30 -31
leaf_value=0.066666154169748276 0.0099641937403179785 0.057894965971892975 0.042452426153230423 0.04935827061739996 0.072044184783898318 0.047050549404271308 0.036292486637744641 -0.012294228516661591 0.042452045075479942 -0.011205470113221379 0.032922818342260074 0.06452031196718859 -0.029799255510353076 0.035828035634262706 -0.050900079486706246 0.0070937498802906805 0.018217938410766254 0.0058736157401219078 -0.01888447860906399 0.019721934417145048 0.029797888305389594 0.0093571629445095474 -0.018553737996202108 -0.011966305387842298 0.031586087678413581 0.0055039895506891609 0.014787983879419299 0.055166418705237918 -0.002354483153456554 -0.037292384096277428
leaf_weight=17545.367501541972 1105.069191083312 5311.7518523335457 1416.667516335845 1276.2542867958546 1600.0649571716785 718.45810532569885 1389.9153327792883 1776.7789557352662 2753.0696141123772 1603.697472050786 446.07432018220425 339.92213350534439 5946.8908106386662 2315.1097572594881 5071.7873843088746 3075.4805662706494 2175.1010897755623 1702.8322662189603 1838.1717220693827 1874.8636510074139 3498.2594502568245 716.99448265135288 3926.9819493070245 7696.0689434558153 805.3213869035244 2913.477033957839 2043.6061671078205 4158.8238311856985 1125.5780505090952 6087.1356943696737
leaf_count=41731 4640 12442 3611 3189 3515 1818 3688 7121 7293 8937 1167 762 31156 5917 41037 10818 6407 6628 10383 6554 9286 2219 19061 32408 2300 9948 6239 9926 3972 42244
internal_value=0.0176467 0.00184436 0.0223005 -0.017592 0.0154546 0.0576949 -0.0043723 -0.00899649 0.0119744 -0.0335435 0.00411095 -0.0130398 -0.0147711 0.040442 -0.0368364 0.0260465 -0.00164359 -0.0207374 -0.039999 0.00414384 0.0191759 0.0349694 -0.0111653 -0.00555118 0.0213601 -0.0071688 0.0261141 0.0482509 0.0118011 -0.0434772
internal_weight=94255.6 67586.9 32929.6 34657.3 27617.9 26668.7 18951.4 16958.2 26017.8 15705.9 16691 15568.3 15228.3 9123.29 14600.8 9326.81 13230.7 11576.7 12997.1 3651.64 6573.74 1993.25 5629.81 11055.6 2649.36 10609.5 3460.27 6473.93 1930.9 11158.9
internal_count=356417 290753 103134 187619 90692 65664 80378 74970 87177 107241 59780 71282 70520 23933 102601 27397 49930 56845 93664 13675 20104 5408 25689 43523 8090 42356 9850 15843 6272 83281
is_linear=0
shrinkage=0.05


Tree=20
num_leaves=31
num_cat=0
split_feature=1 16 0 10 0 8 8 1 2 1 15 16 8 8 16 17 10 19 1 6 0 6 0 8 0 14 5 19 8 0
split_gain=22353 9202.65 3997.35 2610.48 1964.5 1405.08 1326.62 1256.76 1185.79 947.146 925.418 653.062 463.367 455.206 430.5 389.684 379.021 378.711 373.007 349.026 339.244 320.339 262.269 259.884 253.279 248.343 248.349 246.915 237.745 236.02
threshold=-0.028949487738012421 0.11332610938522338 -0.025082002427194824 -0.055594151748106106 -0.0179981551982028 0.049470813263951877 0.009779951100244556 -0.040717325453373414 -0.051451331918532787 -0.0059212961159375013 0.17369180771466292 0.061360880372935293 0.00019284674081731132 0.049470813263951877 0.077234609776142729 -0.26118652692676636 -0.17609897537664618 0.71947292425984355 -0.014463224966713093 -0.028899980776853618 -0.031669023610628948 -0.0055966330844802346 0.021050165231293109 0.026386106803009752 -0.037325505517896811 0.0010691833748204622 0.86647824202801871 0.76145641893630445 0.022998296422487265 0.090424253383594513
decision_type=2 2 2 2 2 2 2 2 2 2 2 2 2 2 2 2 2 2 2 2 2 2 2 2 2 2 2 2 2 2
left_child=7 4 24 8 20 9 11 -1 -4 -5 15 -6 -12 27 -9 25 -10 -13 -18 -17 -2 -14 -19 -20 -3 26 -11 -8 29 -21
right_child=1 2 3 5 6 -7 13 14 16 10 12 17 21 -15 -16 19 18 22 23 28 -22 -23 -24 -25 -26 -27 -28 -29 -30 -31
leaf_value=0.065890742992940482 0.051994666348709521 0.067107746117717693 0.031668863126144357 0.039290339838376862 -0.045662864063350322 0.069511565100825179 0.020788024924560639 0.011910304935710866 -0.029800299573831075 0.045252679205611809 0.046955367972003711 -0.0019279213887307602 0.041509829627548234 0.081861140963527895 0.04626008554700501 0.056155047969952965 0.011989879363566262 -0.033089218252651993 -0.016077302862241075 -0.012428100829887162 0.0095560670662662283 0.012689942176010299 -0.010321757791315504 0.016808126033636749 0.045840824736885444 -0.0016538351712460523 0.0038915016464187626 -0.011641278263696226 0.011342499320968737 0.029118421954146489
leaf_weight=16397.444658532739 611.38513243198395 2633.4852419346571 1724.0829168111086 4081.2754410877824 6481.6443592682481 1382.1465393304825 662.26826576143503 1047.6980222910643 2548.6793466806412 1081.1746499910951 1911.5945851802826 1466.4909651055932 1214.3504885882139 144.57641367614269 7050.2388782352209 242.31180487573147 1859.7124108225107 7605.8285833671689 6629.1445050984621 5332.5563596487045 2049.3683796599507 4680.5670348405838 1517.233086489141 660.64845550060272 2989.0285547971725 875.67433720082045 546.30689509212971 5162.2457845509052 1741.9586420208216 365.25053197145462
leaf_count=40203 1503 6067 4581 11314 52411 3141 2472 3358 11505 2981 4537 6956 3025 307 17649 587 6020 49636 29312 22287 7851 13848 7569 2061 7328 3071 2019 25415 5584 973
internal_value=0.0169624 0.00224767 0.0165304 0.0105429 -0.0213707 0.0206063 -0.0260683 0.0579319 -0.00704266 0.017544 0.012611 -0.0331628 0.0255637 -0.00577855 0.041816 0.00268339 -0.012748 -0.0255118 -0.00799789 -0.00289932 0.0193076 0.0186268 -0.0293028 -0.013097 0.0558019 0.0198165 0.0313687 -0.00795395 -0.00482271 -0.00976481
internal_weight=92696.4 68201 42499.9 36877.4 25701 23455.2 23040.3 24495.4 13422.3 22073 17991.7 17071.2 7806.51 5969.09 8097.94 10185.2 11698.2 10589.6 9149.51 7682.08 2660.75 5894.92 9123.06 7289.79 5622.51 2503.16 1627.48 5824.51 7439.77 5697.81
internal_count=355571 294361 140241 126846 154120 73367 144766 61210 53479 70226 58912 116572 21410 28194 21007 37502 48898 64161 37393 29431 9354 16873 57205 31373 13395 8071 5000 27887 28844 23260
is_linear=0
shrinkage=0.05


Tree=21
num_leaves=31
num_cat=0
split_feature=9 1 1 9 10 10 6 8 1 14 9 1 8 20 10 1 14 5 2 10 9 9 1 10 14 8 1 6 10 9
split_gain=21487.5 8191.21 7783.88 3386.41 2652.21 1600.94 1514.71 1194.87 1009.83 880.783 820.488 796.791 693.502 515.765 474.727 453.792 437.643 429.862 384.564 296.574 295.179 289.723 279.903 243.376 238.082 237.312 228.485 214.45 211.87 211.431
threshold=0.03569193508835327 -0.033778338592520267 -0.018285482092064816 0.022815641426281254 -0.057886268451166005 -0.01960973982088737 -0.020408163265306031 0.049470813263951877 -0.011655011655011647 0.00015693582665707211 0.057668819928902451 -0.033778338592520267 5.4822625409174059e-05 0.066973964274953959 -0.17865254647807174 -0.042893982956229031 -2.8737505288655826e-05 0.89655169322235551 -0.044753921908951659 0.30925972825346598 0.046695413843744656 0.050516882735506564 0.017621145374449369 -0.15509135746756372 0.0046811808433736201 0.049470813263951877 -1.0000000180025095e-35 -0.028899980776853618 -0.18956513282285561 0.053583867805776723
decision_type=2 2 2 2 2 2 2 2 2 2 2 2 2 2 2 2 2 2 2 2 2 2 2 2 2 2 2 2 2 2
left_child=1 15 11 19 10 18 -6 9 -7 17 23 -2 -11 -10 29 -1 -15 -8 -5 -3 -16 -14 28 -4 25 27 -25 -18 -12 -13
right_child=2 3 4 5 6 8 7 -9 13 12 22 14 21 16 20 -17 24 -19 -20 -21 -22 -23 -24 26 -26 -27 -28 -29 -30 -31
leaf_value=0.064534443020515683 0.063895462355641447 -0.047778291368672766 -0.023752360218411383 0.0097918884503061937 0.055419656466419012 0.031145034861371181 0.045094275131046177 0.067937392963308585 -0.019743029276078791 0.038058289174674249 -0.0051448763388462077 -0.016215374521865569 -0.00078135516480335062 0.04154425960095573 0.037205855483247764 0.032295925583255086 0.07338300704753252 0.014345387981846947 -0.028617347535537904 0.005211111945886319 0.058722720400870926 0.016448715793013158 0.004536987435760754 0.010231043874725662 0.03691693718930622 0.092216977226145358 -0.011571698120581488 -0.011524717308644518 0.044932430002253484 0.038144481702020949
leaf_weight=2301.1259555071592 15928.704528346658 10492.348822250962 2205.7129977196455 702.33143691718578 4475.5340028703213 2377.7276851385832 3906.9653894156218 1377.1816986352205 3634.1840837448835 2112.770224571228 253.75946933031082 439.66718362271786 5751.4368627369404 726.22406773269176 3126.3197761178017 2076.6175429672003 76.614714786410332 1602.9277196526527 9036.9437298178673 270.87193268537521 3251.8512536734343 4237.2016991227865 1245.8342576920986 1842.8454059362411 352.82111231982708 59.185736134648323 3453.5588344484568 2533.0610807240009 1259.8434078097343 301.56636737287045
leaf_count=5687 40275 87257 9606 2307 10799 7384 9925 3213 17453 5311 772 1435 20598 2398 8029 5481 197 4648 50924 1573 7572 12047 3773 6132 952 121 14308 11547 3097 750
internal_value=0.0163496 -0.0146846 0.035285 -0.0239322 0.01998 -0.0115056 0.0292525 0.023085 0.00280614 0.0195776 -0.00122258 0.0576802 0.0120326 -0.00632164 0.0437745 0.0492418 0.0066925 0.0361489 -0.0258475 -0.0464447 0.048176 0.00652768 0.0220895 -0.00979726 -0.00168369 -0.00678666 -0.00398559 -0.009032 0.0365368 0.0059006
internal_weight=91413.7 34640.1 56773.7 30262.3 33725.6 19499.1 23464 18988.5 9759.82 17611.3 10261.6 23048.1 12101.4 7382.09 7119.4 4377.74 3747.91 5509.89 9739.28 10763.2 6378.17 9988.64 2759.44 7502.12 3021.68 2668.86 5296.4 2609.68 1513.6 741.234
internal_count=355571 193281 162290 182113 104229 93283 66541 55742 40052 52529 37688 58061 37956 32668 17786 11168 15215 14573 53231 88830 15601 32645 7642 30046 12817 11865 20440 11744 3869 2185
is_linear=0
shrinkage=0.05


Tree=22
num_leaves=31
num_cat=0
split_feature=9 0 2 2 9 9 10 10 10 0 8 17 6 15 10 9 10 5 2 2 15 2 9 8 15 2 10 8 8 10
split_gain=19849 6503.06 3883.08 3079.82 2586.95 1292.38 1260.39 1035.62 862.933 808.735 778.948 709.879 468.551 432.186 420.412 411.496 338.323 334.125 305.975 285.504 249.364 247.646 240.966 225.759 214.87 208.86 206.83 195.845 224.294 192.705
threshold=0.028504048292830299 -0.0179981551982028 -0.047901198510332359 -0.039947504388561032 0.039938395485216764 0.019543435348430102 -0.08338376922436673 -0.057886268451166005 -0.0071897472908167273 -0.030788177339901409 0.049470813263951877 -0.16868982743575947 -0.0025175358042774814 0.029024028199969128 0.11767311207536925 0.03932527172196517 0.26062702220309036 0.85386263025526243 -0.073168432042608186 -0.014101518494495811 0.011068102498789378 -0.018265849111808338 0.064975413248111555 0.00026194108049541477 0.022742029948218622 -0.0027100271002709615 -0.052078143745646059 0.049470813263951877 1.0000000180025095e-35 -0.057886268451166005
decision_type=2 2 2 2 2 2 2 2 2 2 2 2 2 2 2 2 2 2 2 2 2 2 2 2 2 2 2 2 2 2
left_child=3 9 18 26 7 -5 21 24 -7 -2 11 -8 -13 -9 25 20 19 -16 -3 -10 -11 -6 23 -14 -4 -15 -1 28 -19 -22
right_child=1 2 4 5 6 8 10 13 16 15 -12 12 22 14 17 -17 -18 27 -20 -21 29 -23 -24 -25 -26 -27 -28 -29 -30 -31
leaf_value=0.00089441174947276359 0.061942818196703421 0.0567887888306031 0.0038043346104882701 -0.050883181594646901 0.017601553338095207 -0.036406361450297839 0.040557013184440105 0.037149230919508822 0.01116779888091049 0.053052006744760738 0.066555106404371678 0.040728680554668793 0.030872396300846788 0.011471967697146339 0.037232354057722128 0.04893972751804633 0.021861303423597482 0.035214490420411498 0.038531285919938388 -0.021072081819230745 -0.0019471785849530432 -0.0028663904807546652 0.031200361891510171 0.0064170958799933441 -0.023031643078017611 -0.011802262400941803 0.04227136766850792 0.073718832165572443 -0.0044167323140434341 0.028711337373217891
leaf_weight=382.6858239993453 10467.160804465413 4773.380211815238 865.17999032139778 7357.2467729821801 2189.9365845620632 5859.4379338845611 5713.1352410465479 1035.7796159237623 888.65493658185005 692.24262523651123 1291.4307467788458 2001.1727908104658 1111.4583347737789 1274.5123913139105 1224.668351739645 6477.2891145944595 804.37086164951324 434.16829939186573 4419.4233932346106 3021.5862797498703 753.01354596018791 4544.6845116764307 1659.1505311131477 6252.9096792787313 5410.2690226733685 3955.5542526394129 1432.8143685758114 100.87306520342827 2008.925768122077 1604.9876392632723
leaf_count=1447 26557 12173 3381 65837 6800 39594 15353 3314 3788 1810 3120 5282 2884 4673 3580 16639 3133 1134 12070 17703 2625 16642 4319 20199 27516 17581 4398 221 7244 4554
internal_value=0.0157826 0.0282303 0.0186366 -0.0285076 0.0120621 -0.0347907 0.0222457 -0.00339984 -0.0235939 0.052349 0.0291398 0.026253 0.0188404 0.00656384 0.00304336 0.041809 -0.00767024 0.0157748 0.0480115 -0.0137451 0.0266667 0.00378929 0.0139862 0.010108 -0.0193318 -0.00613058 0.0335496 0.00544519 0.00262623 0.0189207
internal_weight=90008.1 70261.3 50266.6 19746.8 41073.8 17931.3 24763.9 16309.9 10574.1 19994.7 18029.3 16737.8 11024.7 10034.5 8998.7 9527.53 4714.61 3768.64 9192.8 3910.24 3050.24 6734.62 9023.52 7364.37 6275.45 5230.07 1815.5 2543.97 2443.09 2358
internal_count=355571 219671 167486 135900 143243 130055 74599 68644 64218 52185 51157 48037 32684 37747 34433 25628 24624 12179 24243 21491 8989 23442 27402 23083 30897 22254 5845 8599 8378 7179
is_linear=0
shrinkage=0.05


Tree=23
num_leaves=31
num_cat=0
split_feature=1 21 0 2 8 16 1 19 21 10 0 19 1 16 8 10 3 0 2 17 1 21 8 0 0 0 12 8 20 5
split_gain=18847.9 7823.26 2913.5 2126.21 1835.89 1240.3 1144.83 1051.83 1127.51 893.057 584.071 458.33 389.334 382.092 317.166 316.129 287.312 270.03 271.193 289.662 247.841 246.206 245.309 238.679 235.914 219.002 206.273 249.642 198.067 191.394
threshold=-0.029609551812220244 0.027650500000000005 -0.025082002427194824 -0.035689893629178286 0.049470813263951877 0.068282212208598383 -0.041769041769041775 0.7852010815103464 0.062229000000000013 0.14548500507090903 -0.025724954313514344 0.76145641893630445 -0.014842487001999969 0.097259441358247295 0.026386106803009752 0.33358085282198108 0.14505714113005355 0.090424253383594513 -0.055371253414740522 -0.24854565118614416 -0.0093240093240091731 0.0084051500000000019 0.011999999999999908 -0.038653812855120644 -0.01293692054119294 -0.0025575447570332361 0.0079965632970565911 0.00019284674081731132 0.001129260347111983 0.99491739651384059
decision_type=2 2 2 2 2 2 2 2 2 2 2 2 2 2 2 2 2 2 2 2 2 2 2 2 2 2 2 2 2 2
left_child=6 3 23 12 7 24 -1 20 14 10 -7 21 -2 -8 17 26 25 18 -9 -20 -4 -12 -13 -3 -5 -11 -10 -28 -22 -17
right_child=1 2 4 5 -6 9 13 8 15 16 11 22 -14 -15 -16 29 -18 -19 19 -21 28 -23 -24 -25 -26 -27 27 -29 -30 -31
leaf_value=0.06339378058855015 0.029756126169106015 0.064147901755769718 0.042185261822520387 -0.013148423086100492 0.066529058771377395 0.026163958077778021 0.020873129995496256 0.026124582845891243 0.023563401724039888 0.025881609950850488 -0.034412522197879283 -0.03040163156497146 -0.00020676027999162101 0.046151349214263913 0.016183416549396284 0.054618107550131356 0.055253305784979868 0.032656913298367472 0.007694044725452715 -0.014928846162814145 0.014723883232984078 -0.00096157560868819164 -0.012802971164080785 0.042613763051876696 -0.042171178925337297 -0.010184724911927975 0.030151523911402085 0.0025906109911682075 0.047846747809885598 0.023372546037140576
leaf_weight=14434.71635222435 2254.1702124401927 2267.3759362399578 2141.9998206347227 778.74697492271662 1453.2351367026567 676.54937914758921 2015.2468067705631 505.05953377485275 2596.5123773515224 798.58208885043859 661.50074248015881 8755.305124104023 2088.7795044407248 5789.7165569216013 1500.3566617071629 675.00631840527058 375.01306760311127 389.81924942135811 1679.0133966729045 8996.0878372788429 2697.9480945169926 3265.6587963178754 2558.8496110290289 2975.2736170738935 6941.1866402700543 889.98828211426735 970.7261703312397 5348.9375627860427 542.00086127221584 1789.2365898936987
leaf_count=38782 6970 5659 5517 4880 3559 1919 5942 1359 7508 2949 3908 55014 7763 15044 4809 1605 918 1001 6073 41377 8156 13537 11931 7617 60394 4528 2579 17888 1451 4934
internal_value=0.0152001 0.00188703 0.0174316 -0.0170125 0.0116512 -0.0224802 0.055052 0.00897793 0.00457319 -0.0152832 -0.0192953 -0.0213132 0.0153452 0.0396245 -0.0054457 0.0160798 0.0156645 -0.00825049 -0.00967681 -0.0113706 0.0289891 -0.00659614 -0.0264215 0.051927 -0.0392435 0.00687227 0.0116988 0.00682408 0.0202649 0.0319313
internal_weight=88812.6 66572.9 36528.6 30044.3 31285.9 25701.4 22239.7 29832.7 24450.8 17981.4 15917.9 15241.3 4342.95 7804.96 13070.3 11380.4 2063.58 11570 11180.2 10675.1 5381.95 3927.16 11314.2 5242.65 7719.93 1688.57 8916.18 6319.66 3239.95 2464.24
internal_count=355571 295803 121092 174711 107816 159978 59768 104257 89133 94704 86309 84390 14733 20986 54619 34514 8395 49810 48809 47450 15124 17445 66945 13276 65274 7477 27975 20467 9607 6539
is_linear=0
shrinkage=0.05


Tree=24
num_leaves=31
num_cat=0
split_feature=1 9 9 14 10 8 6 1 1 10 9 1 1 10 0 14 10 9 10 9 10 6 1 9 10 10 8 6 0 8
split_gain=17657.1 12525.8 3147.5 2559.03 1391.96 1358.14 1031.93 822.329 798.556 737.335 588.948 560.977 553.382 459.943 413.917 403.609 388.35 345.294 285.957 284.888 282.267 271.881 259.837 248.278 230.439 228.943 198.681 261.388 191.148 190.859
threshold=-0.031633183970778737 0.03698566188803689 0.022815641426281254 -0.0011673059107998216 -0.01960973982088737 0.049470813263951877 -0.03608761776474468 -0.041769041769041775 -0.010309479911954965 -0.048520706154572928 0.027480942513368894 0.0066082757167399428 -0.0050341345445529808 0.21865621672918792 0.090424253383594513 0.0014173356991472638 -0.098853422495880902 0.053220977936021617 0.19485863806578432 0.017483652407223018 0.19485863806578432 -0.0050632911392405446 -0.017881613541578408 0.065672252473779683 -0.15338223172608464 -0.18667866274509362 0.021820683430625928 -0.0038699250488590667 0.069971648471868111 0.00012110757993869664
decision_type=2 2 2 2 2 2 2 2 2 2 2 2 2 2 2 2 2 2 2 2 2 2 2 2 2 2 2 2 2 2
left_child=7 2 19 16 22 6 -5 -1 -6 12 -9 -11 17 -10 15 18 -3 25 -13 -2 -21 -15 24 -14 -4 -8 -17 -28 -23 -16
right_child=1 3 4 5 8 -7 9 10 13 11 -12 14 23 21 29 26 -18 -19 -20 20 -22 28 -24 -25 -26 -27 27 -29 -30 -31
leaf_value=0.062460035514466876 -0.052574458621302889 0.022121099322629668 -0.042050546500901564 0.062326760873901946 0.02675682468855611 0.064855269457865558 -0.026320062583887957 0.0061109972708578491 -0.013044166116176452 0.036295156060841931 0.047457790891906389 0.011587959157147363 -0.012094610561164773 0.038442857183929438 0.039804870710658601 -0.007393493781962965 0.051204069246504592 0.036399653814919684 0.038874009074116991 -0.039476345467031153 0.0038413670867820954 -0.0070293567139884444 -0.027892294392841629 0.015104155979975387 -0.00089305461270626778 0.011975195037335511 0.053284091871937139 0.0045953584362930441 0.035343867541067747 -0.00039638081371342801
leaf_weight=13930.762990325689 5334.6066256090999 1375.8016236275434 418.2628276720643 1000.6847575455904 2540.2004928514361 1296.9305314272642 478.76783287525177 1032.2538438290358 5718.1275677531958 3168.5215042680502 5199.1902015060186 3206.1526852101088 5801.6801110655069 734.74916064739227 1743.0254349410534 3579.7452765107155 6927.8777106851339 1309.6136468201876 1370.6990064382553 3990.8861478492618 415.19481559097767 1282.1646877229214 7872.2412456870079 980.88796950876713 1819.7441470474005 2111.671755284071 321.93558497726917 1917.5720031261444 335.8703773021698 355.44469666481018
leaf_count=38782 52162 3806 1924 2357 8060 3281 1847 3185 27360 8530 13601 9947 23737 2103 4245 12353 17456 3322 3519 33560 2584 4910 47871 2742 6977 6684 769 5986 878 1033
internal_value=0.0146541 0.00237525 -0.0213616 0.0219458 -0.0103422 0.0148608 0.0124898 0.0557065 0.00230735 0.0105968 0.0406086 0.0175047 0.000468274 -0.00538777 0.0127396 0.00865098 0.0463854 0.0154757 0.0197597 -0.0448033 -0.0353944 0.0132201 -0.0236184 -0.00816115 -0.00858501 0.00489742 -8.60675e-05 0.0115945 0.00176644 0.0329955
internal_weight=87571.3 67409.1 30462 36947 20721.4 28643.3 27346.4 20162.2 10611.1 26345.7 6231.44 15663.1 10682.6 8070.91 12494.6 10396.1 8303.68 3900.05 4576.85 9740.69 4406.08 2352.78 10110.2 6782.57 2238.01 2590.44 5819.25 2239.51 1618.04 2098.47
internal_count=355571 300003 188389 111614 100083 90352 87071 55568 43311 84714 16786 46382 38332 35251 37852 32574 21262 11853 13466 88306 36144 7891 56772 26479 8901 8531 19108 6755 5788 5278
is_linear=0
shrinkage=0.05


Tree=25
num_leaves=31
num_cat=0
split_feature=1 9 0 9 9 1 10 8 14 9 10 1 10 1 20 0 10 9 5 9 10 10 14 8 10 1 1 2 0 14
split_gain=16373.8 11434.4 3013.85 1928.17 1222.69 1218.43 997.793 990.853 935.112 729.235 571.524 566.59 488.953 341.857 331.884 328.223 321.645 316.476 301.79 288.76 266.324 262.597 242.642 233.144 229.753 259.618 199.288 193.961 174.506 173.634
threshold=-0.029609551812220244 0.029527943981429525 -0.025082002427194824 0.042787166443272483 0.02072717867113643 -0.041769041769041775 -0.011434522425338265 0.049470813263951877 0.00017054098158547201 0.025541819317021808 0.064701730002704197 -0.0038610038610037973 0.13822111399560547 -0.015200415894837392 0.045695169144879692 -0.035967307440613876 -0.12283109487219034 0.06801530864313507 0.87931034175656209 0.03892703073587777 -0.069418710170626827 -0.15338223172608464 -2.8737505288655826e-05 0.049470813263951877 -0.19248776641588453 0.010581439322531862 -0.019584704833495389 -0.04582210242587597 0.090424253383594513 0.0046811808433736201
decision_type=2 2 2 2 2 2 2 2 2 2 2 2 2 2 2 2 2 2 2 2 2 2 2 2 2 2 2 2 2 2
left_child=5 4 15 6 -2 -1 13 8 16 27 -6 -8 17 21 -13 -3 -5 24 -18 20 -11 -4 -16 28 -10 -26 -12 -7 -24 -28
right_child=1 2 3 7 10 9 11 -9 12 19 26 14 -14 -15 22 -17 18 -19 -20 -21 -22 -23 23 -25 25 -27 29 -29 -30 -31
leaf_value=0.061669820582345325 -0.047761564822469217 0.06014691421522516 -0.026796978939190419 0.009726927481378796 -0.028631471639939721 0.034819756184692248 0.031494277506442882 0.06373275207032443 -0.027199982740295725 0.010601915953591641 0.034761518934267148 -0.010868113408313158 0.024349411232452167 -0.018868850806369797 0.041008831712110352 0.036776120562681001 0.044353456669802678 0.024204816031297507 0.018987687907816648 0.051394231390041338 0.042308651853311952 0.012101145016399351 -4.3878397768424199e-05 0.06731677962489617 0.01635253657732413 -0.0033805798775779199 -0.0098850131626139065 -0.017809185823216351 0.031694579983749513 0.05142715843773743
leaf_weight=13481.783507972956 7483.2400100007653 2820.4353911429644 567.61155997216702 1308.4148849099874 7269.9490257054567 233.09589555859566 2252.4725300073624 1211.3534200936556 703.09061692655087 1067.2517436742783 320.89976760745049 2758.0155739933252 4169.6592373400927 7077.9213190674782 591.4184682816267 3214.5767817795277 4146.2550497800112 1632.4924689084291 1634.9815600514412 3814.567908346653 1745.4181419610977 1841.610971108079 3252.6193814724684 152.15724566578865 2397.215336561203 5470.4434669315815 2465.7435275241733 703.23660963773727 499.61519786715508 121.14672921597958
leaf_count=38908 73619 7383 2312 3845 49206 615 6389 3192 2807 3070 1049 10682 11238 36401 1676 8413 10340 4329 4498 10194 4448 5941 12211 361 7483 19063 12397 2648 1270 310
internal_value=0.0143007 0.00195047 0.0146751 0.00989212 -0.0324189 0.0526586 -0.00185974 0.0197364 0.0172532 0.0365965 -0.0211381 0.00958881 0.00992327 -0.0133314 0.00278668 0.0476984 0.0321133 0.00402788 0.0371798 0.0424322 0.0302777 0.00293677 0.0111634 0.00664255 0.000184725 0.00263195 -0.00240344 -0.00470744 0.00418214 -0.0070137
internal_weight=86408.7 65363.3 47702.4 41667.3 17661 21045.4 18993.4 22673.9 21462.6 7563.57 10177.7 9506.3 14372.9 9487.14 7253.83 6035.01 7089.65 10203.2 5781.24 6627.24 2812.67 2409.22 4495.81 3904.39 8570.75 7867.66 2907.79 936.333 3752.23 2586.89
internal_count=356298 296415 159834 144038 136581 59883 77243 66795 63603 20975 62962 32589 44920 44654 26200 15796 18683 33682 14838 17712 7518 8253 15518 13842 29353 26546 13756 3263 13481 12707
is_linear=0
shrinkage=0.05


Tree=26
num_leaves=31
num_cat=0
split_feature=14 9 9 14 14 15 8 9 10 6 9 10 9 0 11 10 9 2 2 15 15 9 10 10 10 6 8 17 14 10
split_gain=15073.2 9915.8 2600.1 1124.93 1066.17 993.946 890.422 878.897 860.096 585.625 580.463 489.302 479.335 398.663 389.337 420.455 311.226 310.798 298.629 291.295 291.203 317.416 282.985 260.819 255.126 249.192 243.604 276.227 240.675 211.836
threshold=-0.0015170853499685895 0.027833125455426565 0.04099740554949427 0.00048043770170035218 -0.0024399803073674084 0.022742029948218622 0.049470813263951877 0.01935245491973538 0.025269205054186842 -0.032533302040746809 0.028338946526430136 -0.022139720787932856 0.065672252473779683 0.090424253383594513 0.50248733714168414 0.086461642817153531 0.058605154004882649 -0.070813054793335814 -0.049028286166263861 0.0084877109048751859 0.041580528838637304 0.04590862734886101 0.099765759434854454 -0.12414942136535166 0.28782422246186096 -0.040776975683890569 0.049470813263951877 -0.33300981308842836 0.0024394110086606315 -0.14654264953694493
decision_type=2 2 2 2 2 2 2 2 2 2 2 2 2 2 2 2 2 2 2 2 2 2 2 2 2 2 2 2 2 2
left_child=4 7 5 14 -1 23 9 -2 -7 -5 19 -9 13 17 -4 16 -16 -11 -13 -6 -12 22 -22 -3 -20 -10 27 -27 29 -19
right_child=1 2 3 6 10 8 -8 11 25 12 20 18 -14 -15 15 -17 -18 28 24 -21 21 -23 -24 -25 -26 26 -28 -29 -30 -31
leaf_value=0.058803050421699643 -0.048422905143852113 -0.0018327231456530726 0.045851193533434607 0.059390205477371977 0.037747392096693366 -0.016022749605687087 0.062493992189683892 -0.035272397166026391 0.075735390316935811 0.036113228903990123 0.0549495236806892 0.039820717357208192 0.027486636039610202 0.030193481234370663 0.0080224585330602866 0.0434761263228928 0.038292538624729998 -0.011629763338470057 -0.020170413401750183 -0.0071572975627614806 0.011846392763280865 0.048154347487301873 0.047286628399622978 0.032514086262602097 0.016432339732502729 0.02549537021544461 0.069700822652552202 -0.00041039283413006362 -0.0095266035965069634 0.010804146631034116
leaf_weight=12687.215495035052 6232.455364368856 718.32768471539021 4587.4107438325882 613.68425431847572 561.66216822713614 9539.5527846291661 903.84144148230553 4564.6434103101492 128.81435650587082 630.84081253409386 2836.3708651959896 263.71929943561554 3010.6646803915501 1419.2059569060802 2856.6726488620043 2381.775677755475 1208.3443883508444 1333.6821145862341 3445.3197226151824 1011.6486413404346 1804.748774677515 2369.1509424597025 818.81393592059612 2397.4568320214748 552.39401507377625 1253.911071896553 145.05497018992901 5736.6181103885174 4063.1627947986126 4987.1598495393991
leaf_count=36706 64150 2825 12650 1479 1768 48065 2454 34369 280 1698 7917 810 8042 3639 8783 6175 3174 5142 21899 4384 5556 6423 2097 7569 2224 3927 341 21080 14494 16178
internal_value=0.013809 0.00134353 0.012466 0.0222906 0.0493467 -0.0013421 0.0142069 -0.0340481 -0.00615147 0.0114891 0.0365866 -0.0238975 0.00958574 0.00525138 0.0347172 0.0267945 0.0170204 0.00203772 -0.0117132 0.0088734 0.0421557 0.0348876 0.0229073 0.0245956 -0.0151127 0.00681143 0.00556718 0.0042364 -3.24097e-05 0.00607065
internal_weight=85064.3 62974.7 47916.2 27996.4 22089.6 19919.7 16962.2 15058.5 16804 16058.4 9402.4 8826.08 15444.7 12434.1 11034.2 6446.79 4065.02 11014.8 4261.43 1573.31 7829.08 4992.71 2623.56 3115.78 3997.71 7264.4 7135.58 6990.53 10384 6320.84
internal_count=356298 291447 167995 83908 64851 84087 53126 123452 73693 50672 28145 59302 49193 41151 30782 18132 11957 37512 24933 6152 21993 14076 7653 10394 24123 25628 25348 25007 35814 21320
is_linear=0
shrinkage=0.05


Tree=27
num_leaves=31
num_cat=0
split_feature=14 9 9 14 9 14 14 10 5 10 8 9 2 5 10 8 6 0 6 8 9 5 10 2 11 10 10 5 14 4
